484 300
</s> 0.001334 0.001473 -0.001277 -0.001093 0.000456 0.001007 0.000314 0.000070 -0.001201 0.000739 -0.001452 0.000417 -0.000250 -0.000319 -0.001105 -0.000627 0.000860 0.001008 0.000990 0.000532 0.000515 -0.001268 -0.001365 0.001657 0.001267 0.001030 -0.000201 0.001339 -0.000165 0.000245 -0.000050 -0.000994 0.000437 -0.000446 -0.001275 0.001585 0.001460 -0.000365 -0.000075 0.000170 -0.001213 -0.001336 0.001518 0.000021 -0.000861 -0.001014 -0.001025 0.000566 0.000067 0.000444 -0.001405 -0.001269 -0.000043 0.000381 0.000850 -0.001057 0.001360 0.000309 0.000373 -0.000203 0.000995 -0.000763 -0.000699 0.000719 -0.000251 0.000344 0.000602 -0.001363 -0.000661 0.000971 0.001411 0.001311 -0.001016 -0.000703 -0.000303 0.000667 -0.001263 0.000999 0.000929 -0.000533 -0.000517 -0.000746 0.001410 0.001304 -0.000393 0.001405 0.001607 0.000605 0.001661 -0.001037 -0.000511 -0.000702 -0.000969 0.000938 0.000526 0.000142 -0.000731 0.000508 0.001020 0.000065 0.000760 -0.001651 0.001438 0.000160 -0.000610 -0.000694 -0.000249 -0.000978 -0.001457 -0.000946 0.001426 -0.000590 -0.000893 0.000772 -0.000568 0.001586 -0.000535 -0.001530 0.000905 -0.000025 -0.001163 0.000325 0.000481 -0.000160 0.000608 -0.001319 0.000294 0.000606 -0.001003 0.000047 -0.000020 -0.000800 -0.000944 -0.001565 0.000008 0.000051 0.000003 -0.001311 -0.001654 -0.001582 -0.001442 -0.000182 0.000464 0.000395 -0.001061 0.001666 -0.000670 -0.000425 -0.000468 0.001578 -0.001255 0.000387 -0.000445 0.001063 0.000014 0.001423 -0.000940 -0.000868 -0.001397 -0.001222 -0.001066 -0.001038 0.000815 -0.000622 0.000893 0.001230 0.000452 0.000984 0.000825 0.000780 -0.001184 -0.001144 -0.001219 -0.000044 0.001377 -0.000912 -0.001020 -0.001399 0.001102 -0.001393 -0.000193 0.000726 -0.001539 -0.001493 0.000481 0.001175 0.001421 0.000715 0.001054 -0.001043 -0.001213 0.001325 -0.000922 0.000584 0.000191 0.000597 -0.000394 0.000066 -0.000562 -0.000376 -0.001478 -0.001087 0.001162 0.000335 -0.000788 -0.000531 0.000832 -0.001178 -0.000771 0.001578 0.001416 -0.001320 0.000290 -0.000750 0.000051 0.001002 0.001615 0.000662 0.001371 0.001049 -0.000077 0.001492 0.000845 0.001580 -0.000568 0.001582 0.001443 -0.000476 -0.001473 0.001611 0.000299 -0.000693 -0.000239 -0.000245 -0.001284 -0.000477 -0.000148 -0.001642 -0.001172 -0.000401 -0.000314 0.000597 0.000272 -0.000205 0.000982 0.000482 0.000183 0.001206 -0.000375 -0.000476 -0.000138 -0.000909 -0.001000 0.000067 0.001446 -0.000456 -0.000007 -0.001378 0.001236 -0.000507 0.000989 -0.000803 -0.000298 0.000031 0.001208 -0.000029 0.001478 -0.000248 0.000700 -0.000046 -0.001301 0.001417 0.000352 -0.001010 0.001003 -0.001382 -0.001451 0.001089 -0.001144 -0.000883 0.001176 0.001095 0.000228 0.001508 0.001619 0.001352 0.000588 -0.001450 0.000763 -0.001631 -0.000429 0.000504 0.000327 -0.000508 0.000979 -0.001536 -0.000470 -0.000437 -0.000552 0.001024 
( 0.257957 0.759587 0.017847 0.933368 0.186392 0.151269 -0.180892 -0.236246 0.038103 -0.195469 -0.341440 0.456459 -0.039942 -0.267110 -0.146783 0.136054 0.433782 -0.216165 0.372209 0.380676 -0.292080 -0.496866 0.273988 -0.826030 0.391049 -0.524287 -0.405001 0.487888 0.110811 0.142838 0.506005 0.064703 0.042655 0.598022 0.396246 0.201945 0.067791 -0.273112 1.314248 0.474454 -0.170688 0.419537 -0.058478 0.130866 -0.426560 -0.179826 -0.186441 -0.175461 -0.237551 -0.316507 -0.193441 0.299049 0.000553 -0.091688 -0.365659 0.274338 -0.519432 -0.135868 -0.960003 0.054022 0.142557 0.008876 -0.255307 -0.178217 0.408660 0.613883 -0.413518 0.119384 0.475678 0.174052 0.354015 0.502619 -0.098200 -0.323222 -0.275447 -0.892317 0.074717 0.193047 0.668398 0.322985 -0.145144 0.189927 -0.014086 0.155369 0.463889 -0.004365 0.476657 0.625947 0.331014 0.365337 0.314989 -0.556451 -0.267926 0.121907 -0.136685 -0.145017 -0.100770 0.372570 -0.200224 -0.147697 -0.094499 -0.232586 -0.303942 0.163661 -0.496424 0.474982 -0.194928 -0.479383 -0.054155 -0.129046 -0.192273 -0.073642 -0.139384 -0.084066 -0.274927 0.142771 0.238643 -0.021210 0.211139 0.684929 -0.223119 -0.144669 -0.666714 1.016176 -0.105447 -0.286424 0.035447 -0.706936 0.497251 0.338645 -0.084423 -0.132539 0.338952 0.522652 -0.142551 -0.660792 0.414554 0.213602 -0.191966 0.179466 0.154888 0.013518 -0.222153 -0.484682 0.295792 0.028481 0.206700 0.119550 -0.329611 -0.471320 -0.355403 0.161832 -0.247758 0.467652 0.077744 -0.556355 0.428053 0.235236 -0.035115 -0.210538 0.028768 -0.171298 0.547886 -0.323182 -0.704330 -0.924688 0.401064 -0.223634 0.148816 0.162726 -0.048779 -0.087298 0.065118 0.193426 -0.379096 0.132988 -0.644838 -0.089592 -0.001436 -0.281486 0.452712 -0.220713 -0.447996 -0.000760 -0.203098 0.200533 0.001607 0.094785 0.313474 0.200629 0.265425 0.208944 -0.050709 -0.268997 -0.167914 -0.302154 -0.395307 0.026559 -0.785291 -0.229301 0.186383 0.311249 0.150243 0.125131 0.411963 -0.260914 -0.105183 -0.119629 -0.283386 0.016562 -0.013399 -0.306530 -0.059217 -0.182474 -0.032332 -0.163217 0.031749 -0.349507 0.209055 0.048826 0.384580 -0.157285 -0.369220 0.204548 -0.163538 0.048381 -0.212583 0.037589 0.038316 0.101788 0.168348 0.228813 -0.102772 -0.055251 0.493239 0.357871 0.279297 0.250948 0.850411 -0.373097 0.141998 0.127027 0.366957 0.173530 0.048421 -0.032698 -0.553187 0.352169 0.000667 -0.197594 0.083764 0.029092 0.376517 -0.001229 0.230755 -0.095849 0.327922 0.306175 0.205613 0.230408 -0.354942 0.145910 0.080347 -0.134090 0.053661 -0.369876 0.236401 0.111530 0.285809 0.472425 0.414639 0.165818 0.336971 0.038554 -0.013945 0.404245 0.221267 0.178070 -0.449381 -0.369066 -0.179845 -0.203255 -0.067670 0.325690 -0.053801 0.144206 0.113471 0.132539 -0.135629 -0.047872 0.468709 -0.217219 0.276319 -0.278178 0.484663 0.362484 -0.338971 0.421794 -0.153434 -0.000441 
) -0.158544 0.745471 0.075528 0.046186 -0.148701 0.061246 0.131727 -0.290582 -0.102516 -0.276075 -0.116176 0.251202 -0.054891 -0.264931 -0.136397 0.015025 0.031719 -0.129676 -0.202188 0.238478 -0.061979 -0.195098 0.436299 0.044737 -0.004780 -0.226630 0.082753 0.312768 -0.278084 0.028275 0.124185 0.009789 0.099944 0.290213 0.284527 -0.087442 -0.024180 -0.479632 0.584296 0.434389 0.043506 -0.003858 0.046927 -0.031968 -0.216872 -0.064113 0.266224 -0.008602 -0.307415 0.329472 -0.102737 0.253894 -0.010715 -0.226298 -0.062619 0.342817 -0.050814 -0.395522 -0.329738 0.044184 -0.103304 -0.067874 -0.002914 -0.087070 -0.179280 -0.013906 -0.238724 0.052866 -0.145256 -0.110225 -0.076663 -0.070304 0.462363 -0.060493 -0.075174 -0.268078 0.268952 0.879035 -0.182484 0.362518 -0.015591 -0.072070 0.019291 -0.010607 0.579015 -0.394162 0.234819 -0.247517 0.613585 0.150805 0.216291 -0.336984 0.017812 0.272365 -0.011094 0.000805 -0.424534 0.564677 -0.163439 -0.353432 0.071249 0.127505 -0.122199 -0.218318 -0.268477 0.389732 -0.478327 -0.501308 -0.229623 -0.182718 -0.091133 -0.002212 -0.364942 0.225998 -0.133977 0.008541 0.150024 0.160270 0.206138 -0.083924 -0.008116 0.352562 -0.106740 0.681924 -0.420156 0.194672 -0.098240 -0.272332 0.085271 -0.118458 0.088560 -0.398407 -0.191120 0.026117 0.151775 0.250951 0.011075 0.077984 0.006653 0.030834 -0.014158 0.456827 -0.001557 0.131914 0.263209 0.611675 0.402430 -0.038997 -0.406507 -0.589293 -0.054573 -0.090891 -0.093488 0.514732 0.013508 0.237887 0.282272 0.101025 -0.212238 -0.087497 0.372898 -0.230887 0.475639 -0.106149 -0.007015 -0.325128 -0.051022 -0.093142 0.054203 -0.303090 -0.132835 0.257330 -0.142713 0.234907 -0.438078 0.265488 -0.156759 0.141760 -0.293838 -0.135425 0.112590 -0.193228 0.015559 0.023932 0.034756 0.053558 -0.076369 0.203297 0.319710 -0.259913 -0.219486 -0.565491 -0.235002 -0.179562 -0.327113 0.055921 -0.314170 0.169246 -0.286288 0.053834 -0.347505 0.231814 0.333636 -0.128206 -0.136989 -0.261725 -0.024584 -0.270119 -0.103756 0.194523 0.155892 0.148422 0.169901 0.385422 -0.236489 0.445782 0.197576 0.039449 0.446609 -0.360204 0.265648 0.187607 0.320450 0.283365 0.122521 0.181903 -0.228415 0.034322 0.215503 0.214750 0.224570 0.363754 0.082045 -0.472560 0.229606 -0.216718 0.238551 0.100115 0.607050 0.269668 -0.144823 0.137002 0.231171 -0.390539 0.323784 -0.072268 -0.058366 0.164737 -0.307788 -0.145470 0.389984 -0.543303 -0.165963 -0.362699 -0.071856 -0.036112 0.419931 -0.205288 -0.029139 0.118822 -0.167993 0.058273 -0.432234 -0.428783 0.420869 0.302783 0.389024 -0.288012 0.280487 -0.190921 0.141572 0.212611 0.620648 -0.046586 0.024736 0.030539 -0.241327 -0.343903 -0.420405 0.179933 -0.162141 0.112911 0.117304 -0.045764 -0.550298 0.182402 -0.054427 0.021690 0.040760 -0.220156 -0.024002 -0.333904 0.008879 -0.004991 0.410584 0.471672 0.256849 0.208981 0.147958 0.497619 
; 0.457751 -0.064297 0.099399 0.370758 0.089591 -0.036583 0.134233 0.476193 0.155617 0.294391 -0.004985 0.558000 -0.164408 -0.214958 -0.145282 0.050127 0.211179 -0.538175 -0.219804 -0.494694 -0.302104 -0.162887 0.448471 -0.364618 -0.573788 -0.251833 -0.424836 0.446279 0.323725 -0.192720 0.270247 -0.237201 0.042115 0.197915 0.022620 -0.174030 0.107776 -0.761096 0.667094 -0.282209 -0.211302 0.220000 -0.219195 -0.223154 -0.270798 -0.468216 0.029279 0.024021 -0.657781 0.179735 0.041213 -0.227338 -0.244746 -0.541900 0.118765 -0.435888 0.080213 -0.278290 0.075537 -0.206740 -0.220932 -0.417388 0.031459 -0.263088 0.180914 0.367152 -0.061778 0.337446 0.415748 -0.420061 -0.131146 0.036150 -0.058703 0.258307 0.332487 -0.076160 0.621439 -0.016334 0.437493 0.284200 0.191497 -0.074746 -0.035385 0.363632 0.422216 -0.099984 0.350426 0.074288 -0.319196 0.348293 -0.077481 -0.373743 0.134524 0.256642 0.065791 -0.412961 -0.331348 0.272157 -0.166382 0.124353 0.283436 -0.427571 0.064112 -0.283141 -0.169365 -0.058105 -0.258601 0.157651 -0.294554 -0.224907 -0.325146 -0.198729 -0.697773 0.249327 -0.207537 -0.662219 -0.111417 0.393876 -0.333559 -0.078924 -0.269124 -0.316358 -0.356328 0.262459 -0.195970 -0.049741 -0.066863 0.040768 -0.677550 0.179698 0.097401 -0.420731 0.841581 0.438279 0.185503 0.057463 0.043518 -0.150676 0.122172 -0.045250 0.273675 -0.378352 0.312334 -0.034675 0.109689 0.446223 -0.383861 0.290696 0.244242 0.831548 0.098287 -0.489425 0.039998 0.408887 -0.248161 -0.046581 -0.294875 0.416029 -0.357955 0.244452 -0.522296 -0.076561 0.585315 -0.251354 -0.214004 -0.252388 0.362161 0.099087 -0.285092 -0.466662 0.008320 -0.240077 0.473091 -0.222518 0.056223 0.201794 -0.230439 0.102781 -0.418291 -0.405558 -0.036949 -0.131823 -0.238340 -0.141071 0.188064 -0.205275 -0.337695 0.112571 0.109169 0.001135 -0.163790 0.224131 -0.110839 -0.173041 -0.284006 0.231383 -0.178590 0.152746 -0.316196 0.193425 -0.246425 -0.455599 0.491533 0.197709 0.043156 0.454539 0.059064 0.351595 -0.742410 0.074791 -0.226837 0.320907 0.357933 -0.113145 0.360521 0.166822 -0.143950 -0.009534 -0.438230 0.235128 0.355076 -0.540527 0.138220 -0.301097 -0.302156 0.016311 -0.142741 0.353898 0.082449 -0.536706 0.273598 0.186652 -0.178210 0.276694 -0.110021 0.242796 0.402668 -0.258312 -0.190280 0.013692 0.153194 0.132998 -0.116051 -0.127107 0.082174 0.416987 -0.058180 0.570218 0.141919 -0.219818 0.093656 -0.504199 0.155998 -0.932594 -0.148485 0.074806 1.005511 0.282174 0.194690 0.031673 0.091026 -0.327380 -0.084343 -0.854043 0.092674 0.535623 0.112470 -0.439960 -0.086836 -0.629226 0.174345 -0.524547 0.010370 0.591092 -0.499794 -0.015723 0.108552 0.227341 0.474162 0.182413 -0.271470 -0.027558 -0.350787 -0.200097 -0.265351 0.426974 0.234284 -0.600808 0.108649 0.580961 0.457053 0.278752 0.188249 0.054630 0.039005 0.215571 -0.013445 0.815150 0.096069 0.214988 
= 0.151498 -0.248538 0.415789 0.175758 -0.072157 -0.626456 -0.024077 -0.029487 0.437323 0.795059 0.341743 0.773930 -0.175008 0.747775 0.520966 -0.881401 0.021008 -0.774242 0.053996 0.072530 -0.198262 -0.480222 0.680037 -0.076672 -0.125932 -0.203486 -0.267347 0.231593 0.256040 -0.044017 0.017675 0.034312 -0.212157 0.146340 -0.149770 0.347609 -0.500508 -1.298697 1.007397 0.529907 -0.619752 -0.492549 -0.882541 -0.867919 -0.171116 0.010892 0.465598 -0.176757 -0.219007 0.057812 0.607751 -0.089690 0.585764 0.339814 -0.304189 -0.533376 -0.447991 -0.455559 0.286489 0.026533 0.870131 -0.454138 0.196483 -0.161202 0.584457 -0.010970 -0.077226 -0.055418 0.421170 -0.131752 -0.126088 0.370905 -0.122513 -0.224992 0.501955 -0.342048 -0.383059 0.425681 -0.005222 0.547795 0.207633 0.461236 -0.057045 -0.070608 -0.103087 0.124262 0.557597 -0.225590 0.125102 0.314823 0.221550 -0.314848 -0.012513 -0.145480 -0.195489 -0.815301 0.594853 0.351355 -0.105697 -0.674369 0.407677 -0.095727 0.133146 -0.178279 -0.718923 0.051373 -0.335869 -0.240281 -0.105184 0.013710 -0.347984 0.400716 -0.321358 0.632943 0.019680 0.014265 -0.330575 -0.277539 -0.396514 0.346001 -0.187608 0.059029 0.336383 0.475333 -0.579489 0.084482 0.058946 -0.302675 -0.173980 0.046883 0.628082 -0.266957 -0.334095 0.233598 0.154481 -0.034853 -0.093371 -0.165726 -0.371253 -0.057859 0.274837 0.183582 -0.349480 0.158539 0.171393 0.251792 -0.211655 -0.049466 -0.671145 -0.749461 -0.616716 -0.360020 -0.150797 0.043370 0.584089 0.272540 0.607861 -0.212125 -0.432852 0.038538 0.488383 -0.428341 0.768357 -0.470701 -0.001816 0.006774 -0.022806 0.401264 0.033341 0.100607 -0.356622 0.677259 0.106094 0.704364 -0.020540 -0.052021 0.079340 -0.050226 -0.181659 0.060646 -0.054138 -0.561644 -0.153935 0.491937 -0.106146 -0.050246 -0.110125 0.253508 0.310785 -0.151275 -0.402597 -0.303474 0.085701 -0.011328 -0.044215 -0.074912 0.285456 0.285221 -0.245943 -0.203569 0.612700 0.081522 0.419659 0.010901 -0.389147 -0.140958 -0.564202 -0.075134 -0.265638 -0.523606 -0.047380 -0.376630 0.071591 0.027676 -0.378102 0.021032 -0.123485 0.032712 0.451571 -0.720023 0.463911 0.000298 -0.546422 0.155799 -0.550510 0.204885 0.172853 0.349501 0.514673 0.288577 -0.007852 0.542504 0.133793 0.167684 -0.401281 -0.619937 0.153867 0.391591 0.211628 0.290713 -0.385972 -0.441623 0.582808 -0.217641 0.070135 -0.085846 -0.805540 0.179163 0.039240 -0.690592 -0.028305 -0.038890 -0.386557 -0.255475 -0.020917 -0.182178 0.593833 0.430629 -0.204115 0.211814 0.100594 0.325538 0.166662 0.000363 0.393879 -0.001851 -0.227441 -0.271709 -0.182029 -0.221410 0.497786 0.220821 0.665284 0.081875 -0.237033 0.265554 -0.029715 0.334864 0.586328 -0.306338 0.582248 -0.081206 -0.170363 0.386434 -0.001069 0.098364 0.039603 0.149673 -0.003566 0.274500 -0.072966 -0.430667 -0.125960 -0.221903 0.132562 0.215166 -0.134138 0.326008 0.008917 -0.045506 
, 0.275670 -0.200417 0.096558 -0.253278 0.000419 -0.314067 -0.199535 0.768855 0.153405 0.598579 0.271454 0.946771 -0.311402 0.184759 -0.402792 0.361983 0.110823 -0.835483 0.213974 0.352028 -0.823108 -0.734058 0.453501 -0.992559 0.107157 -0.279846 0.153585 0.614716 0.062178 0.167623 0.484599 0.289673 0.074281 0.734244 0.378546 -0.132612 -0.200754 -0.410474 1.003002 0.110674 0.291977 -0.459752 0.103054 -0.364288 -0.385634 -0.256718 -0.199154 -0.224373 -0.275803 0.450104 0.387020 0.174860 0.107537 -0.710286 0.109344 -0.244718 -0.583500 -0.288819 -0.751355 0.042420 0.547910 0.187138 -0.172590 -0.061289 0.067749 -0.115294 0.219047 0.091182 -0.340662 -0.826727 -0.127397 0.079224 0.024519 -0.142182 0.213620 0.162471 0.894414 0.613126 0.476876 0.819358 0.469517 -0.200241 0.383763 -0.315554 0.295721 0.439731 -0.606290 1.075220 0.172415 0.572924 0.102681 -0.357249 0.252567 0.695487 -0.215122 -0.010000 -0.320929 -0.156970 0.111229 0.034833 -0.489975 -0.071219 -0.398103 0.077069 -0.164538 0.090407 0.377195 0.118422 -0.594895 0.435424 -0.433629 -0.020654 0.274703 -0.107620 -0.628657 -0.360084 0.093123 -0.024121 0.404130 0.145183 -0.682459 -0.263124 0.002797 -0.170349 0.147468 0.092943 0.263345 0.382927 -0.256013 0.121364 0.029711 0.168368 0.052303 0.026507 -0.319073 0.558055 0.049559 0.500460 0.249566 -0.119476 0.007744 0.285911 -0.119818 -0.487716 0.308608 0.567961 0.508858 -0.049738 -0.309594 0.066237 -0.684186 -0.102949 0.216964 0.493936 -0.312524 -0.032629 -0.273956 0.395198 -0.477825 0.344312 0.132947 -0.373640 0.827497 0.365394 -0.147008 0.446239 0.202156 -0.071607 -0.054080 1.292856 -0.130171 -0.349718 -0.106003 0.354588 -0.402858 -0.164072 0.313437 0.327532 -0.169779 0.003917 0.104001 -0.176878 -0.397006 0.521112 0.097816 -0.117819 0.064787 -0.295858 -0.304542 0.258304 0.434383 0.349136 0.045709 -0.172415 -0.428259 0.321801 -0.412955 -0.417999 -0.083340 -0.178036 -0.265308 -0.071172 0.286871 0.298137 -0.370548 -0.273018 -0.048263 0.054247 0.069003 0.424751 -0.510067 0.169488 -0.306958 -0.227739 0.309811 0.300296 -0.149502 0.080122 0.075935 0.060346 -0.166320 0.203381 0.228199 -0.102948 -0.315419 -0.106897 -0.022236 -0.444053 0.544365 -0.074586 -0.167983 0.698771 -0.442986 -0.169351 -0.440556 0.205520 0.302763 0.239479 -0.548238 -0.674478 0.306240 0.209292 0.126972 0.445048 -0.549482 0.056031 0.083285 0.273847 0.215310 0.200477 0.560194 0.030835 0.208232 0.167967 0.702641 -0.177379 0.321192 0.660488 0.606389 -0.112283 0.592769 0.395172 0.079591 -0.122056 0.144660 -0.776945 0.009070 -0.420004 0.198911 0.293596 0.523238 -0.056724 -0.272899 0.332614 -0.022398 -0.843801 0.167588 0.360099 0.090110 -0.042204 -0.240686 0.677017 -0.265002 0.031590 0.066878 -0.353451 -0.384907 0.330855 0.430073 0.225006 0.400761 -0.405119 -0.138859 0.475116 0.233906 -0.012375 -0.217053 0.559842 -0.071669 -0.308246 
. -0.287273 -0.117205 -0.170774 -0.075092 0.175539 0.662031 -0.156140 0.388932 0.434413 0.078666 0.544993 0.251048 -0.241920 0.114485 0.209473 0.469238 0.617175 -0.488756 -0.122056 -0.293819 -0.254891 0.299225 1.188344 -0.665444 -0.999270 0.495782 0.674168 0.129304 -0.001499 -0.558132 -0.225142 0.284310 -0.404034 0.667724 0.563040 -0.043667 0.351732 -0.540661 0.118619 -0.056375 0.094451 0.748328 -0.202221 -0.149489 0.257704 -0.447274 0.956044 0.160964 -0.073676 0.184307 -0.126432 -0.308436 -0.129650 0.128439 -0.187002 -0.280208 0.208111 -0.232048 0.545464 -0.407112 0.040758 0.114669 -0.023412 0.166835 -0.918149 0.742571 0.519186 -0.418778 -0.409243 0.141173 -0.102871 0.247939 0.369657 0.426008 0.699836 0.408574 -0.112641 0.624725 -0.097300 -0.067406 0.432237 -0.459242 -0.186666 -0.141836 0.561611 0.191819 -0.090514 0.058449 0.092860 -1.172587 0.041926 0.212485 -0.110957 0.374158 -0.154448 0.937344 -0.203174 -0.385105 0.012271 -0.283682 -0.141712 0.286601 -0.157470 0.233125 0.324170 0.248919 -0.298691 -0.090593 -0.662754 0.092686 -0.111601 0.168263 0.164319 0.441763 -0.389418 -0.097646 0.652775 0.324147 0.256273 -0.414653 -0.142306 0.766664 0.586961 -0.465398 -0.467916 -0.006859 -0.123597 0.034003 -0.749715 0.274647 0.161662 0.464337 -0.532164 0.012662 -0.335693 1.085605 0.099868 0.166223 -0.345445 0.041511 0.408022 0.044576 -0.119518 -0.157428 -0.313042 0.480079 -0.045523 0.105572 0.484302 0.498683 0.294657 -0.841604 0.677514 0.090568 -0.029084 -0.573376 -0.220459 0.452419 0.282185 -0.241304 -0.585242 0.189447 0.040381 -0.648871 0.303894 0.275282 -0.367353 0.117616 0.417573 -0.551427 -0.007670 -0.195817 0.093656 0.028111 -0.125518 0.067029 0.545444 0.853485 -0.270352 0.286291 -0.248060 -0.074707 0.056250 0.079634 -0.159393 0.501032 0.396855 0.371607 0.163168 0.165176 -0.598643 -0.120119 -0.273590 -0.229554 -0.204090 -0.743587 -0.137986 0.190064 -1.015999 0.363159 -0.470958 0.798901 0.646680 -0.757372 -0.271168 -0.241150 0.471944 -0.034153 -0.022819 0.641780 -0.211365 -0.132275 -0.116424 -0.261139 0.045992 -0.582848 -0.473552 0.044918 -0.127790 -0.371387 -0.471907 -0.366797 0.106125 0.248494 0.390095 -0.433467 0.398934 -0.089362 0.255146 -0.215552 -0.397606 0.275457 0.261449 0.414826 -0.488955 0.534787 -0.095117 -0.268920 0.301723 -0.651179 0.014956 0.518335 0.498613 -0.362866 -0.063382 0.112932 0.315290 0.023695 -0.020530 -0.457380 -0.153654 0.077711 0.477708 -0.072731 -0.319400 -0.178460 -0.073941 0.640121 -0.281820 -0.832879 0.450398 -0.229292 -0.143718 -0.363692 0.485797 0.485264 -0.041709 -0.493227 0.399793 0.484776 0.373533 0.248338 0.284011 0.021161 0.449053 -0.269756 0.478584 -0.201223 -0.307087 -0.272993 0.168748 0.066840 -0.470894 -0.045045 -0.052384 0.016122 0.167907 -0.454492 0.441139 -0.007581 0.747052 0.287404 -0.235244 0.310234 0.226215 -0.135204 -0.073161 0.970379 -0.558863 -0.057628 
uint256 -0.033836 0.196675 0.010866 0.332493 0.958477 0.077490 0.098689 0.459937 -0.141377 0.583691 0.237180 -0.099174 -0.048675 -0.031148 0.146612 0.141121 0.517315 -0.071766 -0.172269 0.048319 0.260268 -0.032043 0.270567 0.121202 -0.685159 0.416677 -0.324047 -0.234410 -0.324984 -0.283811 0.216114 -0.086999 0.046047 0.390355 0.173115 -0.053231 0.051452 0.370504 0.483380 0.074883 -0.069034 0.691552 0.051958 -0.304395 0.011622 0.126541 0.321892 0.146302 0.097130 -0.419089 0.298722 -0.078071 0.268969 -0.613360 -0.581308 -0.184332 -0.293394 0.376770 -0.342336 -0.319350 -0.401350 0.425583 0.139566 -0.646375 0.199081 0.692872 -0.311523 -0.357481 0.699762 -0.088635 -0.182343 0.254400 0.826041 0.365132 -0.314525 -0.151638 -0.343304 -0.098459 -0.259916 0.076287 0.282106 0.475271 0.203307 0.596785 0.416230 -0.567172 -0.252361 0.030047 -0.099481 -0.424493 -0.220218 0.084351 0.395944 0.102337 0.122784 0.569726 0.280337 -0.398359 0.519517 -0.649449 -0.081423 0.656528 -0.244546 -0.037767 0.099303 0.553523 -0.186461 -0.432163 -0.045656 0.164204 -0.188674 0.620927 0.129720 0.215075 -0.965148 0.229456 -0.083461 -0.126657 0.146743 0.401066 0.469241 -0.243824 0.546417 0.014751 0.279630 -0.183116 0.067501 -0.497641 0.170835 0.256533 -0.231179 -0.047673 -0.668318 -0.093107 0.005041 -0.598223 0.051829 0.344828 -0.405638 0.335903 -0.612178 0.745648 0.778858 -0.875811 0.793330 0.188701 0.184960 -0.575047 -0.355796 -0.022821 -0.430468 -0.242329 0.033468 0.713585 -0.118176 -0.634200 -0.024467 -0.111535 -0.113670 0.125247 0.540658 -0.301896 0.100619 0.096537 -0.129560 0.117255 0.317377 -0.007854 0.731543 -0.723805 -0.150793 0.507195 0.280091 -0.345877 0.392587 0.374181 -0.216765 -0.223686 -0.641959 -0.081571 -0.498664 -0.264636 -0.302947 0.012271 -0.571098 0.343572 0.441534 -0.224165 -0.103926 0.156828 0.101740 0.460248 -0.430777 -0.675908 -0.272987 -0.861769 0.121308 -0.216773 -0.406690 -0.055038 0.030396 0.338613 0.200606 -0.471823 0.149061 -0.016639 -0.355071 0.055182 -0.051344 0.453754 0.514298 0.166342 0.017270 -0.244043 0.086447 0.182880 0.156699 -0.129605 0.184119 0.039378 -0.380632 -0.440105 0.104407 0.029681 -0.404041 -0.004715 0.279965 0.211757 0.381294 0.496472 0.251990 0.522822 -0.466698 -0.107476 -0.072048 0.289084 -0.347661 0.206503 0.452681 -0.096511 -0.333286 -0.423370 -0.301035 -0.049494 0.081295 -0.469398 0.373110 0.287804 0.227914 -0.082780 -0.015055 0.223756 -0.006362 0.050613 0.545870 -0.235060 0.162252 0.404982 0.152112 -0.030306 -0.166214 -0.396285 0.225077 -0.247078 -0.186936 -0.432561 0.034671 0.543675 -0.032375 0.817591 0.425546 -0.440756 0.732877 0.103805 -0.464907 -0.501370 0.573339 -0.467677 -0.380608 0.018069 0.426492 0.205358 -0.462463 0.032322 -0.383585 0.135330 -0.036747 0.155753 -0.404572 0.082510 -0.137891 0.257822 -0.002134 -0.098772 0.349030 -0.187404 -0.209522 -0.172124 -0.720596 0.057902 
{ 0.088051 -0.818592 0.269778 0.236844 -0.217090 0.259908 0.294273 0.392684 0.443575 0.086260 0.266217 0.032863 -0.555344 0.193697 0.255941 0.129560 -0.229683 -0.203368 0.515893 -0.376124 0.309175 0.574321 -0.013070 -0.468861 -0.488430 0.458941 -0.430522 0.095014 0.372098 0.253039 -0.075884 -0.137365 0.307968 0.734266 -0.575393 0.011644 0.135507 -0.619242 0.608171 -0.344303 -0.593886 -0.569945 0.401322 -0.087173 0.312709 -0.307808 -0.190450 -0.130303 0.012782 0.051928 -0.281478 -0.433562 -0.223517 0.212730 -0.392682 -0.143091 0.433176 0.230629 0.032626 0.390727 -0.574690 -0.252326 -0.073734 -0.373808 0.106244 0.428865 0.068023 0.133884 -0.257978 0.257892 -0.260204 0.025714 -0.093938 -0.110016 0.518528 -0.061876 -0.250539 0.059332 1.353836 -0.255628 0.498111 -1.209113 -0.090433 0.290651 -0.174423 0.171567 -0.107842 0.655298 0.071873 0.094151 0.048507 -0.124014 -0.383781 0.522294 -0.168329 -0.299075 -0.122531 0.060386 -0.397992 -0.381143 0.015637 -0.151852 0.086530 -0.365122 -0.511190 -0.495110 0.269655 0.573192 -0.225813 -0.009783 -0.649245 -0.486443 0.237475 -0.136225 0.629884 0.225107 0.254619 -0.104230 -0.975211 0.171473 -0.428693 -0.061992 -1.182503 0.468950 -0.655558 0.555117 -0.125530 0.362501 -0.166637 0.700550 -0.082183 -0.165497 0.661717 0.229553 -0.243493 -0.228619 0.327297 0.041397 -0.571804 -0.248751 0.090277 -0.659799 0.001597 0.016792 -0.299852 0.736302 0.177545 0.542751 0.217690 0.269971 0.430242 -0.544280 0.095444 0.658043 -0.117814 -0.503611 -0.176552 -0.085848 -0.600468 -0.170399 -0.117536 -0.080001 -0.211423 0.389013 -0.133591 -0.532772 -0.151868 0.390324 -0.059013 0.407590 0.190656 0.146385 0.289101 -0.101062 -0.148433 0.163935 -0.576658 0.028052 -0.008828 -0.217656 0.380966 -1.398014 0.055758 -0.500805 -0.159140 -0.792417 -0.369260 -0.058714 0.057980 0.658749 -0.375662 0.025677 0.519769 -0.004377 -0.595245 -0.409640 0.020429 0.759505 -0.493917 0.396929 -0.200668 0.013455 1.129847 -0.041717 -0.374681 -0.009702 0.750477 -0.064679 -0.407945 -0.272127 -0.676323 -0.466974 0.239156 -0.917397 0.857742 0.563838 0.222596 0.461541 -0.168506 0.901161 0.010409 -0.334499 -0.421105 -1.046237 -0.274548 -0.714960 0.089339 0.208847 0.084957 0.115273 -0.073931 0.353948 0.442707 0.268764 -0.421866 -0.023343 -0.663597 -0.196028 0.757189 0.326090 -0.043791 0.442261 -0.112169 -0.962926 0.294684 0.095207 0.136179 0.654679 0.259637 -0.014048 -0.187439 0.348329 0.155082 -0.224676 0.641652 0.589437 0.855694 0.186590 -0.324600 -0.037550 0.043394 0.060544 -0.091406 -0.556014 0.721595 0.034628 -0.189917 -1.107588 0.156033 -0.088185 -0.301198 -0.111857 -0.105232 0.292562 -0.060588 -0.684173 0.052304 -0.602533 -0.099567 0.199854 -0.542060 0.396835 0.227650 0.249214 -0.331113 0.669787 0.064868 -0.622001 -0.107558 0.550635 -0.270267 -0.080087 -0.309310 0.453602 0.603600 -0.912428 -0.207225 0.454747 -0.101253 0.061639 
} -0.102294 -0.532805 0.108541 0.114098 0.232583 0.017288 0.031007 -0.062960 0.070925 0.309945 0.151850 0.896363 -0.496756 -0.511121 0.585957 0.036818 0.058042 -0.079407 0.181216 0.376481 -0.170872 -0.165877 0.450057 -0.228562 -0.059692 0.337748 0.432556 0.451631 0.885136 0.079445 0.137486 0.045150 0.556264 0.101977 0.602408 0.213702 0.109523 -0.286827 0.466615 -0.121063 0.005601 0.564147 -0.058328 -0.239725 0.033781 0.047922 0.126899 0.202341 -1.149933 0.134787 0.039764 -0.615174 0.132163 -0.493546 0.406645 -0.626076 0.159096 -0.708264 0.138506 -0.509644 0.244199 -0.260991 0.105630 0.142205 -0.447254 -0.261896 -0.164744 0.093300 0.065451 0.237714 0.249069 0.325461 0.083465 0.582311 -0.453229 -0.400291 0.230096 0.507782 0.248499 0.203952 0.454037 0.085825 0.282935 0.036182 -0.580399 -0.210871 -0.330696 0.168919 -0.393155 -0.373098 0.026586 -0.364533 0.311844 -0.331402 0.365504 0.410808 0.287337 0.318103 -0.184630 -0.203030 -0.122694 0.449369 -0.091878 -0.027864 0.431281 0.383891 0.009878 -0.240942 -0.570446 -0.198455 -0.028615 -0.149407 0.493832 0.374574 0.309232 0.572429 0.504428 -0.514988 -0.329740 -0.118895 -0.457975 0.239257 -0.043816 0.015343 -0.238769 0.155627 0.115474 -0.077085 0.079190 -0.450941 0.370008 0.264184 0.114631 0.034483 0.103022 0.273095 -0.443269 -0.004711 -0.325531 0.247807 -0.037413 0.158664 0.246413 -0.388437 -0.325062 0.281003 -0.050639 0.261304 -0.146026 -0.410538 0.587652 -0.062695 -0.201394 0.718151 -0.009744 0.423479 0.549960 -0.184676 -0.379181 0.232199 0.850728 0.330090 -0.074203 0.409096 0.265051 -0.405741 0.011041 -0.004129 0.304500 1.510307 -0.098318 -0.254874 -0.090172 -0.136772 -0.197791 -0.565004 -0.534405 0.240404 -0.252471 -0.177872 -0.207599 -0.730013 0.248805 -0.404911 -0.220660 -0.049991 0.368515 0.400571 0.152601 0.056002 -0.919338 0.056014 -0.388219 0.141869 -0.111324 -0.674434 0.704118 0.010393 0.502179 0.163359 0.241757 -0.082796 0.636894 -0.000846 -0.002071 0.070488 -0.003100 0.223549 -0.414672 -0.058745 -0.209626 -0.351429 -0.088518 0.028268 0.187872 0.606778 0.371684 0.758104 -0.166354 0.255007 0.428353 -0.429493 0.205949 -0.015822 0.231076 0.522399 0.744686 0.186339 -0.170288 -0.036982 0.299674 0.388118 -0.252889 -0.517689 -0.024476 -0.268837 -0.164299 -0.344194 0.083865 0.273894 -0.558326 -0.523694 -0.277428 -0.386818 0.175822 0.177516 0.159940 -0.149050 0.417446 -0.644216 0.285295 -0.000709 -0.046469 0.097692 0.349520 0.254098 0.120535 -0.603297 0.272562 -0.242567 -0.185526 0.299929 0.230467 -0.003177 0.563086 -0.080450 -0.207860 -0.211517 -0.420376 -0.048143 0.580059 -0.234484 -0.234907 0.052952 0.301524 -0.680101 -0.522006 -0.285088 0.240525 0.213697 -0.003064 -0.144145 -0.296535 -0.227068 -0.148333 0.014394 -0.565842 -0.115676 0.152364 0.329155 0.004067 -0.047972 -0.578925 -0.179733 0.206333 -0.018754 0.248145 0.529264 -0.838554 -0.341120 
address 1.323704 0.159300 0.080949 -0.055960 0.333891 -0.168015 0.767257 0.647075 0.429060 -0.261419 0.384073 -0.494680 -0.056125 -0.130011 0.477256 0.281866 -0.752368 0.201464 0.169557 0.042480 -0.200979 0.136694 -0.289280 0.048912 0.033282 0.598799 0.420070 -0.129541 -0.332452 0.253147 0.057690 -0.611245 0.447011 0.740305 -0.116824 -0.115018 -0.111108 0.406381 -0.109590 -0.052612 0.418460 -0.394040 0.482514 0.656189 -0.681541 -0.256894 -0.691508 -0.116631 0.477643 -0.232728 -0.064203 0.521178 -0.434504 -0.653068 -1.473775 0.752315 -0.345028 -0.186773 -0.606007 0.859738 -0.270191 0.999205 0.354508 -0.110144 0.099484 -0.305423 -0.255546 -0.244731 0.967261 0.362551 -0.003221 -0.350881 0.058345 -0.503298 -0.216244 -0.181686 -0.520801 -0.362057 0.043683 -0.198000 0.358798 0.525048 -0.108450 0.497786 0.111334 -0.261458 -0.044423 -0.058479 0.483042 0.349480 0.293123 -0.596105 0.251759 0.353758 0.037650 0.231603 -0.104378 -0.119042 1.009817 -0.411827 0.313582 0.023000 0.374625 -0.317800 1.123418 0.062571 -0.387329 -0.691411 0.306279 0.380065 0.134037 -0.088475 0.647826 -0.072976 -0.721170 0.039939 0.386915 -0.530877 -0.711618 -0.390029 -0.827843 -0.218851 -0.865979 -0.160459 -0.016136 -0.112383 -0.039975 -0.192377 0.090647 0.479791 0.166546 -0.461201 -0.012379 -0.192815 0.426913 -1.241939 0.342089 -0.454746 0.085687 0.173641 -0.381007 -0.024007 0.537287 0.480603 0.052154 1.067873 0.422335 -0.120139 0.243618 0.002002 -0.543747 0.299586 0.372831 0.265910 -0.208698 -0.819095 -0.505560 0.221874 -0.433856 -0.118611 0.097084 0.499032 0.330221 0.242467 -0.335453 0.548930 0.631162 0.255207 0.328791 -0.283209 0.108585 -0.011845 0.445891 -0.376059 0.597449 -0.201504 0.584161 0.529981 0.078643 -0.284899 0.493721 -0.461251 -0.006767 0.296220 0.156914 -0.037884 0.283019 -0.424651 -0.032707 -0.166533 0.067422 -0.263991 -0.010520 0.732201 -0.562204 -0.472798 -1.186016 -0.010446 0.438269 -0.046935 -0.330987 0.005308 0.313810 0.191715 -0.601982 -0.069462 -0.062263 -0.214625 -0.337636 0.331118 -0.285369 0.051456 0.193426 0.357544 -0.076286 1.180908 -0.031605 -0.229248 0.140217 -0.352600 0.059136 -0.182563 0.938424 0.478169 -0.639700 0.132472 -0.466422 0.067650 0.519515 -0.227231 -0.110878 -0.144293 -0.126131 0.142899 0.158575 -0.451111 -0.653210 -0.135474 0.394835 0.527356 0.352606 0.418643 -0.080650 -0.391327 0.474664 -0.637453 -0.252979 0.673755 -0.130393 0.379530 -0.341995 -0.932677 0.399583 0.582822 0.417048 0.171393 0.043140 -0.363347 0.597630 -0.379896 -0.035088 0.242489 -0.186244 -0.280136 0.057925 -0.215338 0.258793 0.457028 -0.616730 -0.257119 -0.308826 -0.511758 0.039422 0.272302 -0.730213 -0.114625 -0.140538 -0.425879 -1.211115 -0.061810 0.060143 -0.152627 0.184361 -0.520988 -0.576144 0.373662 -0.610687 -0.006418 -0.116828 0.030168 0.103586 -0.654282 -0.058592 0.882064 0.357289 -0.206501 0.007190 -0.418264 0.028173 0.402179 
public 0.821845 -0.542486 0.135985 0.439113 -0.650232 -0.158348 -0.094545 0.447305 0.199830 0.460105 0.570207 0.804554 -0.200918 -0.020859 0.339654 0.176395 -0.023893 -0.807433 -0.335297 -0.475747 -0.049561 0.352094 -0.784273 -0.363972 0.943106 -0.523092 0.362677 -0.183394 0.004556 0.095849 0.159910 0.339967 -0.084361 0.443136 -0.097674 -0.344655 -0.466506 0.614363 0.491625 -0.977576 -0.479207 -0.313894 0.178101 -0.018886 -0.338349 -0.306003 0.379957 -0.978665 0.038874 0.145821 0.015369 -0.319172 0.516097 -0.113697 -0.778940 -0.130595 -0.563974 -0.212014 0.902868 -0.224261 0.674716 0.217456 -0.370009 -0.118341 -0.250280 0.383805 0.060689 0.063485 0.039146 -0.403502 0.732175 0.161105 -0.484095 -0.179549 0.183826 0.268451 -0.023401 -0.207919 0.312875 -0.096484 0.355181 -0.915260 -0.781027 0.066945 0.010639 0.358030 0.729151 0.110382 0.017014 0.927121 -0.141940 -0.027472 -0.118359 0.543693 0.267803 -0.278643 -0.138546 0.676043 0.307932 -0.010193 0.304871 0.054025 0.333498 0.040527 0.124191 0.167327 -0.375181 0.814676 -0.058194 0.046284 0.177613 -0.191328 -0.139786 -0.146225 -0.222921 -0.134241 -0.232922 -0.009762 -0.390769 0.031924 0.390238 0.025100 0.017996 -0.048699 -0.060173 -0.511545 0.169675 -0.217791 -0.607905 0.142761 0.084245 0.321932 -0.484385 0.320656 -0.345695 0.188614 -0.600785 -0.118282 0.474622 0.055070 0.359786 -0.072346 -0.054876 -0.144102 -0.144988 0.388772 -0.483819 0.273648 -0.253933 -0.085026 0.016054 -0.242482 -0.613132 0.164940 0.737472 0.226230 0.871927 -0.705141 0.059754 -0.167119 0.119617 -0.087657 -0.559143 -0.609906 -0.351524 0.097010 -0.372893 0.742492 0.248310 0.177439 0.750854 0.446173 0.061396 -0.073716 -1.170109 0.061348 -0.469833 -0.273709 0.197319 0.316313 -0.187796 -0.570350 -0.266986 0.136517 -0.448393 -0.086506 0.368708 -0.774626 0.460521 -0.246132 -0.288921 -0.361565 0.298310 0.593166 -0.169237 0.121808 -0.145918 0.109361 -0.734474 -0.335812 0.276772 -0.004143 -0.097593 0.661072 0.126103 -0.178006 -0.569967 -0.226850 -0.734414 -0.038045 -0.689980 -0.100307 0.122573 -0.331507 0.254516 -0.117707 -0.684972 -0.175266 -0.423925 -0.833578 0.010577 0.579527 -0.636891 0.103049 -0.783888 -0.138467 0.186273 0.175307 0.530026 -0.470707 -0.312170 0.656145 0.410213 -0.509156 0.323109 0.009629 0.206271 0.321974 0.160027 -0.156639 0.200283 0.769164 0.453329 0.956598 0.315928 0.172218 -0.415287 0.095677 -0.082315 -0.348167 0.518425 -0.544062 0.551049 0.024682 -0.329930 -0.038238 -0.672846 -0.165865 0.353601 0.192056 0.713158 0.876801 -0.447219 -0.039872 0.730774 -0.029993 0.006961 0.135961 0.040413 -0.687839 0.010595 -0.511751 -0.170184 -0.125501 0.068546 -0.114480 0.031280 0.619154 0.975084 -0.227428 -0.350740 0.147223 0.394277 0.226637 -0.414300 0.255325 0.281852 -0.103257 0.395513 0.408371 0.487036 -0.122854 0.074935 -0.399908 0.320586 0.213121 -0.519306 1.177171 0.123942 0.456588 
[ -0.300155 -0.455117 0.331979 0.134780 -0.056970 0.189991 -0.519800 -0.405493 -0.024932 -0.051319 -0.058667 0.134903 0.409419 -0.042292 -0.147104 -0.162050 0.796443 -0.471349 -0.081479 -0.162180 -0.332712 -0.268885 0.696482 -0.186450 -0.744047 0.442024 -0.703089 0.196452 -0.026746 -0.314078 -1.187309 -0.411881 -0.174598 -0.339262 0.008822 -0.041563 -0.244888 0.033273 0.563275 0.267949 0.184903 0.163026 0.546367 -0.284686 -0.106644 0.299909 0.537982 0.413256 0.422135 -0.007711 -0.386578 0.182933 0.255906 0.051700 -0.433723 -0.404768 0.217385 -0.686244 0.188691 0.239842 -0.122122 0.239105 0.152894 -0.208878 -0.413561 0.513009 0.601174 0.255840 -0.107060 -0.135711 0.459532 -0.405582 0.240026 0.246102 -0.342788 -0.129652 -0.314721 -0.225514 -0.934460 -0.047080 0.456501 0.331382 -0.030351 0.362812 0.840603 0.038938 0.312179 -0.613343 0.096265 -0.493831 -0.507172 0.516983 -0.353309 0.659798 -0.322951 0.059694 -0.413863 -0.614497 0.324926 -0.181245 0.140751 0.107467 0.656392 0.357495 0.422432 0.221766 -0.755454 -0.156639 -0.378351 0.401626 -0.401327 0.879636 -0.030394 0.223544 -0.389155 0.483642 -0.042002 -0.065110 0.755778 -0.189932 -0.309419 1.386055 0.356161 -0.199392 -0.575184 0.096194 -0.054500 -0.624705 -0.158597 0.950902 -0.673527 -0.127842 -0.588835 0.592953 -0.473230 0.771437 1.072106 0.070793 -0.649142 0.029795 1.049450 -0.088742 0.271737 -0.792558 -0.007298 0.176515 -0.706920 0.374424 -0.018200 0.766102 -0.202846 0.412903 0.101700 -0.874354 0.358648 -0.282192 -0.873707 0.320310 -0.152173 0.145544 -0.721803 -0.077815 0.681988 -0.524799 -0.414178 0.414614 0.345611 0.267966 0.026533 -0.246243 -0.120788 -0.517218 -0.177051 0.185722 0.881699 -0.055459 -0.220726 0.827767 -0.226516 0.118886 0.299413 0.666133 0.254376 0.008144 0.275286 0.477370 -0.481353 0.237969 0.128351 -0.390249 -0.091244 0.466555 -0.747248 -0.120168 0.419160 -0.420446 0.165176 -0.207240 -0.529152 -0.315674 0.082801 0.975592 0.444237 0.309177 0.382502 -0.276830 -0.233975 -0.272858 0.385365 0.403410 -0.440632 0.000288 0.117025 -0.700437 -0.371986 -1.254979 -0.607413 -0.585439 0.193505 -0.270952 0.076992 -0.292111 -0.605634 0.347366 0.133719 -0.259110 0.304237 0.099038 -0.216831 -0.441984 -0.276199 0.181935 -0.273783 0.618891 0.467170 0.374314 0.781335 -0.209380 0.344756 -0.301426 -0.088196 -0.480272 -0.321446 0.354736 -0.498078 0.640668 0.339121 -0.013985 0.585906 -0.228078 -0.272253 0.361199 0.536766 0.133236 -0.274974 -0.113037 -0.056788 0.653989 0.233601 -0.108879 0.462266 0.046961 -0.135901 0.144017 0.158990 -0.247476 -0.068571 -0.262684 -0.039636 -0.135839 -0.240016 -0.413304 -0.300044 -0.674802 0.249179 -0.708057 0.893648 0.227318 0.389409 -0.274409 0.021916 -0.475270 -0.192284 -0.573090 -0.123479 0.057263 0.291194 -0.437054 -0.118955 0.322198 0.490298 -0.005242 -0.281016 -0.320014 -0.552720 -0.204847 0.072164 -0.037787 0.065358 -0.163984 
] -0.169053 0.489596 0.082731 -0.071905 0.105418 0.198117 -0.171139 0.392678 1.064386 -0.840545 -0.403067 -0.393638 0.726321 0.384117 0.371117 -0.466955 -0.095693 0.096537 0.022853 1.057470 -0.085023 -0.076142 0.532230 -0.046032 -0.218974 0.430931 -0.055620 -0.114621 -0.328403 -0.311055 -0.571993 -0.084601 0.243475 -0.181483 -0.024036 0.226663 0.314858 -0.479075 -0.143738 0.357209 0.118132 -0.507069 0.164448 0.327139 -0.505830 0.387118 -0.656540 0.070617 -0.214112 0.848660 0.475293 -0.164055 0.192976 0.016407 0.280060 0.263889 0.145043 -0.167915 -0.405368 0.497974 -0.045107 0.295896 -0.855073 0.153896 -0.240502 -0.430627 0.086573 0.449115 -0.519817 -0.134107 -0.106448 -0.008177 -0.145280 0.494291 0.236820 0.153619 0.232215 0.539242 0.199975 0.109199 -0.253083 0.331317 0.274836 0.427292 -0.011135 0.449282 0.096712 0.828960 0.016362 -0.408041 -0.369341 -0.859877 0.909665 0.526853 -0.609274 -0.220350 -0.640522 -0.360451 0.670987 0.410788 -0.310171 1.030898 -0.095083 -0.154501 -0.107048 -0.374319 -0.080588 -0.618938 -0.733299 0.178204 -0.251228 0.584923 -0.045088 -0.163350 0.397068 0.155800 0.289905 -1.049723 0.387727 0.547696 -0.331128 0.133436 -0.205952 0.373568 -0.104443 0.805171 0.183413 0.274685 -0.647292 -0.072645 0.000023 0.230536 -0.367133 0.024349 0.224208 0.379191 0.119442 0.351087 0.026443 0.261993 0.558028 0.657192 0.413655 0.201807 -0.323851 0.392072 0.613468 -0.009578 0.029575 0.509254 0.731837 -0.864400 0.682856 0.431059 0.396919 0.587075 -0.262654 0.428588 0.084303 -0.288315 0.094423 -0.004273 -0.029892 0.226372 -0.176625 0.183216 0.304665 0.190142 0.582146 -1.161097 0.006727 -0.127514 0.531485 0.115383 0.034774 0.523376 -0.310389 0.778203 -0.230770 -0.624391 0.703086 -0.464500 -0.533746 0.160651 -0.724969 0.182296 -0.150768 0.387744 -0.605615 -0.225951 0.928891 -0.655752 -0.399677 -0.466282 -0.908420 -0.050410 0.179230 -0.699021 0.356643 -0.047188 -0.324026 -0.256155 0.676234 0.378259 0.389663 -0.030632 0.075343 -0.238308 0.213164 0.252666 -0.432540 -0.874486 0.132793 -0.762386 0.423970 -0.061079 -0.345164 -0.151412 -0.478338 0.273818 -0.447646 0.084333 -0.137875 0.500272 -0.526305 0.796494 0.243902 -0.656188 -0.597232 -0.607257 -0.645213 -0.043404 0.105773 0.377816 -0.345866 0.550609 0.561004 -0.626755 -0.825612 -0.105409 0.394456 -0.105421 0.111707 0.587789 -0.873389 0.319697 -0.349973 0.300189 0.002420 0.180765 0.386312 0.447399 0.327321 1.131979 -0.407501 -0.887918 -0.172343 0.833891 -0.048852 -0.238579 0.589517 0.695893 0.393985 0.460869 0.188957 0.166460 0.306272 0.333190 -0.015556 -0.270615 0.177109 -0.183664 -0.258119 -0.311380 -0.007023 0.156389 0.771041 0.194075 0.184664 -0.124098 0.361626 -0.829398 0.058621 -0.519776 -0.024893 -0.373062 -0.576594 -0.620427 0.116212 -0.367601 0.897379 0.147694 0.397920 0.282301 -0.264801 -0.233409 -0.461917 -0.095158 0.302532 0.186770 
function 0.776204 -1.153124 0.153861 -0.819608 -0.871495 -0.104687 -0.044082 -0.015505 0.283794 0.263570 -0.344799 1.044473 -0.496596 0.736074 -0.034695 0.532134 -0.256913 -0.915910 -0.123531 -0.136921 0.075962 0.145077 0.824552 -0.451636 0.621187 -0.535515 0.369583 0.187276 0.646089 0.111396 0.532032 0.147495 -0.395029 -0.136810 0.128196 0.404434 0.157244 -0.469318 1.381233 -0.166136 -0.867196 -0.908881 -1.034797 -0.424635 -0.107143 0.654854 0.041349 0.133750 0.406621 -0.932614 0.467897 0.469131 0.319912 0.344205 -0.967300 0.417285 -0.585613 0.276732 0.527543 0.026193 0.392578 -0.159600 -0.121528 -0.568607 0.323554 0.772470 -0.114643 0.636924 -0.052030 0.820372 -0.716184 -0.751853 0.264133 0.301636 0.374458 0.451700 -0.092080 -0.117881 0.006213 0.526861 -0.694107 0.373818 -0.035178 0.224213 -0.659955 0.119989 -0.075866 0.543129 -0.072630 0.350847 -0.159763 -0.216602 0.287362 0.362709 -0.064660 0.142702 -0.172390 -0.381316 0.033973 0.136934 0.378727 -0.243908 -0.025980 -0.016209 -0.577593 -0.159332 0.428632 -0.504362 -0.312577 -0.355132 -0.112167 -0.585053 -0.183815 -0.471560 0.198975 -0.841578 0.360899 0.295031 0.407737 0.056651 -0.041590 -0.893065 -0.219192 0.148431 -0.077081 0.502889 0.433650 -0.553263 0.359538 0.302452 0.075588 0.163011 -0.941127 0.074132 -0.519301 0.448737 0.330507 0.132628 -0.277254 0.088548 -0.409433 0.575083 0.157716 -0.270529 0.141838 1.009334 -0.215287 -0.212960 0.103253 0.570922 0.619834 -0.541553 -0.330901 -0.122515 0.464382 -1.193749 -0.042953 -0.128242 0.049686 -0.741148 -0.010139 -0.192009 -0.287864 -0.325803 -0.304564 0.323387 -0.583998 0.499694 -0.349968 -0.472453 -0.392716 0.052825 -0.208973 -0.272757 -0.579608 -0.040382 -0.166183 0.369666 -0.232513 -0.295616 -0.975640 -0.511069 0.711270 0.673533 0.002765 -0.243480 -0.321890 -0.568913 -0.235825 -0.711010 0.549735 -0.117376 0.990305 -0.318602 0.193865 -0.255189 -0.578847 0.131657 -0.282284 0.484672 -0.306393 0.806642 0.589555 0.052026 0.202622 -0.550428 -0.456159 -0.038569 0.126864 0.459081 -0.152427 0.052274 0.218977 0.553494 -0.782674 0.434242 -0.356852 -0.724716 0.225278 -0.893318 -0.393985 0.065933 -0.433177 0.258486 -0.230142 0.393632 -0.108584 -0.117069 0.111452 0.179429 -0.353690 0.938692 0.501737 0.442943 0.562598 0.430347 -0.562429 -0.315146 0.077984 0.697977 0.198652 0.425938 0.105666 -0.905653 -0.126605 -0.399718 -0.017209 -0.157266 -0.199303 0.361881 0.048126 -0.575407 1.172196 -0.432258 -0.078832 0.190984 -0.449210 0.882738 0.345010 -0.739605 -0.113975 -0.786157 0.479055 -0.577552 -0.546656 0.519120 0.562997 0.081546 0.518735 1.123896 -0.211185 -0.146876 0.436651 -0.735433 0.761511 0.288998 0.124918 -0.644393 -0.539530 0.340877 0.231773 0.022219 0.468270 -0.618439 0.460277 0.175667 0.302575 -0.024042 -0.042233 -0.851757 0.187293 0.196393 0.448497 -0.208481 0.499144 -0.337323 -0.033423 0.077931 0.196348 1.318807 
SafeMath -0.992635 -0.222771 -0.572810 0.000088 0.081015 -0.369921 0.004779 0.203604 0.039909 0.441347 -0.197818 0.876416 0.098204 -0.150690 -0.402745 0.439545 0.507744 -0.361132 -0.130975 0.599445 0.217828 -0.328843 0.105187 -0.278476 -0.190217 -0.178616 -0.122193 0.001684 -0.353098 -0.246088 -0.830621 0.251034 0.304714 -0.452698 0.472431 0.537068 0.352779 -0.364538 0.124879 -0.482467 -0.371183 -0.359753 0.472952 -0.533988 -0.130932 -0.407962 0.191181 0.243678 -0.382269 0.011817 0.142345 0.474948 -0.216236 0.353109 0.538985 -0.233807 -0.569798 0.328405 0.227978 0.095761 0.122187 0.538929 -0.014044 -0.066962 -0.461964 -0.296530 -0.209651 0.132010 -0.072586 -0.114936 0.018385 0.321811 0.410364 -0.460302 -0.541972 0.351559 0.354219 0.560176 -0.824746 -0.641382 -0.289377 0.177305 0.481578 -0.173473 -0.011947 -1.082856 0.055124 -0.187954 0.749873 -0.437400 -0.091991 -0.052042 0.321069 0.338028 -0.410475 0.057023 -0.883901 -0.303019 0.219289 0.002417 -0.048050 0.071679 0.099230 -0.420042 0.638533 0.406524 -0.769037 -0.047014 -0.318650 0.367561 0.611214 0.420216 -0.236182 -0.407968 0.095432 0.000111 -0.415458 0.367966 0.771649 -0.726592 0.139976 0.896143 0.177647 -0.855065 -0.877058 0.880519 -0.027692 -0.299045 -0.699794 0.183359 0.051393 -0.031953 -0.238564 0.025540 0.334279 0.636028 -0.729776 -0.349630 0.783732 0.613085 0.219542 0.354093 0.095801 -0.420738 0.318279 0.210551 0.330103 -0.227803 -0.593373 0.224362 0.579985 0.000510 0.285660 0.414734 -0.263157 0.481500 0.614019 0.337330 -0.159551 0.142192 0.583817 -0.188595 0.012947 0.145193 0.193245 0.359884 0.023207 -0.130328 -0.156660 -0.263396 0.460429 0.202918 -0.175319 -0.310652 -0.178737 0.343211 -0.495287 0.282962 0.341215 0.296953 -0.641381 -0.898170 -0.376512 -0.192206 -0.314297 -0.119639 0.136191 0.377448 -0.244331 0.072893 -0.350695 -0.495952 0.623096 -0.088389 -0.819950 -0.117450 0.321026 0.078528 0.064608 -0.362336 0.603719 0.253311 -0.416309 -0.612169 -0.546775 -0.290599 -0.364706 0.525196 0.154657 -0.126043 -0.012483 0.102665 -0.194091 -0.682456 -0.104061 0.312018 -0.449818 0.671035 0.107088 -0.059069 0.136819 0.491849 -0.488950 0.148225 0.275041 0.125424 0.312011 -0.075605 0.192367 0.489533 0.327087 0.337397 -0.425358 -0.224961 -0.826545 -0.302322 0.114662 -0.569532 -0.814788 -0.373683 -0.555862 -0.125585 -0.046628 0.272529 0.007325 0.464118 0.749103 -0.237759 -0.857768 0.641917 0.073689 0.586507 -0.030863 -0.094950 0.042142 -0.455829 0.412261 0.111400 -0.280751 0.226218 0.587431 0.159502 0.304501 0.433319 -0.213612 -0.048997 0.513869 0.187351 0.550335 0.132785 -0.076363 -0.126573 0.208640 -0.476081 -0.211509 0.066810 0.646398 -0.351491 0.363351 -0.127626 -0.106430 0.029781 0.622470 -0.554181 -0.225319 -0.011240 0.434869 0.044267 0.256565 0.160845 -0.751253 -0.051654 -0.147991 0.064849 0.122361 0.228966 0.250557 -0.785269 0.078336 -0.214130 
msg 0.295327 0.012655 -0.601857 0.735745 0.005179 0.849980 -0.565641 -0.724272 -0.298764 -1.550346 -0.598999 -0.668286 0.688898 -0.014170 -0.285672 0.061910 0.637652 -0.324296 0.379615 0.468081 0.152693 -0.698664 0.257640 -0.207424 -0.152409 -0.393586 -0.673077 0.207347 -0.605893 0.555708 -0.671404 -0.372694 0.035982 -0.145115 -0.088183 0.033245 0.500524 -0.101793 -0.255584 0.577453 -0.171720 0.472609 1.354567 0.145580 -0.430688 0.292994 0.365405 0.051492 0.314900 0.290870 0.062249 0.180220 -0.081377 -0.004896 0.189576 0.079109 0.255819 -0.462462 -0.473939 -0.492182 -0.187648 -0.404553 -0.198071 0.466494 -1.130107 -0.336513 -0.144359 0.075354 -0.100978 0.310005 0.067222 -0.380289 0.915715 0.106864 0.136796 -0.122417 0.597992 0.465316 -0.760630 0.336304 -0.253042 -0.101769 0.771700 -0.167831 -0.153819 0.004598 0.005771 -0.448749 0.273019 -0.592337 0.960359 0.474907 0.256126 0.582641 -0.250834 0.064575 -0.984577 0.194073 0.669327 0.758564 -0.470437 0.920356 0.256529 1.095283 0.834562 -0.175533 -0.938718 -0.366206 -1.324027 -0.428401 0.043811 0.344939 0.204591 0.421712 0.586174 0.173063 0.601688 -0.050285 0.583621 -0.593187 0.862921 0.658999 -0.057190 0.221901 -0.221338 -0.315378 0.245500 -0.038188 0.113935 -0.104252 -0.925282 -0.021418 -0.426523 0.210752 -0.005922 0.187040 1.118697 -0.136351 -0.548071 0.444642 0.549020 -0.111498 0.651419 0.762505 -0.126936 0.254870 0.626336 0.321323 -1.184794 0.287618 0.172175 -0.385386 0.267516 0.331450 0.109539 0.791572 0.110231 0.267727 -0.102364 0.618437 0.295709 0.634529 0.098631 -0.466196 -0.266500 -0.790351 0.430790 0.027756 -0.167956 -0.603948 0.296556 0.226608 0.218186 0.493028 -0.403467 0.923620 0.307415 0.088569 0.225213 0.311262 0.224750 0.273090 -0.018033 -0.160983 -0.342892 0.056244 0.206429 0.671106 -0.307038 0.598574 0.387578 -0.057807 -0.508798 -0.048779 0.382393 0.068378 -0.314475 -0.018637 -0.289679 -0.283639 0.387652 0.761632 -0.060390 -0.081525 0.416794 -0.774184 0.291556 -0.038298 0.237981 0.158460 -0.366347 -0.312188 0.006068 0.163203 0.054225 -0.439665 0.702703 -0.269564 -0.165449 0.456412 -0.332968 0.011562 0.036130 0.203990 -0.243193 0.272597 -0.038535 -1.067114 -0.473841 -0.872272 -0.109436 -0.999159 0.586808 0.432236 -0.014429 0.534250 0.456351 0.048959 -0.374729 -0.883504 0.166017 -0.354478 -0.448381 0.539444 -0.124413 0.239190 0.575748 -0.846020 0.101613 0.356808 0.340256 -0.424899 0.161395 0.748673 -0.844134 -0.343528 0.071778 -0.018100 0.530391 0.108010 0.038878 -0.213330 -0.038492 -0.504949 0.099329 0.815030 0.421366 0.112203 0.166448 0.022084 -0.239054 0.236130 -0.650694 -0.287960 0.155681 -0.080429 -0.235313 0.085752 0.197381 -0.285549 -0.072647 -0.288546 -0.028556 -0.279899 0.267237 0.203211 0.509172 -0.624777 -0.263422 -0.163146 0.171664 -0.061412 -0.078276 -0.303673 0.020606 -0.044947 0.807400 -0.177747 0.683250 0.350923 
returns 0.459456 -0.498207 0.313741 -0.195586 -0.402059 0.726233 0.340289 -0.937273 -0.886257 0.371035 -0.002468 0.333599 -0.450626 -0.220264 0.408256 0.326909 0.247432 -0.644141 -0.746391 -0.213447 0.443306 -0.155348 0.071320 0.402814 0.241920 0.287323 -0.189759 0.255939 0.552831 -0.212250 0.145417 0.052345 -0.550479 0.061336 0.672338 0.274923 0.048084 0.539113 1.256770 -0.711920 0.483007 -0.618007 -0.921572 0.699272 0.023573 0.403598 -0.870804 1.200255 -0.585792 0.028957 0.198610 -0.779659 -0.546417 -1.325456 -0.014063 -0.319939 -0.296818 -0.488024 -0.110600 0.124746 0.476517 -0.518941 0.428851 0.458026 1.476761 0.695602 -0.279358 1.093686 0.333364 -0.178082 -0.398793 0.315178 0.061926 0.754650 -0.885860 -0.160893 0.794503 0.287878 0.211890 -0.102595 -0.095232 0.498510 -0.208012 0.555795 -0.059506 0.394988 -0.360048 0.479162 -0.340026 0.611501 0.295422 -0.176260 0.511345 -0.372117 0.690522 0.742278 0.165925 -0.075950 0.135171 0.351520 -0.270263 -0.833823 -0.788503 0.353308 -0.603298 -0.394869 -0.006441 -0.793827 -0.693731 0.058088 0.205458 -0.605073 0.215311 -0.380330 0.056319 -0.289329 -0.146729 0.564128 -0.171215 -0.134679 -0.515819 -1.643458 -0.749564 0.263567 0.152397 0.787816 -0.558497 -0.059958 0.905056 -0.194327 0.059217 -0.161743 -0.235593 0.028663 0.540014 -0.264471 0.460399 -0.453771 -0.398071 0.370905 -0.478263 0.888733 0.406041 -0.518751 0.256144 0.582988 0.538071 0.558693 -0.052356 0.177530 -0.300461 0.688628 -0.497496 0.647265 0.580211 -1.275442 0.372756 0.757496 -0.305124 -0.462127 0.257320 0.274733 1.236246 1.037116 -0.334665 0.180295 0.151028 0.276486 -0.012451 1.894888 -0.711433 -0.322251 -0.020223 -0.763784 -0.186331 0.713679 -0.199926 0.929418 0.796790 -0.611669 -0.951721 -0.750194 0.178946 -0.130809 0.970977 -0.820109 0.231260 0.268385 -0.587692 -0.564554 -0.264267 0.111406 0.151454 -0.215923 -0.229988 0.167096 -0.984835 -0.385569 0.777255 0.009357 0.252450 0.082303 0.783578 0.389852 -0.413323 -0.193544 -0.887713 0.652075 -0.449543 0.545455 -0.047565 0.346619 0.280531 -0.109741 0.626996 0.134739 0.055842 0.466881 -0.379946 -0.014091 -0.165740 -0.781156 0.495722 -0.526003 -0.158299 0.942557 -0.171869 -1.021422 -0.745015 0.146360 -0.170201 0.374276 -0.237614 0.602440 0.975679 0.953093 0.417006 -0.438654 0.017956 0.501640 -0.390914 -0.693786 -0.066484 -0.006775 -0.385124 0.811958 0.048978 0.476977 -0.594460 -0.272324 0.577050 -0.506383 0.310427 -0.361015 0.876108 0.268558 0.928685 -0.126417 0.387312 0.193017 -0.014513 0.047847 -0.703588 0.098442 0.513066 0.763824 0.865747 0.070459 -0.097501 -0.045388 -0.520170 -0.819008 0.331421 0.248054 0.692779 -1.186823 0.517610 0.504520 0.433209 0.544180 0.978874 -0.107331 0.287848 -0.054486 -0.546330 1.288383 -0.086113 -0.629097 -0.252049 -0.132767 0.461387 -0.557424 0.209425 -0.693535 0.245911 0.223738 -0.154210 0.450163 -0.017948 -0.474634 
return 0.605194 -0.197653 0.421991 0.122962 -0.076979 -0.291637 -0.263903 -0.279152 0.925521 0.890148 -0.705071 -0.336854 -0.315340 -0.295351 0.071150 -1.094706 0.241942 0.447931 -0.204769 1.151272 -0.630390 -0.223005 0.610827 -0.967395 0.384294 0.550444 -0.283929 0.045624 -0.264245 0.756265 -0.531278 -0.581238 0.427809 0.238894 -0.045137 0.286262 0.484131 -0.301837 0.723447 1.387947 0.402126 -0.188011 -0.581799 0.297659 -0.111928 0.177379 -0.520535 0.606672 -0.741158 0.481632 0.302294 0.073198 -0.266327 -0.416932 -0.193588 -0.124200 -0.067729 -1.202438 -0.481073 -0.151352 0.478613 0.620665 -0.338972 -0.026008 0.791617 -0.573282 0.203276 0.133869 0.566530 0.554789 0.558794 0.321723 0.076506 0.066176 -0.729372 -0.033496 -0.348715 -0.468712 0.051009 0.523188 0.851187 0.688431 -0.563801 0.074596 0.178936 -0.440881 0.576459 0.420204 0.371556 0.506586 0.430255 -0.181164 0.041870 -0.474196 0.395177 0.270193 -0.772752 0.067491 0.659626 -0.298031 0.428006 0.353942 0.146712 -0.036445 0.499135 0.675061 -0.479695 -1.241962 -0.910723 0.780506 -0.168387 0.101463 -0.178216 -0.279013 -0.448264 0.330569 -0.444273 -1.184779 -0.255404 -0.122207 -0.483146 -0.283657 -0.833822 0.076001 0.022410 -0.043723 0.462089 -0.850758 0.908346 -0.601373 0.691008 0.102126 -0.222053 -0.457057 -0.833520 -0.020445 0.230390 0.370715 -0.480987 0.436226 0.098683 1.651380 0.348769 -0.049882 0.475857 1.085341 0.369531 0.265825 -0.381130 -0.482770 -0.213411 -0.338120 -0.125749 0.479400 0.724786 0.138774 0.152383 0.092202 0.586435 -0.165915 1.240174 0.728557 0.054849 0.132328 0.424203 0.496171 -0.555353 -0.023987 0.349936 0.167696 -0.670477 0.509711 -0.196885 0.271071 1.084874 -0.055262 -0.202680 0.452805 0.028076 -0.792280 -0.119856 -0.370686 0.101764 0.266370 0.265564 0.378350 -0.781770 0.729423 -0.180666 0.194144 -0.051436 0.535040 -0.472971 -0.373982 -0.477491 -0.804558 -0.058738 -0.529368 0.028759 -0.371911 -0.014931 -0.918402 0.410393 -0.126751 1.050329 -0.693775 -0.152465 0.781842 -0.648753 -1.008900 0.262858 0.789725 0.224503 -0.193870 -0.240849 0.586673 -0.454882 -0.626019 0.172664 -0.158491 1.041975 -0.124241 0.491249 0.377876 -0.473295 0.471571 0.612485 0.238874 0.405766 0.526477 -0.390283 0.174929 -0.503661 -0.197671 0.243803 -0.262623 -0.588794 -0.443530 0.312394 0.476309 -0.263865 -0.334022 -0.417599 -0.648791 0.014566 -0.284002 0.025788 0.399981 0.446078 -0.760111 0.361732 -0.543913 -0.062412 -0.223348 0.638423 0.134023 -0.077245 0.004517 -0.199261 -0.447580 0.126948 0.776964 0.699274 -0.291375 0.826253 -0.008218 -0.185260 0.795362 0.050120 0.414291 -0.296820 -0.690664 -0.420643 -0.259393 -0.286231 -0.059342 -0.069088 -0.028879 0.817758 0.132610 -0.604099 -0.461153 -0.683040 -0.376258 0.193544 -0.525531 -0.548003 0.385049 0.137122 -1.409345 0.018024 0.167216 0.039118 0.515932 0.381878 0.360222 0.533096 0.015489 -1.065297 0.626701 
sender -0.186845 0.420906 0.374118 0.185596 -0.144504 -0.109363 0.544134 -0.140498 -0.194899 -0.549305 -0.539694 0.663248 0.626234 -0.216139 -0.525603 -0.322288 0.097827 0.451593 -0.039789 0.944638 0.431688 0.486024 -0.143641 0.459550 -0.303936 -0.225874 0.176436 0.704584 0.011639 0.013975 -0.214741 -0.307147 -0.271705 -1.056889 0.634312 0.304647 -0.355479 -0.527636 0.130555 0.729123 -0.006230 0.024349 0.039533 -0.221067 0.203667 0.233958 0.514036 -0.080267 -0.047641 0.094957 -0.245242 0.188303 0.236776 -0.665381 0.336260 0.733377 -0.347799 0.325052 -0.108573 0.474340 -1.371162 -0.298290 -0.775386 -0.713303 -0.538404 -0.580222 -0.986432 0.205969 0.166393 -0.371977 -0.088529 -0.261721 0.467672 0.627178 -0.504936 -0.861543 0.511034 0.716503 -0.379944 0.040930 -0.837083 0.578626 0.479237 0.619787 0.278424 -0.246480 -0.274297 -0.078597 -0.089278 -0.496900 0.010750 -0.464282 0.264878 0.110118 0.065512 -0.768811 -0.737333 0.675250 -0.065568 0.794830 -0.293919 1.184878 0.230313 -0.194519 0.079178 -0.647582 -0.094407 -0.151008 -0.298683 -0.203522 0.257722 0.068157 0.112099 -0.092415 0.485633 -0.011139 -0.026794 -0.394972 0.417071 0.828833 0.272208 -0.137110 -0.397445 0.922419 -0.499235 0.454332 -0.379582 -0.166542 -0.226204 -0.027407 -0.429787 -0.443413 0.526365 0.175248 0.071411 -0.118754 -0.208445 -0.600660 0.030701 0.087076 0.661621 0.002100 -0.547265 -0.421697 0.490366 0.157400 0.399008 -0.573174 -0.557418 0.383685 0.931902 0.536639 -0.080984 0.040617 -0.375654 0.998715 -0.010695 0.416942 -0.051883 -0.313055 0.004832 -0.647106 0.097752 0.717198 -0.068828 -0.830401 0.053282 0.106079 0.277385 -0.006677 0.218921 -0.093892 -0.079747 -0.176740 0.719671 0.712538 0.084973 0.188946 -0.643331 -0.639687 1.046729 0.767964 0.004190 -0.176691 0.025303 0.234144 -0.451205 -0.078730 -0.347938 0.042304 0.386416 -0.461821 -0.962521 -0.793448 0.074062 -0.216255 0.726592 -0.707537 0.597443 -0.647334 0.507363 0.340546 0.826690 0.534433 0.366452 0.429474 0.819729 0.100252 0.558103 0.136900 -0.282010 0.061624 0.016690 -0.257170 -0.064437 -0.492335 0.182418 0.186937 -0.019949 0.624519 -0.032987 -0.411732 0.410304 0.684557 0.031607 0.269981 0.523196 -0.132829 -1.601071 -0.896790 0.141289 -0.021600 0.119209 0.113718 0.388019 -0.145028 0.680676 -0.537454 -0.038332 0.284830 -0.259628 -0.527101 -0.208285 0.004639 -0.057468 0.746929 -0.565198 -0.608637 1.152666 0.125033 -0.597522 -0.198166 -0.052108 1.103763 -1.045007 -0.858820 -0.455230 -0.348307 0.287276 1.156870 0.125645 0.722523 0.233826 -0.280542 -0.348105 0.746364 -0.399474 -0.139980 -0.156588 -0.565418 -0.580275 -0.528491 -0.973226 -0.657457 -0.059136 -0.355805 -0.174755 0.132035 -0.313944 -0.568101 0.201667 -0.519036 -0.586842 -0.531703 0.165431 0.461203 0.603065 -0.653574 -0.260520 0.203488 -0.001628 0.612477 0.097518 -0.786691 -0.645537 -0.569097 -0.272090 -0.037682 0.449779 0.306100 
* -0.197809 -0.247393 0.524951 -0.366884 -0.444293 0.460425 0.625472 0.182043 -0.121256 1.058261 0.363115 0.698448 -0.333487 0.416964 -0.489291 0.198136 -0.066194 -0.283803 0.304113 -0.015867 -0.422825 -0.651653 0.183592 -0.843257 -0.242414 -0.411894 0.542445 0.373077 0.522601 0.111061 -0.183199 0.157466 -0.253186 -0.083086 -0.195106 0.077220 -0.094263 -0.859067 0.436761 -0.510169 -0.095789 -0.242391 -0.387832 -1.176435 0.132450 0.301285 0.107709 0.564240 0.023874 -0.228022 0.553449 -0.184721 0.844649 0.567484 0.400783 -0.836534 0.080331 -0.351691 0.445171 -0.446509 0.446260 0.517366 0.241399 0.347888 0.195272 0.005702 0.891616 -0.019257 -0.041829 0.117776 -0.684177 -0.348512 0.014627 0.168207 0.062487 -0.613960 0.087906 -0.247385 -0.564954 0.096644 0.522259 0.040950 0.468959 -0.185417 -0.726626 -0.489220 -0.262353 -0.240925 -0.075527 0.353402 0.137622 0.051489 0.257850 -0.649874 -0.431692 0.113648 0.326923 -0.743853 -0.499818 0.188805 0.070104 -0.461494 -0.461502 -0.373748 -0.410429 -0.192634 0.087529 -0.127294 -0.027489 0.096753 -0.462358 -0.333505 -0.546334 -0.080578 -0.108844 -0.402270 -0.431770 0.170295 -0.199197 -0.437951 0.018045 -0.326486 0.158096 -0.186255 -0.180131 -0.104026 -0.272211 0.392034 -0.417730 -0.425952 0.061529 -0.023796 0.278691 -0.431872 0.164847 0.411874 -0.504918 -0.135680 0.369297 0.666603 -0.434398 0.051438 0.488957 0.457685 0.078292 0.007811 0.227104 0.198086 -0.300452 -0.531724 -0.462726 -0.308563 -0.089034 0.261189 0.067804 0.038716 0.534896 0.195793 0.153596 -0.597883 0.154898 -0.043290 0.679722 -0.149377 0.014337 -0.254759 0.089706 0.105588 -0.483730 -0.321895 0.051084 0.315990 -0.382646 0.260871 -0.271577 0.519362 0.205960 0.479475 0.089050 -0.386525 -0.473827 -0.843474 -0.571271 -0.034264 0.024199 -0.259535 -0.034931 0.095563 0.122873 -0.245027 -0.143635 -0.161488 0.690543 -0.217523 -0.399444 0.357248 -0.382229 -0.363435 -0.765425 -0.068964 0.383143 0.114460 0.364501 -0.589583 -0.411815 -0.345422 0.151743 -0.047679 0.016076 0.002692 0.346356 -0.382350 -0.478384 -0.514486 0.164817 0.130073 -0.240422 0.665838 0.725987 -0.169000 0.812127 0.468245 -0.061897 -0.619395 -0.333903 0.423260 -0.223102 -0.809234 -0.195663 0.242744 -0.122672 0.593171 -0.236043 0.380078 -0.374558 -0.185235 -0.515675 0.324283 -0.522194 -0.184378 0.210029 0.015039 0.000506 0.617487 -0.279582 0.317298 0.684066 -0.278284 -0.167844 0.518742 0.264621 0.282490 0.180329 -0.242998 0.518612 0.011535 0.588755 0.265883 -0.549545 -0.413162 0.346821 -0.461962 -0.354111 0.012195 -0.170683 -0.310072 -0.109860 0.332313 -0.223724 -0.411151 -0.169519 0.340901 0.312035 0.233852 0.146864 -0.503526 0.279543 -0.199821 0.138407 -0.575630 0.109490 0.618972 -0.221209 -0.182717 0.264441 0.593805 -0.137091 0.180817 0.640255 -0.020676 0.095930 -0.304798 -1.049920 1.041269 0.120530 0.164142 0.321921 -0.284609 -0.307143 -0.111697 
_customerAddress -0.703217 -0.426266 0.176885 0.170296 -0.032477 0.355751 -0.072989 -0.259948 -0.496230 -0.443405 -0.692336 -1.033704 -0.023637 -0.371483 -0.000056 -1.009700 0.515386 0.849026 -0.263384 0.294929 0.829756 0.811794 -0.033014 0.110923 0.476386 0.389467 -0.449878 -0.636883 0.510774 0.316040 -0.264948 0.598260 0.016284 -1.316059 0.145804 0.123405 -0.259730 0.469302 -0.222869 0.022623 -0.548336 -0.330933 0.095197 0.568684 -0.198486 0.902893 0.306361 0.027455 -0.730065 -0.408152 -0.383551 0.081012 -0.098619 -0.115000 -0.103825 0.194398 0.345993 -0.485572 -0.048235 0.201592 0.173535 -0.468630 -0.885972 -0.130816 -0.510630 0.475147 -0.265985 0.499421 0.698209 0.078059 -0.119708 -0.134416 -0.216675 -0.116662 -0.076548 -0.265725 0.206671 0.076362 0.028187 -0.522356 -0.572728 0.615519 -0.240481 -0.313726 -0.161167 -0.790450 0.427526 -0.274976 -0.510899 0.145807 -0.358268 -0.357171 0.572294 -0.334391 0.069983 -0.587186 -0.299740 -0.077802 -0.047052 0.389046 0.218864 -0.444031 0.606658 0.095604 -0.240862 -0.485365 -0.354572 0.049769 0.067515 0.275882 -0.007237 -0.114851 -0.412086 -0.017786 0.630205 0.729032 0.185258 0.319970 0.078044 0.312751 0.603472 0.647651 0.405120 1.302717 -0.010529 0.005659 0.389394 0.044605 0.938575 -0.750231 -0.339043 0.394839 -0.580304 0.079709 0.073866 0.363108 -0.098972 -0.274661 -0.128637 0.271319 -0.196855 0.051395 -0.101360 -0.101791 -0.121890 0.116376 -0.900738 0.130682 -0.274026 0.107134 0.026012 0.235556 -0.870325 0.284194 0.445611 -0.072214 0.206466 0.027045 0.287757 0.119034 -0.631319 -0.431577 0.195281 0.295394 -0.409812 -0.904319 0.006393 -0.509103 -0.512969 -0.432498 -0.660953 -0.501912 -0.704552 -0.437225 -0.237899 -0.523782 -1.137352 -0.338093 0.640647 0.763072 0.428771 -0.179460 0.216526 -0.380604 0.145598 0.282142 -0.075271 0.268453 -0.056530 0.310335 0.384547 -0.141239 -0.398137 0.302908 0.276624 0.234385 0.429260 0.425588 0.107668 -0.098226 -0.195819 -0.119339 -0.156412 0.572760 0.902184 -0.710269 0.035316 0.547839 0.332800 -0.082937 0.623675 -0.478390 0.997550 0.276941 -0.005833 -0.476533 -0.258722 -0.480083 0.151496 0.684780 0.596477 -0.024466 -0.555948 -0.476431 0.152768 0.494602 0.364896 0.340966 -0.528487 -0.192328 -0.700404 -0.163029 -0.218473 -0.190911 0.524618 0.102866 -0.010906 -0.082110 0.472399 -0.103128 -0.257130 -0.229070 -0.145865 0.285128 -0.212634 0.425238 -0.076181 -0.823007 0.356489 0.014254 -0.053720 -0.056215 0.824802 -0.023116 -0.088544 -0.368122 -0.054743 -0.046260 0.038466 0.292845 0.344879 -0.332867 -0.963696 -0.456260 -0.352971 0.606841 -0.180633 -0.048443 -0.121656 -0.113395 -0.138478 0.539201 -0.505417 -0.281637 0.492081 -0.646943 -0.184909 0.454696 0.178914 -0.114717 0.017931 -0.130068 -0.611903 0.220116 -0.308741 0.299138 0.240040 0.347079 0.058767 0.572204 0.106287 0.501307 -0.125106 -0.426698 -0.132329 -0.417442 -0.074184 0.908685 -0.170570 -1.115164 
require -0.345083 -0.835023 0.375654 0.612536 0.104865 -0.034215 -0.309054 -0.159110 0.190799 0.401261 -0.952883 0.399192 -0.137237 1.090200 -0.628254 -0.061371 -0.101915 -0.447362 -0.866870 0.616282 0.591209 0.551758 0.365371 -0.363135 -0.695370 -0.030257 0.128853 0.015688 0.170688 0.198907 -0.370277 0.263652 0.165081 -0.614216 0.047473 -0.153495 -0.244073 -0.330838 -0.213975 0.863226 -0.416034 -0.384859 -0.063002 -0.007212 -0.065890 0.677503 0.975835 0.366529 -0.544719 0.240641 -0.170938 0.127414 -0.457265 0.680280 0.316134 0.089648 -0.223904 -0.618933 0.467165 0.331576 0.164026 0.504007 -0.351813 -0.835353 -0.294803 -0.764001 0.837183 -0.366273 0.169904 0.485603 0.141702 -0.016392 0.315996 -0.466636 -1.016848 -0.362993 -0.668263 -0.456408 0.527719 -0.498586 -0.357179 0.721674 -0.133863 -0.822800 0.337941 -0.819108 -0.138003 0.073544 -0.081521 -1.214286 0.620405 1.182343 0.057026 -0.555958 1.182712 0.348578 0.470144 -0.886643 1.082078 -0.608020 0.504408 0.784190 0.548253 -0.195271 0.525758 -0.018194 -1.199058 -0.334978 -0.420462 0.707609 0.923072 0.410919 0.628802 -0.775892 0.043145 0.025363 0.399197 -0.484203 0.653086 -0.995075 0.692877 1.178750 0.106298 -0.025230 -0.110254 0.317782 -0.728134 0.479645 0.880738 -0.372975 0.439560 -0.087130 -0.825953 -0.444966 -0.674297 0.171693 0.247428 -0.049632 -1.190582 0.953202 -0.679589 -0.162592 0.042967 0.493173 -0.021726 0.091489 0.293952 0.039519 -0.387236 0.049025 0.051785 -0.170273 0.853069 0.394301 -0.069193 -0.417992 0.327931 0.108095 0.290926 -0.456397 -0.365079 -0.643886 -1.056864 -0.969404 -0.030990 -0.000616 -0.250507 -0.031456 -0.124844 0.213101 -0.107128 -0.262368 -1.175393 -0.023245 1.193413 0.087959 0.110037 0.080193 -0.154294 0.190403 0.468166 0.334745 0.154709 -0.638218 0.288879 -0.344093 -0.388384 0.045880 -0.243231 0.143398 0.160692 -0.335077 -0.320799 -0.346072 0.507452 -0.604296 0.128454 -0.010328 -0.308426 -0.196747 -0.181794 0.059234 -0.608458 -0.930478 -0.255384 0.140884 0.724745 -0.440354 -0.401337 -0.204399 0.235537 0.315478 -0.294291 0.499734 -0.154257 0.274161 0.008532 0.769436 -0.810259 0.186381 -0.039934 -0.538353 0.519162 -0.305525 -0.025239 -0.252688 0.561667 0.231217 0.028083 0.028756 -0.779761 -0.232673 0.197150 -0.321415 0.141258 -0.718274 -0.402905 -0.009548 0.715747 -0.748010 -0.084939 -0.374454 0.075757 -1.028839 0.575001 0.222240 -0.800424 -0.458216 0.325985 -0.532233 -0.349700 -0.484930 -0.448084 -0.477113 -0.723621 -0.065100 -0.190097 -0.917396 0.621012 -0.650780 -0.374696 0.721935 -0.246980 -0.573935 0.266876 -0.199291 -0.473021 0.005393 -0.876070 0.409192 -0.138990 0.053072 -0.141652 -0.024295 -0.821601 -0.222172 -0.045772 -0.519113 -0.089379 -0.410098 0.108763 0.113568 0.153088 0.192645 0.154618 -0.335989 0.853212 -0.206564 0.043682 0.126850 0.162137 -0.283920 0.612204 -0.853501 -0.210499 -1.217008 0.101013 0.327199 0.341122 1.290203 
true -0.964711 0.566215 -0.197264 -0.332892 0.536131 -0.057180 0.143518 -0.090832 -0.455264 -0.631792 0.262265 -0.127252 -0.533193 -0.474530 0.117734 0.402962 0.375999 -0.100491 0.150798 -0.567903 0.043422 0.131556 1.219271 -0.345210 0.015012 0.480757 0.599698 0.493277 0.063519 0.139797 0.542756 -0.198637 0.185974 -0.259224 0.664406 -0.063135 0.130391 0.078276 0.456107 -0.608613 0.057698 0.673018 0.185938 0.483685 -0.923094 0.972163 0.421099 -0.283793 0.305102 -0.946073 -0.457483 0.635035 -0.419608 -0.128718 -0.513146 -0.070676 0.706344 1.112236 -0.975350 0.262023 0.251302 0.101198 0.258090 -0.598109 -0.280582 0.097408 -0.485800 -0.494903 0.134583 0.244072 0.477660 0.133297 -0.220483 0.810004 0.618008 0.477847 -0.091880 0.377443 -0.186339 1.116489 0.884269 -0.469935 0.582797 0.084100 0.113686 -0.246102 -0.390562 -0.200106 0.176358 -0.485524 -1.071054 -0.008581 -0.614512 0.295344 -0.367915 0.107059 -0.348563 -0.186952 -0.130832 -0.318791 -0.237035 0.297445 0.180819 0.287729 0.210374 0.524188 0.323013 0.330545 0.462995 -0.828316 -0.719593 0.145285 -0.194713 0.773312 0.056554 0.769113 0.356651 -0.046664 0.222223 0.533363 -0.587765 0.718950 0.485583 0.159303 0.754668 0.155855 1.073322 0.159739 0.719193 -0.375194 -0.582318 0.518550 0.695571 0.744971 0.389783 -0.147949 0.160124 0.469198 0.055776 -0.222502 -0.566020 0.446020 1.081160 -0.387829 -0.537613 0.289656 -0.357968 -0.378551 0.029333 0.496712 -0.134716 -0.004344 0.551709 0.371189 -0.606886 -0.246805 -0.370629 0.877745 -0.377485 0.295100 0.126552 -0.096923 0.349732 -0.331397 0.055046 -0.353135 1.087244 -0.181405 0.466908 -0.832326 -0.697271 -0.374500 0.294498 0.537284 0.073204 0.630473 -0.730299 -0.115923 -0.280551 0.139250 1.021074 -0.247003 -0.560227 -0.257513 -0.275165 -0.244686 0.760687 0.815233 0.164851 -0.334230 -0.094403 -0.441712 -0.999981 -0.714675 -0.573099 0.524620 -0.752400 0.422498 0.071963 0.796023 -0.318844 -0.478686 0.529721 0.649324 0.475987 0.662773 0.720025 -0.364978 -0.187892 0.205783 0.006851 -0.732824 0.429688 0.176631 -0.061220 -0.340988 0.657942 0.264757 -0.189421 0.991310 -0.298887 0.082802 -0.463931 0.503174 0.729491 0.701123 -0.628677 0.446748 -0.801024 -0.543601 0.075811 -0.688834 0.432340 0.642547 1.187906 0.337000 0.512796 0.026765 0.634460 0.726682 0.670286 0.073652 -0.565053 0.005206 -0.289651 0.036760 -0.215531 -0.011376 0.319002 -0.228554 -0.185364 0.262216 0.309319 -0.063031 -0.087410 -0.013248 -0.047025 -0.301253 0.001101 0.101041 -0.879099 -0.748036 -0.397282 -0.148110 -0.065897 0.096024 0.403754 0.036680 0.397284 0.558358 0.548297 -0.095336 0.034338 0.305587 0.417755 -0.052379 -0.268227 -0.151041 0.113842 -0.926451 0.125271 -0.059730 -0.289779 0.160591 0.105326 0.102677 -0.101074 -0.060533 -0.413600 0.569028 1.274847 0.595350 -0.563230 -0.617463 -0.467364 0.433684 -0.380684 0.534995 0.534940 -0.249614 
0 -0.345427 0.346040 -0.109165 0.459901 -0.266980 -0.328652 0.237170 -0.702813 -0.701020 -0.298631 0.007212 0.389078 -0.381747 -0.071187 -0.354227 0.563680 -0.319619 -0.086538 -0.501755 -0.237053 0.623901 0.134835 -0.087417 0.011417 0.437143 -0.271626 -0.250586 0.181722 0.016860 0.415812 -0.233447 0.426038 0.171228 0.523163 0.264355 -0.242910 0.169459 0.368997 -0.359989 0.184824 -0.097920 0.252063 0.578571 0.600299 -0.261796 -0.460733 0.287237 0.220134 -0.040767 0.407680 -0.142289 0.502560 -0.317923 0.237668 0.092082 0.734379 0.035920 0.425551 0.490632 0.578655 -0.189461 -0.585010 -0.380829 0.121940 0.178899 -0.241666 0.208419 0.024024 -0.494276 -0.172951 -0.262541 -0.445116 -0.567991 -0.200089 -0.554370 0.112472 0.413236 -0.198951 0.365784 0.320322 0.609806 -0.642815 -0.097326 0.256919 0.267394 0.648065 0.208196 -0.024908 -0.002505 0.121830 -0.446070 0.157838 -0.597798 -0.523831 -0.175099 0.526349 -0.342090 0.268216 0.054459 -0.119102 -0.222491 0.635697 -0.781292 -0.158231 -0.701999 -0.216522 0.679016 0.099423 -0.140099 -0.267380 0.123427 -0.786861 -0.284271 -0.532198 0.405460 -0.995393 0.223706 0.143276 0.658694 0.020921 0.802159 -0.583246 -0.634719 -0.148500 -0.494439 0.429220 0.012326 -0.184421 0.524884 -0.472629 -0.148077 -0.558837 0.239842 0.422693 -0.121164 -0.399162 0.899024 -0.073956 0.827916 -0.341221 -0.513514 0.717606 -0.584154 0.284088 0.460839 -0.904206 0.572010 -0.419045 0.290719 0.484002 0.287570 0.021476 0.349819 -0.295801 0.015600 0.003069 -0.019970 0.538304 0.246985 0.156486 0.808187 0.210907 -0.277174 0.184867 -0.178435 -0.488681 -0.908767 0.065464 -0.389694 -0.232162 -0.007087 0.051044 0.104038 0.514365 -0.710735 0.307119 -0.318967 0.085509 -0.309185 -0.357360 -0.067841 0.080661 -0.043408 -0.454553 -0.243695 -0.396880 -0.402575 -0.519828 0.026878 -0.414144 0.059541 -0.729419 -0.155945 -0.220164 0.044408 -0.138782 -0.143045 0.193725 -0.349790 0.647685 0.310997 0.375233 0.287739 0.170898 0.274628 0.489976 0.125051 0.176634 -0.145983 0.074217 -0.052931 0.283550 0.160730 -0.168962 -0.435686 -0.248120 0.946076 0.179520 -0.522579 0.193387 -1.050138 -0.326041 -0.689542 0.036526 -0.424226 -0.366554 0.801456 0.050164 -0.898000 -0.951867 0.274888 -0.539957 -0.067081 0.160847 0.570921 1.162458 0.626399 0.473509 0.042186 0.685706 0.149360 0.387672 -0.208011 0.040450 -0.261784 -0.680165 -0.556322 -0.133327 -0.656310 0.263584 -0.120103 -0.045512 0.708535 0.325201 -0.904639 -0.049083 0.064129 -0.162679 -0.623734 0.739030 -0.072748 -0.323259 0.106335 0.217644 -0.234683 1.213547 0.294908 -0.293504 -0.125609 -0.094960 0.117844 0.334502 -0.322876 -0.051438 0.246370 0.432361 0.198623 0.423699 0.394259 -0.291908 -0.180048 -0.209890 0.188254 -0.140738 0.525944 0.809698 0.765909 -0.717603 0.272329 0.177086 -0.432472 0.036728 -0.211820 -0.653133 0.116957 0.173090 -0.160811 -0.004692 0.676958 0.617543 
_value -0.006320 -0.838542 -0.013070 -0.462415 0.811454 -0.279816 -0.952008 -0.720207 -0.202394 -0.679115 0.281708 -0.134575 0.127581 0.067346 0.655489 0.146849 0.605099 -0.299500 -0.433858 0.056758 -0.702802 0.138892 0.034585 0.304375 0.097299 0.602658 -0.705704 -0.010336 0.492085 -0.296290 -0.224677 -0.108529 -0.238063 -0.583050 0.032868 0.502988 -0.270710 0.255517 0.555216 -0.065780 0.134690 -0.690333 -0.189606 0.963840 -0.349723 1.537632 -0.190966 -0.210398 -0.200989 -0.257610 -0.403392 -0.255278 -0.986071 0.219972 0.263280 0.396940 0.855100 -0.468954 -0.307333 0.121396 -0.007375 -0.605734 0.373270 -0.105976 0.029052 -0.048955 -0.342772 -0.096412 0.311672 -0.269865 -0.669240 0.355981 -0.104875 -0.129823 -0.545684 -0.091656 -0.017467 0.703322 -0.449095 0.471423 -0.257272 0.329782 0.127585 -0.840439 0.060206 -0.012517 -0.160930 0.550190 0.300244 0.253168 0.477511 0.401778 -0.082830 0.876230 -0.032641 -0.264558 -0.177970 0.377348 0.747295 -0.101475 -0.617684 -0.551091 0.895428 0.831179 0.168392 -0.602724 0.004810 -0.296180 -0.243470 0.620517 0.255048 -0.069992 0.588934 0.789908 -0.359904 0.533257 0.071366 0.458197 0.662789 0.494059 -1.141635 0.539261 -0.517433 -0.242986 -0.262906 -0.105834 0.211102 0.603671 0.704594 0.667142 -0.310594 -0.448625 -0.129269 -0.047555 -0.227818 0.263024 0.702094 0.192410 -0.564935 -0.237634 0.076880 -0.278087 -0.690480 -0.315555 0.088869 0.710944 0.335235 -0.050652 -0.650364 0.335505 0.370081 0.795656 0.196811 0.096438 -0.508611 -0.464991 0.243577 1.026335 -0.305171 0.992112 -0.984718 0.217152 0.536656 -0.086029 -0.069372 0.462120 0.666978 0.210252 -0.523472 1.164797 -0.336458 -0.556666 -0.569389 -0.691378 0.444352 -0.469569 -0.456656 0.167147 0.806379 0.578104 0.918371 0.208380 -0.207742 0.111107 0.838173 0.076308 -0.447381 0.204176 -0.000215 0.368531 0.670974 -0.005571 -0.310086 0.682552 -0.435337 0.506741 0.276640 0.733225 0.597863 -0.014115 0.051921 -0.252746 -0.576689 0.065009 -0.328767 -0.534325 -0.558228 0.344144 -0.039280 -0.158075 -0.525887 0.030129 0.018643 -0.483982 0.664476 -0.369664 0.056171 -1.193731 0.492115 0.450269 -0.601201 -0.776208 -0.011737 0.456461 0.170030 -0.108832 0.645408 -0.545497 -0.230953 0.618801 -1.045330 0.130918 0.048227 0.556690 -0.113525 0.318103 0.797913 -0.389478 -0.204876 0.451827 -0.146372 0.011533 -0.981585 0.061561 -0.600854 0.700338 -0.517491 0.107004 0.822185 -0.135812 -0.442788 0.286704 0.767959 0.266902 -0.376907 0.271478 -0.168174 0.055365 0.593874 0.428569 0.664101 0.078580 -0.075129 0.054612 -0.316828 0.368490 0.250237 -0.396001 0.264675 0.132399 -0.493026 0.008983 -0.810625 0.058973 0.401558 -1.097073 -0.189521 0.441432 0.309607 -0.274747 -0.113534 -0.351853 -0.260897 -0.130659 0.643056 0.009048 0.533104 -0.720299 -0.223831 0.360131 0.550233 0.204504 0.172400 0.218375 -0.688103 0.161546 -0.659755 0.866163 0.257853 -0.864398 
internal 0.888815 -0.316086 0.505780 1.322342 0.145265 -0.236489 -0.017416 0.808562 -0.393985 0.312743 -0.513505 0.691135 0.166303 0.129876 -0.041966 -0.139664 0.012588 -0.863437 -0.294565 0.126888 0.476366 0.330644 -0.459754 -0.621544 0.286817 0.200787 0.243184 -0.307104 -0.556179 -0.125338 -0.294941 0.490933 -0.055765 0.579349 -0.319187 -0.217795 0.039901 0.547415 0.934919 -1.382416 -0.846346 -0.038023 0.046725 -0.068825 0.032552 -0.518913 -0.459915 -0.140174 0.108683 0.704724 -0.412354 -0.474592 0.226074 -0.071735 -0.382884 -0.199162 -0.501733 0.205724 0.936080 0.533000 -0.146133 1.349278 -1.218010 -0.027662 -0.001037 0.585924 0.460016 0.113621 0.414094 -0.287375 0.792600 -0.154380 -0.658904 -0.483063 -0.859879 0.060327 0.115865 0.022625 0.102315 -1.447845 0.243719 -0.132485 -0.599276 0.159531 0.670265 0.038845 0.821357 -0.040838 0.247903 0.463635 -0.583513 -0.126345 0.349043 0.472462 0.074510 1.038116 -0.378007 0.115228 0.178497 -0.110536 0.254926 0.891265 0.648124 -0.206513 0.286565 -0.443437 -0.722528 0.022922 0.168094 0.680643 0.098521 0.721322 -0.281421 -0.606373 -0.186608 -0.128542 -0.421204 -0.013761 0.145560 -0.385561 1.768303 -0.152553 0.030604 0.105138 -0.170690 -0.574305 0.172676 -1.085024 -0.483648 0.433623 -0.377116 0.285442 -0.922798 -0.238558 0.366040 -0.120693 -0.261344 -0.005355 0.416203 0.480488 0.175424 0.324561 0.579890 -0.609137 0.030932 -0.379066 -0.209956 0.141255 0.031409 0.585042 -0.579850 -0.677624 -0.632969 -0.271557 0.804276 -0.045618 0.540820 -0.615821 0.090660 0.075249 -0.039130 0.249387 -0.233521 0.306127 -0.865740 0.575083 -0.105879 0.423703 0.679644 -1.390029 0.576347 0.046378 0.028008 -0.693471 -0.315083 0.307309 -0.495269 0.071244 -0.045266 0.436086 -0.685615 0.348043 -0.477260 0.001946 -0.701580 0.204192 0.385578 -0.618149 0.272723 -0.173056 0.200595 -0.315502 0.059274 -0.087255 -0.025309 -0.540310 -0.005197 -0.250557 -0.331567 0.305165 -0.105336 0.549970 -0.381430 -0.127507 0.339767 0.119124 -0.720730 -0.439577 0.202558 0.003736 0.704687 0.305615 0.221600 -0.225453 0.240451 -0.580568 -0.298439 -0.219373 -1.088408 -0.695964 -0.081666 0.681505 -0.628237 -0.203292 -0.601402 0.117644 0.152086 0.469710 0.152655 -0.332354 0.268236 -0.201514 -0.217328 -0.681657 -0.155986 0.286883 -0.581342 0.355848 0.408606 -0.028012 -0.059493 -0.491045 -0.184922 0.441151 0.181103 -0.285542 0.336831 -0.074260 -0.934264 -0.089736 0.941999 -0.180490 -0.108980 0.039940 0.323382 -0.176326 -0.023236 -0.089582 0.077316 -0.399691 0.371836 0.583210 -0.136868 0.442007 0.690805 0.015412 0.224912 0.527231 -0.051683 -0.106983 0.361046 -0.570219 0.282318 -0.380520 0.013191 -0.186437 0.674016 0.540957 0.165532 0.491601 -0.117061 -0.073102 0.968980 0.386448 -1.075753 0.061375 -0.311716 -0.365453 0.022604 -0.065425 -0.352788 -0.493950 -0.262834 -0.421370 0.153910 0.319546 0.228758 -0.398292 -0.501103 0.630396 
bool 0.155230 -0.506567 -0.090037 -0.237324 0.347605 -0.168947 0.659047 0.373301 -0.158464 0.665937 0.540450 -0.307188 0.436311 0.579746 0.175090 0.989820 -0.293329 -0.803967 0.305393 -0.646924 -0.166506 -0.075255 -0.140017 0.631234 0.210403 -0.068846 0.157757 -0.427461 0.217789 0.172026 0.359394 -0.422735 0.359909 0.644812 -0.050763 -0.485225 -0.426241 0.072790 -0.183834 -0.121910 -0.554803 0.701392 0.890377 -0.236908 0.386598 0.355084 -0.184884 -0.293547 0.660473 -0.697793 0.329205 -0.007310 0.229560 -0.008563 -0.719159 -0.138269 -0.073779 0.342581 0.011314 -0.264756 0.126164 0.448111 0.830620 -0.066120 -0.266399 0.349158 -0.248300 -0.295501 0.492845 0.546426 -0.504645 0.098013 0.735715 -0.279115 0.152285 0.051505 -1.076192 -0.115521 -0.157383 0.008920 -0.180217 -0.163673 -0.089065 0.216182 -0.365966 -0.520270 -0.309907 -0.370661 -0.149637 -0.477683 0.002754 -0.150740 -0.438447 0.036976 0.267504 0.689180 0.394269 -0.627626 0.331307 -0.951871 0.228629 -0.013998 0.095585 0.297531 0.341531 0.128265 -0.172388 -0.029743 0.431272 0.202260 -0.052796 -0.295182 0.346933 0.523087 -0.867370 0.502302 0.188445 0.350470 -0.195937 -0.042775 -0.476169 -0.161436 0.222631 -0.519836 0.352193 0.181802 -0.137251 -0.017340 -0.148213 0.245080 -0.344486 0.010785 -0.976194 0.129421 0.056482 -0.945396 -0.149200 -0.020051 -0.442134 -0.024655 -0.398305 -0.489524 0.272530 0.298986 0.325900 0.354848 0.242826 -0.263554 -0.432002 -0.228859 -0.403528 0.379839 0.231036 0.425932 -0.329764 -1.130139 0.274826 -0.674282 -0.067567 0.221190 -0.435669 0.146115 -0.344643 -0.132335 0.252534 0.690004 1.093458 0.266959 0.023356 -3.379193 0.200535 0.442332 -0.251461 -0.070401 -0.091651 -0.217637 0.380897 -0.250766 0.077695 0.285949 -0.204797 -0.348991 0.063796 0.226323 -0.227339 -0.042106 0.408161 -0.314499 -0.089006 -0.334747 -0.187278 -0.154190 0.388151 -0.163174 -0.075378 -0.576544 -0.501059 0.810359 -0.474048 -0.017946 -0.083555 0.620182 0.302371 0.098155 -0.857038 -0.284662 -0.001940 -0.357301 -0.187381 0.386160 0.089297 -0.549753 -0.113784 -0.333296 0.131294 0.527931 0.406541 0.327372 0.489372 -0.448727 0.151371 -0.554723 0.177862 0.611717 -0.425547 0.380084 0.471637 -0.174504 0.363735 -0.067422 -0.152913 0.683462 -0.263556 0.379755 0.420751 -0.457329 -0.432005 0.094708 0.474647 0.095452 0.420269 0.264645 -0.372683 -0.005664 0.108325 0.005422 0.419428 -0.096767 0.055080 1.089882 -0.056709 -0.507689 -0.035293 0.233725 0.237766 -0.030756 0.081732 -0.327495 0.346130 -0.474355 0.034985 0.449215 -0.311046 -0.068476 -0.376013 -0.592651 0.154297 0.352139 -0.361852 0.409705 0.459228 0.188464 0.357376 0.001861 -0.397853 -0.868367 0.160291 -0.838555 -0.749135 -0.861978 0.775531 0.060577 -0.773785 -0.742590 0.205581 0.173368 0.091052 -0.555586 0.131213 -0.051158 0.018799 -0.386469 -0.477898 0.053501 -0.048623 0.168188 0.172543 -0.104412 0.229908 0.656301 
uint 0.025992 0.916403 -0.201662 -0.374677 0.525013 -0.079075 -0.523787 0.312475 -0.129022 0.694483 0.341299 -0.623641 -0.452763 -0.325725 -0.282697 0.287837 0.359358 0.230233 -0.594903 -0.181593 -0.387565 0.317105 0.352667 0.719170 -0.709813 0.486502 -0.071671 0.355998 -0.292038 0.106316 0.180549 -0.636819 -0.702634 0.198212 0.448989 -0.357189 0.173682 0.271976 0.239286 0.209398 -0.041749 0.914764 -0.282498 -0.252447 0.586669 -0.291651 -0.432621 0.181517 0.650188 -0.111568 0.638987 0.528642 0.232368 0.068290 0.027427 -0.307324 0.165835 0.504362 -0.152011 -0.160033 -0.184901 0.150824 0.205514 -0.566831 0.898866 0.305346 0.246044 -0.052295 0.192275 0.021475 0.246394 0.716605 0.914702 0.314344 0.117335 0.660252 -0.787712 0.164127 -0.037975 -0.288476 0.426233 0.022069 -0.235624 0.221567 0.550502 0.216581 -0.096917 0.023729 -0.186136 -0.721350 -0.027632 0.805338 0.361496 -0.144196 0.644698 0.730675 0.288679 -0.370744 0.193784 -0.497963 0.033883 -0.427193 0.165092 -0.275146 -0.292403 0.254863 -0.183559 -0.149691 0.850976 0.939203 -0.291731 0.069050 -0.232407 0.186989 -0.527941 0.186285 -0.570625 0.463183 0.034700 -0.187975 0.160683 -0.212832 0.105647 -0.456754 0.599347 -0.123642 -0.332125 -0.185082 -0.065035 0.047651 -0.002717 0.437933 0.214890 0.231282 -0.285204 -0.424389 -0.358957 0.696826 -0.134135 0.843099 0.048696 0.417888 0.437641 -0.324073 -0.145158 0.611903 0.236639 0.087406 -0.183766 -0.253869 -0.706256 -0.063876 0.082495 -0.056171 0.020796 -0.707328 -0.082535 0.343299 -0.009855 -1.159926 -0.462409 0.007090 0.345654 0.189383 0.405238 0.595032 0.298748 -0.088684 0.958330 -0.961798 -0.207051 0.438886 0.146293 -0.159915 0.622921 0.964640 -0.122228 0.091840 -0.280598 -0.483033 -0.025843 -0.021716 -0.267384 0.127001 -0.029392 0.014426 -0.096387 0.505277 0.125555 -0.053674 -0.342165 0.488249 -0.014451 -0.760140 -0.477780 -0.013895 -0.545569 -0.338447 -0.368743 -0.180995 -0.433162 -0.353898 0.192755 -0.456655 -0.314225 0.222138 0.478548 -0.156309 -0.497013 -0.011407 0.297006 0.605098 0.064397 -0.265728 0.832826 -0.074166 -0.252953 0.465021 0.125776 -0.280464 -0.208346 -0.122708 0.713825 0.220817 0.168070 -0.026901 -0.748770 0.130515 0.409669 0.020799 -0.480220 0.477776 -0.246158 0.669858 0.764982 -0.109232 0.439512 0.458859 0.254196 0.197691 0.395422 0.849612 -0.179276 0.613564 0.175548 0.127747 0.133164 0.467860 0.010943 -0.076243 0.051632 -0.493777 -0.048239 -0.547152 0.512747 -0.079764 0.548627 0.120204 -0.747293 -0.158090 -0.726764 0.173732 -1.203571 -0.409959 -0.206625 0.050817 -0.125142 0.528150 -0.379068 -0.196836 -0.125461 -0.196378 0.865342 0.296434 -0.363030 -0.214848 0.542517 -0.227667 -0.280274 -0.237957 0.170278 0.583894 -0.719146 -0.014689 -0.014900 -0.026474 0.128854 0.016353 0.623908 0.015345 0.923334 0.481765 0.243702 0.653678 -0.344673 0.168672 -0.091919 0.680716 -0.344713 0.094725 
sub -0.212741 0.818391 0.721566 0.821617 -0.878917 0.910289 0.316252 -0.204074 -0.659507 0.124680 0.216413 0.233792 -0.244942 0.504816 -0.013035 -0.014390 0.767493 0.665913 -0.284418 0.663962 0.327296 -0.845757 0.484791 -0.980420 -0.255670 0.091847 -0.500558 0.015212 0.273798 -0.213307 0.231896 0.131761 -0.447971 0.105712 0.706941 0.361275 -0.019529 -0.537076 0.086375 0.362520 0.569826 0.307150 -0.287369 -0.896266 -0.345683 -0.087818 0.366758 0.533185 -0.338702 1.252962 0.301096 -0.408354 0.062658 -1.142551 0.073319 -0.021476 -0.873200 -0.516059 -0.138030 0.358614 0.556934 -0.040558 0.202549 0.378796 -0.364926 -0.090880 0.567529 -0.061178 0.306947 0.052377 0.732567 -0.222938 0.623623 -0.320953 0.475691 -0.404079 0.473966 -0.370150 -1.048479 0.574416 0.626525 -0.419820 -0.499105 -0.308243 -0.739426 0.281792 -0.338604 0.355796 0.156335 0.187548 -0.287312 0.033775 -0.187336 -1.018145 -0.595285 -0.096648 -0.331582 -0.237353 0.678023 0.353349 -0.381415 0.357424 -0.209795 -0.486995 0.479825 -0.095539 -0.217965 -0.531160 -0.759598 0.036033 -0.403511 -0.023936 -0.568376 -0.817581 0.970465 0.450136 -1.335074 -0.632089 -0.034224 -0.075890 -0.087539 -0.998334 -0.363902 -0.520785 -0.679510 -0.176099 0.069733 -0.685810 0.328018 0.434241 -0.844675 0.007931 -0.438069 0.311795 -0.372234 -0.374189 0.111813 -0.655115 0.446172 0.206892 -0.003903 0.068734 0.720990 -0.296934 0.389102 -0.861088 0.735883 0.899300 -0.828613 0.135437 -0.356535 -0.557234 0.021788 -0.148944 0.078358 0.509823 0.175845 0.472309 0.269658 0.069740 0.725820 0.359544 1.160386 0.194737 -0.443506 -0.268191 0.136848 -0.491618 -0.401718 -0.842796 0.102243 0.423634 -0.881398 0.148105 -0.094255 0.588713 0.279865 1.579621 0.559010 -0.222022 -0.582702 -0.356315 -0.798462 0.001251 0.015401 0.052334 -0.085795 -0.318002 -0.681748 0.653079 0.163207 0.368041 -0.718090 -0.139380 -0.714271 -0.377138 0.021340 -0.865269 0.133680 -0.222127 0.563825 -0.231039 -0.001984 0.404473 0.414999 0.118497 0.361900 1.231571 0.602856 -0.033876 -0.031475 1.002494 0.195498 -0.421009 0.301443 -0.274005 -0.073868 -0.074141 -0.429178 0.919086 -0.487000 0.122122 -0.346771 -0.555960 0.029206 -0.355650 -0.046884 -0.640593 -0.067497 -0.603479 0.126967 -0.845473 -0.889827 -0.031035 0.046506 0.768861 0.233641 0.077803 0.004058 0.173237 -0.793281 0.146127 -0.531427 0.589544 -0.566461 -0.122700 0.822133 -0.388240 0.176463 -0.021163 0.088770 0.782173 0.222594 0.297321 1.214118 0.362875 0.559956 0.160251 0.268206 0.831836 0.564152 -0.116035 -0.707317 0.063369 -0.751968 -0.067049 -0.136801 0.411233 0.027272 -0.611118 0.324393 -0.028242 -0.240323 -0.220059 -0.426920 0.021014 0.706846 0.515570 1.163039 0.503585 0.075021 0.233222 -0.056566 -0.002334 -0.170701 1.785996 0.454526 0.652488 -0.049845 0.040581 -0.426730 0.497846 -0.553682 0.972252 -0.259706 0.470997 0.167859 0.330100 -0.684930 -0.965423 
_dividends -0.037266 0.033586 -0.505266 -0.723537 0.406801 0.511433 1.090824 -0.088246 -0.016444 -1.114983 -0.251618 0.774226 0.274643 -0.628829 0.046611 0.105127 0.583602 0.337301 0.580015 -0.233279 -0.973092 -0.152924 0.191540 0.346196 -0.914249 0.172753 -0.564793 0.528691 0.425166 -0.654453 -0.102162 -0.503447 0.138100 -0.784735 -0.449177 0.047190 -0.162603 -0.037144 -0.415178 -0.102009 0.328204 -0.314121 -0.638891 0.131133 0.108217 -0.279363 0.498414 -0.069791 -0.414411 -0.329410 -0.492108 -0.589108 -0.048758 -1.164579 -0.478847 0.532094 -0.032556 -0.443112 -0.572565 -0.605832 -0.378389 -0.020872 0.037299 0.451989 -1.204782 0.423148 -0.530993 -0.128347 -0.004914 0.291518 -0.156141 -0.424563 -0.155411 -0.259635 0.389452 -0.595868 0.320836 -0.078379 -0.445579 -0.377172 -0.783499 0.771307 0.842889 0.164890 1.015340 -0.985157 0.308457 -0.205935 0.169770 -0.368519 0.341613 -1.100207 0.208412 -0.425334 -0.408969 0.027581 0.500410 -0.147298 0.267843 -0.434565 -0.546819 -0.266148 0.105245 -0.097480 1.099936 0.552445 -0.303961 -0.371064 0.143019 -0.157379 0.313224 0.974630 -0.100099 0.453416 -0.456630 0.380457 1.050277 0.816646 0.083595 0.185936 0.626345 0.879794 0.862096 0.805524 -0.112751 -0.338149 0.249289 0.417925 -0.549345 -0.235159 -0.038401 -0.130846 -0.711865 0.013660 0.755873 0.172912 0.027049 -0.331552 -0.137267 -0.822374 -0.161342 0.215879 -0.059409 -0.272830 0.105779 -0.925543 -0.169096 -0.151163 0.282523 -0.164233 0.202425 0.973655 -0.076378 0.384979 -0.343656 0.171367 -0.097708 0.382468 0.479080 0.540920 -0.262161 -0.178143 0.675863 0.160007 0.333141 -0.409486 -0.375541 -0.566281 -0.018801 -0.393248 -0.347348 -0.260195 0.459668 -0.660294 0.358546 -1.157894 0.069570 -0.226281 -0.052923 0.428996 -0.340629 0.311414 0.816277 -0.616209 0.384519 0.411059 0.299001 -0.127590 -0.384958 -0.299797 -0.363361 -0.302935 -0.323949 0.585457 0.492546 0.217177 0.939866 -0.082270 0.446799 -0.139657 -0.202212 0.230261 0.072058 -0.229158 0.745936 0.151477 -0.153667 -0.013822 0.903374 0.709024 0.213536 -0.215807 -0.663514 0.589249 -0.608031 -0.464222 -0.547652 -0.612931 0.131411 -0.341741 -0.092730 -0.665137 0.417071 0.394159 0.014918 0.036823 0.704805 0.027115 -0.398343 0.348019 0.073270 -0.627247 -0.603105 0.448355 0.140413 0.583713 0.257778 -0.286607 -0.605183 -0.484932 -0.003094 -0.366598 0.089196 0.296466 -0.474720 -0.131766 0.335023 -0.133895 0.068082 0.344404 -0.717363 0.452406 0.203170 0.617773 -0.633419 -0.549957 0.062174 0.548558 -0.443590 0.040518 0.759468 -0.968845 0.214557 0.317961 -1.050612 0.103095 -0.279975 -0.261901 0.089852 0.268748 -0.572219 0.282370 -0.224054 0.197781 -0.306710 -0.344791 -0.046864 0.066655 -1.203533 0.552870 0.410055 -0.169651 -0.274525 -0.512514 -1.197080 -0.128233 -0.518764 0.404691 -0.207446 0.481864 -0.372552 0.097486 0.328964 -0.019862 0.347287 -0.549937 0.229616 -0.146811 -0.595175 -0.844399 
_to -1.166778 -0.476009 0.035267 -0.749359 0.615732 -0.607085 -0.254916 -0.402820 -0.611899 0.007054 -0.482094 -0.446679 0.433213 -0.028192 0.628714 0.300733 0.027202 -0.241483 -0.619326 0.010079 -0.095300 0.891526 -0.294528 0.385631 0.214828 -0.350010 -0.091986 -0.778865 -0.032198 0.553000 -0.501767 -0.462387 -0.322393 -0.168788 -0.130130 -0.215745 -0.432380 0.735856 -0.574746 -0.152965 -0.250569 0.085779 0.443662 0.870966 0.220142 2.027745 -0.014815 -0.028710 0.426446 -0.311052 -0.352853 -0.456315 -0.128337 0.516007 1.060556 0.779294 0.337528 -0.185676 -0.664462 -0.045094 0.156083 -0.202719 0.482244 0.127077 -0.518748 -0.267943 -0.452672 -0.835697 -0.064734 -0.393004 -0.384869 -0.342819 0.585892 0.337349 -0.450681 0.440979 0.027705 0.247934 -0.053502 0.460420 -0.255796 -0.607599 -0.843303 -0.707437 0.019549 -0.341759 -0.292498 0.257607 0.264891 0.141888 0.434655 0.020077 -0.517245 1.275610 0.865619 0.656263 -1.224790 0.213980 -0.223520 0.029396 -0.500796 0.495895 0.339200 1.541955 0.111400 0.051014 0.025591 0.366147 0.254427 0.613079 -0.082254 -0.832642 0.346316 1.185122 -0.891438 0.541320 0.261505 0.423801 0.137335 0.019750 0.214576 0.488636 0.265486 -0.690992 -0.048083 0.206766 0.161602 -0.162364 0.583285 -0.391576 -0.145736 -0.577761 -0.760707 -0.213880 -0.231836 0.808501 0.638465 0.483033 -0.449831 -0.709274 -0.310406 0.408543 -0.342387 -0.496479 0.837956 0.600042 1.023062 -0.116204 -1.022136 -0.104546 0.857934 0.558500 0.399725 0.610445 -0.998083 0.228620 0.461295 0.219776 0.462771 1.543276 0.083665 -0.151231 -0.678508 -0.224673 0.869998 -0.204281 -0.549453 -0.252176 -0.431731 -0.278089 0.055046 0.117592 -0.913640 0.185446 -0.956787 -0.109255 -1.190473 -0.604085 0.260742 0.427841 0.327805 -0.278171 0.034736 0.277228 0.342441 -0.042146 -0.546980 -0.342961 0.093244 0.378197 0.045421 -0.904331 -0.329016 0.850984 -0.889171 0.223400 0.924332 0.154721 0.257623 0.382741 0.377065 -0.095463 -0.482030 0.223332 -0.022481 -0.800259 -0.649171 0.414828 -0.388992 -0.102220 -0.661299 0.586349 -0.143189 -0.761692 0.949164 0.799154 -0.086196 -0.273219 -0.068351 0.801169 -1.282881 -0.112109 -0.501854 0.443761 0.071840 -0.311141 1.064575 -0.417236 -0.407359 0.780430 -0.494103 0.867222 -0.383122 -0.372004 0.977132 0.323754 0.386104 0.568914 0.290292 0.396390 -0.739020 0.657048 -1.431342 0.045502 0.023013 0.296781 1.032972 -0.145410 0.627180 0.706028 0.139777 -0.327568 0.189053 0.095336 -0.614337 0.492984 -0.565309 -0.724787 -0.123764 0.352013 0.607204 0.600769 -0.310906 -0.127106 -0.622100 0.325773 -0.150451 -0.061369 0.497746 0.261210 -0.553005 -0.279628 -0.719542 0.138317 0.400676 -1.012959 -0.136669 -0.608735 -0.119101 -0.931913 -0.608791 0.422309 -0.629541 -0.426637 1.042732 -0.255277 0.694860 -0.534315 -0.381787 -0.133254 0.151363 0.385064 0.100879 -0.141303 -0.539468 0.544169 -0.247403 1.138036 0.347803 0.380119 
add -0.083382 1.280994 0.708738 1.331624 -0.503289 0.435342 0.667260 -0.226204 -0.667708 -0.411296 -0.399709 -0.301751 -0.187278 0.245076 -0.583620 0.019089 0.273372 0.255508 -0.610048 0.726470 0.691301 -0.214138 0.719678 -0.488733 -0.515721 0.433768 -0.528672 0.091506 -0.587815 0.214895 -0.250595 0.540420 0.249951 0.265138 0.162056 0.342167 -0.248067 -0.438021 -0.548735 1.165385 0.461955 0.534081 0.117901 -0.851385 -0.326396 -0.416451 1.174466 0.669841 -0.524445 1.441931 0.088393 0.189361 -0.458267 -0.540551 0.329691 0.214776 -0.670469 -0.032937 -0.640568 0.684884 0.302767 0.421878 -0.519219 -0.259689 -0.202779 -0.316574 1.084451 -0.358590 -0.368160 0.005181 0.992878 -0.036100 0.176613 -0.128401 0.085343 -0.352144 0.552831 -0.392495 -0.319453 0.042927 0.542878 -0.876230 -0.769771 -0.488624 0.198913 0.404241 0.208969 0.571639 0.673875 -0.295161 0.023603 0.709745 -0.508489 -0.698152 -0.519160 0.389087 -0.126911 -0.326946 0.103897 -0.590866 -0.007433 0.625029 0.078619 -0.495585 0.108212 0.057337 -0.108512 -0.732564 -0.427431 -0.141453 -0.506722 0.758418 -0.337410 -0.570799 0.677492 0.305527 -0.612431 -0.756924 0.329130 -0.751387 0.693499 0.003699 -0.661198 0.499735 -0.497854 0.501876 0.518406 -0.682592 0.385319 0.040997 -0.487666 0.253053 0.415954 -0.271598 -0.505550 -0.014954 -0.002754 -0.157066 -0.221374 0.576697 -0.276439 0.852910 0.412415 -0.080458 0.426721 -0.900654 0.864938 0.629525 -1.020574 0.279110 -0.344600 -0.974762 0.798344 0.364706 -0.055688 0.829542 -0.203652 0.403246 -0.107642 -0.394092 0.746032 0.311626 0.886248 -0.134130 -0.034475 -0.368964 -0.377364 -0.427275 0.130498 -0.819967 -0.473807 0.316896 -0.731522 1.012153 0.892855 0.549303 0.519383 1.424738 -0.631206 -0.098764 -0.376550 -0.197457 -0.508503 0.042338 0.121694 -0.408364 -0.369703 0.091916 -0.498233 0.372088 -0.164460 -0.201077 -0.790011 -0.445650 -0.657509 -0.040450 -0.004677 -0.892549 0.188622 -0.092649 0.422210 -0.203736 0.689639 0.246432 0.403704 0.814558 1.369518 0.416844 0.289398 -0.342568 0.226538 0.580906 0.183195 -0.073080 0.568843 -0.704816 0.047234 0.766201 -0.698265 0.557313 -0.193175 0.230420 -0.191671 -0.595086 -0.578600 -0.352065 0.311608 0.137446 -0.461053 -0.811756 0.147722 -1.213078 0.055419 -0.065085 0.572343 0.415626 0.727699 0.311402 0.580171 0.063228 0.503824 0.274784 0.015179 0.489548 -0.298978 0.243087 -0.179788 -0.420865 0.036195 0.166544 0.006165 0.843784 -0.609591 0.481320 0.772453 0.026671 0.683871 -0.253112 -0.838062 0.902274 0.114323 0.547261 -0.440000 -0.378686 0.046857 -0.240463 -1.154470 0.102616 -0.656871 -0.117796 0.135525 0.109999 -0.562972 0.474059 -0.517134 -0.251985 0.485985 0.453922 1.110093 -0.449527 -0.233668 0.729401 -0.153543 0.501456 0.313700 1.025381 -0.032018 0.801242 0.560987 -0.188076 -0.320065 -0.062149 -0.415525 -0.506883 -0.413002 -0.125732 -0.117429 0.566093 -0.498938 0.035928 
> 0.071623 -0.071051 0.278937 -0.079703 0.480420 0.161387 0.814046 -0.403434 -1.055879 -0.027830 0.307272 -1.460869 0.846463 0.024858 0.998794 -0.407259 -0.613467 0.362414 -0.225665 -0.025287 1.090127 -0.306065 0.043399 0.753486 -0.318547 0.997079 -0.864271 -0.039177 0.464720 0.046659 -0.486090 -0.575711 -0.660128 0.128708 0.121222 0.361302 0.001419 0.228186 0.067925 -0.538879 -0.678408 -0.273167 -0.606728 -0.086119 0.420460 0.223485 0.409614 0.754803 0.063691 0.098295 -0.445286 -0.682031 -0.364326 -0.130803 -0.213254 -0.849968 -0.261111 -0.579247 0.132987 0.245800 0.418885 -0.225046 0.269604 -0.127624 -0.187505 0.237215 0.473363 -0.203659 0.218853 0.033041 0.018100 -0.246757 -0.397408 0.609386 -0.201085 0.690315 0.437449 -0.034395 0.397619 0.072686 0.280895 -0.587089 -0.205830 -0.513640 0.014144 0.351174 -0.090122 -0.009923 -0.176130 0.405885 -0.168754 -0.473408 0.124200 0.648782 0.377458 0.632027 0.171090 0.548869 0.133676 -0.485932 0.419191 -0.236284 0.377008 -0.002263 -0.182357 -0.293769 0.192067 -0.641143 -0.127296 0.068811 -0.930350 0.159962 -0.770908 0.878355 0.434603 -0.038991 -0.084040 -0.117748 -0.952754 0.193823 0.405838 0.098136 0.653695 0.306703 -0.310033 0.355891 0.295707 -0.478108 0.218381 0.156769 0.054135 -0.668753 -0.683110 0.189589 0.828096 0.182487 0.506229 0.175155 -0.167502 -0.140002 -0.136805 0.145103 -0.026391 -0.011501 -0.573123 0.587997 -0.481961 0.995219 0.457825 -0.205676 -0.618215 0.184154 -0.346096 0.240552 0.675908 0.086831 -0.215417 0.160508 0.059975 0.947529 0.123722 0.469471 0.669258 0.175308 0.082625 -0.022839 -0.686180 0.530766 -0.312461 0.585197 -0.300542 0.683233 0.935898 0.585215 -0.389917 -0.346115 -0.966796 0.302532 -0.405744 -0.143320 -0.972602 -0.677579 0.476973 0.791950 0.000625 -0.601461 0.125540 -0.055845 -0.172278 -0.071666 -1.040197 0.581920 0.399074 0.120333 -0.612572 0.413170 0.690488 -0.190332 0.702867 -0.111172 0.824957 -0.116252 1.127440 -0.263879 0.349402 0.238966 -0.921055 0.455947 -0.202141 0.007046 0.004664 0.080748 0.366805 -0.883990 0.836014 -0.372908 -0.285038 0.198999 -0.021210 -0.568271 -0.476840 -1.012075 -1.071020 -0.875972 -0.111605 0.409092 0.094784 0.284435 -0.447418 0.110720 0.028887 1.563280 0.037544 0.448736 0.191173 1.261865 0.037911 -0.060980 -0.148267 1.043373 -0.926086 -0.682844 -0.242744 0.060396 -0.038250 -0.660289 0.790203 0.702359 0.143082 -0.256059 0.812245 0.923728 -0.225187 -1.038961 0.936836 0.711580 0.546255 0.411624 -1.204762 0.328904 0.656130 -0.219490 0.112321 -0.457812 0.492154 0.949231 -0.875528 -0.073218 -0.782474 -0.213704 0.006874 -0.342351 0.087352 0.350749 0.011665 -1.343498 0.250604 -0.067902 0.719871 -0.155764 -0.101939 -0.211852 -0.812348 0.456689 0.130194 -0.035457 -0.306474 0.070076 -0.173329 0.694923 -0.094258 0.251623 -0.616234 0.004333 -0.558173 -0.125438 -0.581954 1.065202 -0.944610 -0.399740 
_amountOfTokens 0.032819 -0.523665 0.331089 -0.009046 0.006080 0.060570 0.409541 -0.126968 -1.213758 -1.100025 0.109032 -0.064059 0.045562 -0.507674 0.206473 0.134462 0.406098 0.127971 0.204336 -0.220322 -0.132392 0.445480 0.241933 -0.139979 0.309898 0.286066 -1.103347 0.080374 -0.050564 0.799362 -0.024704 0.431644 0.186908 -0.535151 0.224012 0.312794 -0.650225 0.244583 -0.220240 -0.216099 0.285470 -0.211033 -0.168574 0.408018 -0.887910 0.051666 0.523887 -0.411405 -1.009122 0.079438 -0.254437 0.568041 -0.761081 -0.218708 0.020674 0.984157 -0.037529 -0.151977 -0.529422 0.136121 0.323359 0.324525 -0.382185 -0.182608 -0.509156 0.132139 0.017781 -0.162647 0.346224 0.892901 -0.007386 -0.031054 -0.206702 -0.982958 -0.307231 -0.947387 0.198309 0.515595 -0.576704 -0.752380 0.033922 0.313461 -0.203914 -0.486974 0.521589 -0.575590 0.539371 0.349432 0.610734 -0.430998 0.168212 0.001480 0.182903 -0.265029 -0.600419 0.481336 -0.413020 -0.370218 0.564905 -0.421016 -0.583764 -0.133150 1.011014 -0.654704 0.772045 -0.170017 -0.082884 -0.702732 -0.010471 0.189296 0.417028 0.552103 -0.053020 -0.326279 -0.184919 0.809589 0.595187 0.414082 0.379865 -0.310121 -0.173325 0.698941 -0.438214 0.667011 -0.309353 0.329708 0.593100 0.297692 0.837837 0.069544 -0.263795 -0.121318 0.022936 -0.164046 -0.339888 -0.014939 0.243080 -0.148886 0.531708 -0.278162 -0.450962 0.524427 -0.747910 -0.413616 0.092107 -0.613078 0.492036 -0.050084 -0.825161 0.094414 0.003882 0.780053 0.162051 0.440932 -0.788406 -0.512926 0.029757 0.563688 -0.140928 0.039382 -1.146313 0.108480 0.314709 -0.188745 -0.361092 -0.885139 0.063722 -0.411109 -0.874674 0.801770 -0.774689 -1.086020 -0.269616 -0.417164 0.587498 -0.940362 -0.095921 0.542585 0.643741 0.382127 0.517082 0.026358 0.620091 -0.274118 0.647407 -0.229679 -0.220151 -0.200534 -0.112469 -0.035255 -0.181738 -0.886041 -0.359627 0.352055 -0.160777 0.690875 -0.105925 0.092484 0.556237 -0.218183 -0.218975 0.611061 -0.054075 -0.143451 -0.066021 0.148354 0.389916 0.296337 0.899990 0.184542 -0.449816 0.012787 0.080268 0.514292 -0.452830 -0.657503 -0.534117 -0.327439 0.168977 0.132241 0.177000 0.101820 0.028888 0.295362 -0.409587 -0.159230 0.499115 0.023747 -0.722464 0.033928 0.014216 -0.806117 -0.236655 0.199773 0.385260 0.527166 0.074045 0.104934 0.692230 0.584580 0.825514 0.418680 -0.341003 0.530248 -0.191595 0.332876 -0.659967 -0.369820 0.010102 0.388686 -0.448941 0.353130 0.668387 1.111778 -0.051291 -0.183515 -0.293819 0.340790 -0.820662 0.485793 0.650250 0.074011 -0.119109 -0.002860 -0.461242 0.188078 -0.479749 -0.091677 -0.095247 0.452401 -0.456031 0.625237 -1.633577 0.196842 0.160380 -0.775310 -0.008857 0.263433 0.199878 -0.368090 -0.287154 -0.278993 0.035476 0.058148 -0.425615 0.730549 -0.190897 0.615060 0.445139 0.159356 -0.553345 -0.522708 0.134700 -0.463813 0.155293 0.217147 0.203175 0.586972 -0.403724 -0.401303 
