484 300
</s> 0.001334 0.001473 -0.001277 -0.001093 0.000456 0.001007 0.000314 0.000070 -0.001201 0.000739 -0.001452 0.000417 -0.000250 -0.000319 -0.001105 -0.000627 0.000860 0.001008 0.000990 0.000532 0.000515 -0.001268 -0.001365 0.001657 0.001267 0.001030 -0.000201 0.001339 -0.000165 0.000245 -0.000050 -0.000994 0.000437 -0.000446 -0.001275 0.001585 0.001460 -0.000365 -0.000075 0.000170 -0.001213 -0.001336 0.001518 0.000021 -0.000861 -0.001014 -0.001025 0.000566 0.000067 0.000444 -0.001405 -0.001269 -0.000043 0.000381 0.000850 -0.001057 0.001360 0.000309 0.000373 -0.000203 0.000995 -0.000763 -0.000699 0.000719 -0.000251 0.000344 0.000602 -0.001363 -0.000661 0.000971 0.001411 0.001311 -0.001016 -0.000703 -0.000303 0.000667 -0.001263 0.000999 0.000929 -0.000533 -0.000517 -0.000746 0.001410 0.001304 -0.000393 0.001405 0.001607 0.000605 0.001661 -0.001037 -0.000511 -0.000702 -0.000969 0.000938 0.000526 0.000142 -0.000731 0.000508 0.001020 0.000065 0.000760 -0.001651 0.001438 0.000160 -0.000610 -0.000694 -0.000249 -0.000978 -0.001457 -0.000946 0.001426 -0.000590 -0.000893 0.000772 -0.000568 0.001586 -0.000535 -0.001530 0.000905 -0.000025 -0.001163 0.000325 0.000481 -0.000160 0.000608 -0.001319 0.000294 0.000606 -0.001003 0.000047 -0.000020 -0.000800 -0.000944 -0.001565 0.000008 0.000051 0.000003 -0.001311 -0.001654 -0.001582 -0.001442 -0.000182 0.000464 0.000395 -0.001061 0.001666 -0.000670 -0.000425 -0.000468 0.001578 -0.001255 0.000387 -0.000445 0.001063 0.000014 0.001423 -0.000940 -0.000868 -0.001397 -0.001222 -0.001066 -0.001038 0.000815 -0.000622 0.000893 0.001230 0.000452 0.000984 0.000825 0.000780 -0.001184 -0.001144 -0.001219 -0.000044 0.001377 -0.000912 -0.001020 -0.001399 0.001102 -0.001393 -0.000193 0.000726 -0.001539 -0.001493 0.000481 0.001175 0.001421 0.000715 0.001054 -0.001043 -0.001213 0.001325 -0.000922 0.000584 0.000191 0.000597 -0.000394 0.000066 -0.000562 -0.000376 -0.001478 -0.001087 0.001162 0.000335 -0.000788 -0.000531 0.000832 -0.001178 -0.000771 0.001578 0.001416 -0.001320 0.000290 -0.000750 0.000051 0.001002 0.001615 0.000662 0.001371 0.001049 -0.000077 0.001492 0.000845 0.001580 -0.000568 0.001582 0.001443 -0.000476 -0.001473 0.001611 0.000299 -0.000693 -0.000239 -0.000245 -0.001284 -0.000477 -0.000148 -0.001642 -0.001172 -0.000401 -0.000314 0.000597 0.000272 -0.000205 0.000982 0.000482 0.000183 0.001206 -0.000375 -0.000476 -0.000138 -0.000909 -0.001000 0.000067 0.001446 -0.000456 -0.000007 -0.001378 0.001236 -0.000507 0.000989 -0.000803 -0.000298 0.000031 0.001208 -0.000029 0.001478 -0.000248 0.000700 -0.000046 -0.001301 0.001417 0.000352 -0.001010 0.001003 -0.001382 -0.001451 0.001089 -0.001144 -0.000883 0.001176 0.001095 0.000228 0.001508 0.001619 0.001352 0.000588 -0.001450 0.000763 -0.001631 -0.000429 0.000504 0.000327 -0.000508 0.000979 -0.001536 -0.000470 -0.000437 -0.000552 0.001024 
( -0.020648 -1.206694 -0.134448 0.083906 -0.448353 -0.570759 -0.050766 0.157979 -0.048260 0.003803 -0.057093 -0.100782 0.034101 -0.083892 -0.100352 0.077711 0.055420 -0.517288 0.545658 0.058827 -0.049679 -0.684005 -0.175567 -0.332475 -0.129710 -0.031467 -0.343537 -0.296842 -0.326569 0.227232 -0.110019 -0.022080 0.098102 0.398151 0.239895 0.224522 0.277805 0.259188 0.326993 -0.229088 0.234338 0.161541 0.796674 0.477396 -0.158679 -0.331894 -0.042264 0.060326 -0.461323 -0.279295 -0.224582 -0.322818 0.567156 0.054778 -0.304811 -0.172531 -0.383468 -0.111377 -0.337965 -0.082311 0.543083 0.224835 -0.019317 -0.358324 0.541037 0.291315 -0.044822 -0.130779 0.332627 -0.506941 0.069792 0.573970 -0.249858 -0.418162 -0.221552 -0.288546 0.514982 0.033109 -0.046807 0.236049 0.257533 0.258276 0.102162 0.139737 0.183676 -0.186647 -0.070728 -0.535872 0.127444 0.362898 0.573966 -0.040658 0.036424 0.081413 -0.024042 0.003785 -0.039359 -0.141630 0.326121 -0.259419 0.071688 -0.082789 0.023650 -0.369432 0.237392 0.325037 -0.457044 -0.022242 0.015839 0.004313 0.132267 -0.119579 0.264562 -0.101594 -0.409240 -0.438757 0.095840 0.291584 0.344753 -0.079591 -0.036901 0.244908 0.144103 -0.023186 0.071209 -0.107748 -0.007720 -0.127541 -0.183688 0.056542 -0.023040 -0.348097 -0.035686 0.349119 -0.093219 -0.257386 0.161032 -0.322844 -0.033347 0.461462 0.528565 -0.715596 0.025244 -0.255215 -0.071870 0.162798 0.103346 -0.388280 0.235962 0.231865 -0.214082 0.552383 -0.061596 0.055466 0.041901 -0.357591 -0.015054 0.427093 -0.133837 0.038634 -0.144919 -0.118548 0.541782 0.177032 -0.162104 -0.205492 0.523483 -0.228048 0.187385 0.008359 -0.041975 -0.605985 0.114256 0.095630 0.062306 -0.223624 0.155947 0.031860 0.147813 -0.315070 0.143430 -0.154258 -0.440168 -0.570244 0.150910 0.024838 0.015445 -0.117844 0.197040 0.078441 0.112146 -0.081340 -0.060016 0.001410 0.163250 -0.264110 -0.436646 -0.043182 -0.620470 -0.161135 0.257683 0.183610 -0.036077 -0.090383 -0.366674 -0.039017 -0.193623 -0.012128 -0.657239 -0.059484 0.103128 0.024424 -0.339609 0.264902 0.039432 0.249037 0.052398 0.086037 0.177266 -0.298955 0.605361 0.143986 -0.127352 -0.420551 -0.318646 -0.027285 -0.285138 -0.147043 0.071045 -0.102084 0.275297 0.074267 0.163483 -0.331977 -0.121682 -0.173702 0.075967 0.445060 -0.125570 -0.264374 0.017020 -0.150223 0.054003 0.076442 0.623433 0.007106 -0.057994 0.401425 -0.505736 0.205093 -0.273546 -0.107042 0.304738 0.142715 -0.121923 -0.316094 0.318706 0.086510 0.364033 -0.005046 -0.005159 -0.274764 0.038026 -0.337090 0.552332 -0.611901 0.221284 -0.090222 0.023385 0.162388 0.314059 -0.108339 0.371382 0.516887 0.144995 -0.088159 0.251424 0.377838 -0.016364 -0.441762 -0.137570 0.358179 -0.235933 -0.229902 0.387819 0.471549 -0.043706 -0.535056 0.318692 0.555292 0.730169 -0.893618 -0.160819 0.153564 0.125702 0.341249 -0.628702 0.771586 -0.021617 -0.481134 
) -0.036917 0.538208 0.190619 0.493557 -0.281757 0.833443 0.076122 0.020660 -0.199499 0.084478 -0.251645 0.281268 -0.529895 0.023446 0.259634 0.180316 -0.396786 -0.362823 0.361839 0.275391 0.003032 0.112379 0.070285 -0.226843 0.604516 0.055460 0.110795 0.138175 -0.287928 0.571797 -0.360000 0.340618 0.084436 -0.023775 0.581273 -0.089356 -0.337452 0.181906 0.474206 -0.174341 -0.226231 -0.014845 0.204319 0.659984 -0.114431 0.203221 -0.254442 0.203252 0.043938 -0.335810 0.072171 0.093756 0.636313 0.436683 -0.350893 0.011636 0.345028 -0.168034 -0.301273 0.087786 -0.025067 0.227077 -0.457371 -0.158856 0.242740 0.550046 -0.136887 0.204387 0.060276 -0.160669 -0.199087 0.316321 -0.241315 -0.158425 -0.383753 -0.846048 0.103592 0.344961 0.352595 -0.167832 0.119961 0.151306 -0.112706 -0.066607 0.422941 -0.640780 0.342601 -0.367510 0.546847 0.554884 0.130245 -0.409129 0.350430 0.175120 -0.280160 0.040729 -0.087082 0.252522 -0.656344 0.009512 0.563418 0.012282 -0.347288 -0.432071 -0.683403 0.040648 -0.428988 -0.562418 -0.060236 -0.197276 -0.066883 -0.318747 -0.272312 -0.217730 -0.072374 -0.053178 0.446643 0.379594 -0.029751 -0.040758 0.102283 0.387971 -0.077315 0.991318 -0.315028 0.164057 -0.315122 -0.353062 0.163133 -0.032996 -0.170905 -0.171942 0.106659 0.055946 0.290323 -0.009825 -0.144279 -0.205165 -0.044354 0.298858 0.330292 -0.183472 -0.198549 -0.233276 0.258690 0.494035 0.332294 -0.145687 0.136295 -0.469403 0.072923 0.297792 -0.373384 0.191561 0.138703 -0.284589 0.617927 -0.399872 -0.274284 0.097589 0.062322 -0.104172 0.089524 0.093506 -0.334159 -0.078817 -0.067806 0.153667 0.437568 0.327989 0.242723 0.204771 -0.098259 -0.396985 -0.519013 -0.280556 0.314678 -0.102027 -0.080040 0.224295 -0.052403 -0.216771 -0.010359 -0.224132 0.127719 0.144334 0.025554 -0.026136 0.439739 -0.071690 -0.027830 -0.306786 -0.268542 -0.275246 0.260493 -0.392825 -0.539740 0.462324 -0.387073 -0.094062 0.046320 -0.012962 0.220199 0.297858 -0.375014 -0.323481 0.137149 -0.320618 -0.199189 0.177844 0.223064 -0.552842 0.237246 0.250556 0.016861 0.289452 0.154108 0.054027 0.285685 -0.632485 0.004711 0.129592 0.083828 0.270786 -0.072706 0.364618 0.044368 0.459487 -0.156244 -0.167154 0.169229 -0.072702 0.528514 -0.562070 0.030875 -0.100914 0.112498 0.132100 0.783690 -0.178761 0.128710 0.001551 0.306667 -0.436697 0.457067 -0.078944 -0.207569 0.300456 -0.343123 0.298420 0.319578 -0.144269 -0.041493 0.083583 -0.067846 -0.426354 0.312141 -0.103341 0.411947 0.225122 0.379525 0.666327 -0.281952 -0.326578 0.481561 0.227963 0.184686 -0.178914 0.405698 0.047195 0.240907 0.317305 0.055571 -0.132815 0.181993 -0.335515 -0.150925 -0.299639 -0.382646 -0.236847 -0.148355 -0.093881 0.072502 -0.008183 -0.238114 0.317615 -0.115669 -0.304376 0.045109 -0.092404 0.357551 -0.614042 -0.038662 -0.385286 0.068516 0.309165 -0.053565 0.572398 0.000928 0.143183 
; -0.160616 0.175229 0.043800 -0.193705 -0.334877 0.278020 0.451238 0.464266 0.283688 0.282090 -0.178054 -0.023916 -0.323611 -0.078693 -0.212474 -0.178458 0.294761 -0.369868 -0.068961 0.058054 0.163962 0.142898 0.690515 -0.662803 -0.426028 -0.039883 -0.134922 -0.330507 0.032249 -0.185325 -0.406195 0.348137 -0.133655 -0.234923 -0.133363 -0.338387 0.147429 -0.317232 -0.039578 -0.309589 0.065619 -0.056732 -0.043314 -0.135540 0.266597 -0.361860 0.276925 0.046984 -0.577772 0.076213 -0.140739 -0.604349 0.221386 -0.474034 0.101453 -0.117616 0.016210 -0.225379 -0.079968 0.042272 -0.248963 0.126679 -0.262118 -0.681579 -0.079253 0.464654 -0.198815 -0.063430 0.256036 -0.737960 0.227813 -0.080237 -0.304524 0.014801 0.391281 0.137220 0.643792 -0.127960 0.131924 -0.114008 0.103357 0.106269 0.140433 0.467513 0.638839 -0.483516 0.330514 0.092475 -0.234791 0.746151 -0.203500 -0.146710 0.380937 0.075282 -0.036061 -0.495959 -0.200476 0.162534 -0.215944 -0.000024 0.158121 -0.406459 -0.047251 -0.906621 0.524235 0.338449 -0.583008 0.229710 0.392501 -0.099393 -0.326385 -0.177175 -0.361215 -0.039752 -0.313242 -0.629132 0.015618 0.973669 -0.181559 -0.221068 0.372071 0.034439 0.209695 0.125506 -0.314719 -0.035971 0.043075 0.070343 -0.899445 -0.103800 0.200432 -0.142165 -0.001049 0.068751 -0.000774 0.347397 0.040029 -0.006476 -0.189526 -0.283450 0.132081 -0.052755 0.254629 -0.061631 0.070651 0.708259 -0.346977 0.060146 0.402525 0.622715 0.359449 -0.102714 0.102992 0.217807 0.062935 0.009173 -0.480346 -0.448297 -0.258641 0.254277 -0.311066 -0.160536 -0.320915 -0.160340 0.122793 0.302685 0.136935 0.234895 0.417406 0.201670 0.267072 -0.118165 0.465162 -0.239852 0.300657 0.189416 -0.649342 -0.198091 -0.108307 -0.030728 0.237600 -0.101427 0.122499 -0.250349 0.073047 -0.073839 -0.412648 0.177908 0.200622 -0.056920 -0.082042 0.108514 0.018794 0.133238 -0.048402 -0.384319 -0.141332 0.247211 0.041823 0.271699 -0.121310 -0.727520 0.130780 0.511082 0.174082 0.256079 0.110817 0.048932 -0.678327 0.040468 -0.552444 0.232073 0.538595 -0.085072 0.215925 0.304281 -0.010838 0.273457 -0.323811 0.151673 0.105651 -0.651983 -0.101798 0.062021 -0.075799 -0.054268 -0.095266 0.420958 0.242828 -0.610630 -0.074084 0.465492 0.301127 0.232709 0.389828 0.000824 0.270350 -0.123302 -0.263133 -0.403181 -0.274480 0.190699 -0.075446 -0.218644 0.024723 0.298833 -0.011652 0.384747 0.211321 -0.161946 -0.201065 -0.390376 0.180213 -0.430743 -0.479019 -0.041251 0.280194 -0.188890 0.170595 -0.090555 0.049468 -0.150617 -0.105273 -0.844446 0.491571 0.320472 0.077807 -0.138336 -0.171152 -0.216733 0.295721 -0.594491 -0.476737 0.198575 -0.277605 -0.427815 -0.207008 0.203030 0.237483 -0.334127 -0.237867 -0.173836 -0.537886 -0.496982 0.139667 -0.407198 0.099819 -0.604186 0.061674 0.433758 0.578177 0.162886 0.559670 0.037499 -0.165277 -0.313662 -0.263600 0.917237 0.348263 0.627747 
= -0.044679 -0.371315 0.344511 0.731485 0.038703 0.634514 -0.690381 -0.666032 0.417127 0.232482 0.063859 -0.692573 0.469291 1.409576 0.793449 -0.212070 0.241101 -0.172242 0.470262 -0.115496 -0.281247 -0.494487 -0.008625 0.270578 0.275721 0.393740 -0.715322 -0.152684 0.639460 -0.320108 -0.131724 -0.002761 0.010609 0.053148 -0.076643 0.268194 -0.667935 0.177811 0.583722 0.153824 0.181139 0.285897 0.311577 -0.106780 0.075213 0.623301 -0.374412 -0.064775 0.254291 -0.265700 0.513225 -0.210427 1.072642 0.888690 -0.513033 -0.597652 0.239181 -0.002255 0.281933 -0.403322 0.511349 -0.385630 0.172372 -0.255327 0.832935 -0.040954 -0.461929 -0.134539 0.225284 0.092818 -0.728896 0.474283 -0.500138 -0.102781 0.297303 -0.387797 -0.175796 -0.233586 -0.317888 0.869431 0.474247 0.607019 0.266255 -0.130954 -0.694516 0.183566 0.225331 -0.743804 -0.178907 0.626177 -0.585749 0.338147 0.128910 -0.098250 0.109373 -0.593404 0.354152 0.298545 0.227922 -0.056011 0.265138 0.262979 0.119933 0.003618 -0.114907 0.550403 -0.659545 0.380913 -0.350302 -0.517184 -0.301174 0.087616 -0.303422 0.735039 0.047162 -0.289389 -0.161270 -0.079494 -0.583691 0.572740 -0.797692 -0.528001 0.456987 0.001573 -0.173831 -0.132182 0.101568 0.269388 -0.788623 -0.076932 0.384130 0.127259 0.146634 0.284183 0.440828 0.419086 -1.074157 -0.901048 -0.435771 -0.282083 0.813913 -0.968006 -0.184809 -0.392066 0.478830 -0.600243 -0.374686 -0.301857 -0.046158 -0.586262 -0.462179 -0.114721 0.187188 -0.362642 0.717365 -0.036599 0.552312 -0.078197 -0.218407 0.284240 -0.111791 -0.176565 0.167538 -0.398776 -0.035882 0.074830 -0.225825 0.557968 -0.086978 0.048451 0.226077 0.272073 0.018368 -0.084056 -0.080647 0.088313 0.809579 0.251486 -0.184779 -0.211275 -0.208859 -0.391252 0.062420 0.277921 -0.102101 0.058423 -0.078361 0.743678 -0.007150 0.029297 -0.187744 -0.688899 0.309484 -0.161799 0.490958 -0.909214 0.181257 0.625012 -0.538802 0.226220 0.523372 0.127766 -0.144486 0.097249 -0.127127 0.056174 -0.612852 -0.018905 -0.319945 -0.289901 -0.131771 -0.421162 -0.219295 0.577733 -0.024181 0.304351 -0.253448 -0.386925 0.428162 -0.625241 0.358197 0.436052 -0.383579 -0.118215 -0.009064 0.672233 0.033154 -0.407909 0.202029 0.309682 -0.156754 0.416638 -0.104706 1.018674 -0.417163 -0.352800 0.032037 0.309478 -0.950800 -0.100202 -0.390501 0.146166 -0.324647 0.322031 -0.154103 -0.312396 -0.690857 -0.082760 0.215305 -0.213669 -0.232421 0.065144 -0.055672 -0.188402 -0.627926 -0.323229 0.522504 0.306055 0.648781 0.212943 0.337972 0.024961 0.292147 0.158795 -0.636978 0.324448 0.346193 -0.869900 0.087759 -0.527611 0.736981 0.027514 0.523062 0.255239 -0.042576 0.006018 -0.150934 0.984158 0.470842 -0.467584 0.497303 -0.251166 -0.386253 -0.067358 0.169719 0.900112 -0.081530 -0.533130 -0.064838 0.207524 0.572863 -0.492871 -0.483564 0.790505 -0.333124 0.666841 -0.275185 0.852100 -0.065296 -0.923998 
, 0.461567 0.144337 -0.174691 -0.073260 0.158883 0.321909 0.190031 0.372442 0.217593 0.410905 0.025413 0.389340 0.150733 0.326787 0.109025 0.162933 0.106309 0.105604 -0.179188 0.574122 -0.262195 -0.499391 -0.048478 -0.351990 0.487330 0.084740 -0.041753 -0.119090 0.288571 0.256951 0.735432 0.488870 0.158529 0.686870 0.424805 0.076409 -0.073453 0.263045 0.558047 -0.239253 0.140576 -0.522604 0.155468 -0.192610 0.054956 -0.395587 -0.255143 -0.174117 -0.375325 0.658994 0.618076 -0.059845 0.364574 -0.847144 0.114341 -0.108174 -0.607028 -0.003538 -0.511724 0.343690 0.301016 0.189719 -0.294872 0.071634 -0.398230 0.354499 -0.226271 -0.048113 -0.024594 -0.476820 -0.299997 -0.177062 0.045922 -0.662546 0.333506 0.280128 0.336924 0.323173 0.312658 0.099430 0.320886 0.169207 0.406767 -0.474983 0.391599 -0.204593 -0.622158 0.356898 0.267876 0.329127 -0.329954 -0.636096 0.462880 0.193470 0.164474 -0.234134 -0.274183 -0.231564 0.108294 -0.148469 -0.516782 0.291193 0.154761 -0.438805 0.642781 0.542748 -0.084828 0.160402 -0.545374 0.088300 -0.024616 -0.301207 0.276362 -0.015259 -0.343583 -0.207923 0.251245 0.030492 -0.166046 0.165643 -0.378814 -0.094463 -0.285350 -0.172246 0.080769 0.469780 0.102277 0.610237 -0.565674 -0.232394 0.331190 0.431600 -0.254645 -0.034418 0.060913 0.142530 -0.400831 -0.577678 -0.079517 -0.277301 0.234459 -0.181442 -0.186988 0.031366 0.051603 0.847972 -0.162848 0.208591 0.043445 -0.397462 -0.542672 -0.022540 0.121362 0.324107 -0.176199 -0.165469 0.204732 0.474981 -0.074549 0.656137 0.133642 -0.386192 0.627798 0.614889 -0.135569 0.235705 0.247896 -0.023252 -0.250002 -0.036946 0.115148 -0.397988 0.141170 -0.213482 -0.044589 -0.608234 0.080874 0.277186 0.122487 0.018090 -0.123236 -0.295923 -0.145173 0.313776 0.146065 -0.193967 0.119447 -0.433442 -0.313399 -0.117184 0.285472 -0.121168 -0.242318 0.099397 -0.168309 0.021667 -0.066962 -0.169408 0.018969 -0.246407 -0.449637 0.144829 0.044403 0.585286 -0.325965 0.043477 -0.044083 0.218752 0.346513 0.613496 -0.236756 -0.058588 0.205649 0.226686 -0.060196 0.365552 -0.247355 -0.039976 -0.189967 -0.054142 -0.493340 0.023794 -0.234852 -0.130206 -0.199441 0.292842 0.539917 -0.023214 0.420436 -0.113681 -0.231177 0.969804 -0.787280 -0.152718 -0.123820 0.322860 0.068740 -0.163232 -0.127458 -0.160069 0.283759 0.013577 0.165668 -0.022215 -0.425309 -0.138794 -0.209942 0.438050 0.141389 0.202034 0.489784 -0.224122 0.282731 0.307256 0.706383 -0.335255 0.040091 0.659898 0.567537 0.064741 1.079831 0.804856 -0.238099 0.093609 -0.074732 0.021154 -0.015146 -0.834932 -0.086403 0.173409 0.469129 -0.293371 -0.590293 0.107729 -0.110156 -0.687777 -0.072411 0.212325 0.146573 -0.456474 -0.080828 0.046302 -0.168758 -0.124627 -0.129444 -0.004141 0.118366 0.231172 0.096824 0.536548 0.024658 -0.197785 0.047689 0.262671 0.254629 -0.174734 -0.084438 0.277040 -0.149315 -0.386946 
. -0.705483 -0.402630 -0.349412 -0.044899 0.156661 0.545019 0.605977 0.232600 -0.239263 0.307869 -0.179525 0.089678 0.623084 -0.063337 -0.617463 0.653484 0.093334 0.561158 -0.179849 0.231282 0.628835 0.338741 0.633340 -0.695121 -0.378314 -0.140176 0.424317 0.187777 0.175155 -0.596414 -0.251704 -0.003494 -0.205598 0.126796 0.443604 -0.194712 0.077331 -0.816797 -0.241126 -0.058298 0.030863 0.902767 0.422769 0.132821 0.499330 0.029718 1.066010 0.161047 -0.943391 0.060987 -0.687157 0.026914 -0.532835 0.175278 0.054866 0.067577 -0.024360 -0.042161 0.402573 -0.235082 -0.178429 0.143133 -0.410616 -0.008837 -0.386230 0.342783 0.153763 -0.035613 -0.442008 -0.075340 -0.256420 0.258098 -0.346685 -0.267564 0.487544 -0.003830 0.288828 0.708741 0.444812 -0.160735 -0.397151 -0.220570 -0.498016 -0.352128 0.177692 -0.006876 -0.050997 0.813051 0.305949 -0.657937 -0.092351 -0.134595 -0.460341 -0.164468 -0.094026 0.265862 0.050254 -0.193622 -0.731106 0.061464 -0.127991 -0.242489 -0.565339 -0.300533 0.152045 0.306652 -0.124699 -0.250841 -0.193375 0.305781 -0.054378 0.176948 -0.645725 -0.327417 -0.099131 -0.019505 0.354021 0.765195 -0.022740 -0.136643 -0.415029 0.299232 0.418078 -0.207364 -0.658435 -0.420938 -0.395716 -0.066695 0.224661 0.178071 0.236179 -0.099866 -0.549401 0.263321 -0.663015 0.701995 0.005035 0.519362 -0.126836 -0.400406 -0.367219 -0.242076 -0.760923 -0.310176 -0.059356 0.181274 0.123109 0.576230 0.415282 0.249709 0.248860 -0.516476 0.778930 0.373090 -0.188940 -1.074651 -0.274059 0.154234 0.445519 -0.262831 -0.345401 -0.365318 -0.027410 -0.604179 0.178819 -0.185242 -0.437741 -0.360724 -0.329438 -0.126359 0.161612 -0.440366 -0.201964 -0.094184 -0.148411 0.070476 0.067858 0.207958 -0.040983 0.450979 -0.376554 -0.000008 0.195332 0.224469 0.322382 -0.146131 0.048909 0.066989 -0.112927 0.156774 -0.478971 0.274921 -0.011135 -0.123682 -0.803919 -0.418893 0.209579 0.397259 -0.590759 -0.108078 -0.191318 0.331643 0.255311 -0.457237 -0.226079 -0.394717 0.544106 0.479754 0.664055 0.304991 -0.085925 -0.381817 0.085063 -0.322115 -0.339367 -0.329293 -0.550021 0.056196 0.109796 0.314045 0.063614 -0.050208 -0.057617 0.542852 0.500715 -0.221767 0.751665 -0.028611 -0.209059 -0.177029 -0.166172 0.500931 0.213816 0.894457 -0.716392 0.529579 0.043909 -0.779694 0.438893 -0.921829 0.160319 0.277325 0.320043 -0.584416 -0.065665 -0.069506 0.167008 0.316123 0.334180 -0.693028 -0.202303 0.416998 0.482749 -0.550467 -0.236838 -0.212784 0.194694 0.485755 -0.589010 -0.299083 0.232485 -0.386025 0.359493 -0.344709 -0.187132 0.443385 -0.358515 -0.359623 -0.044514 0.581649 -0.072247 0.533730 -0.333578 0.288259 0.100433 -0.264462 0.274536 -0.153605 -0.601981 -1.121035 -0.011117 -0.679506 -0.565656 0.055046 0.325430 -0.374183 0.305045 -0.161325 0.298438 0.269027 0.850196 0.553054 0.378785 0.056168 0.016009 0.179348 -0.340662 1.152856 0.265241 0.183433 
uint256 0.453881 -0.579525 -0.226940 -0.234997 0.386077 -0.268017 -0.179768 0.861745 -0.371921 0.298426 0.271279 0.073899 -0.588007 0.102103 -0.068077 -0.075227 0.203751 -0.348848 0.254841 0.064383 0.701702 0.266519 -0.265267 0.448573 -0.564557 0.292529 -0.742018 -0.497436 -0.633268 -0.001595 0.078129 -0.227568 0.271225 0.486869 0.311739 0.231654 0.030709 0.456999 0.419295 0.213824 -0.165099 0.267796 0.045655 -0.237259 0.192070 -0.271369 0.254250 -0.434631 0.180740 0.163490 0.096969 0.003814 0.228253 -0.178163 -0.681957 0.177621 -0.171887 0.234622 0.285462 -0.006115 -0.308441 0.351517 -0.356053 -0.430359 0.295271 0.174344 0.064082 -0.090809 0.390652 -0.015444 0.019255 0.319487 0.538583 0.322241 -0.424801 -0.264390 0.330379 -0.063483 0.168177 -0.257646 0.207894 0.086873 -0.047746 0.549403 0.513013 -0.068060 -0.271763 0.103704 -0.195639 -0.581401 0.049686 0.550703 0.593644 0.009022 -0.048406 0.595844 0.008475 -0.051926 0.199958 -0.126927 0.344565 0.562642 -0.329525 0.201967 -0.552858 0.124831 0.086763 -0.428606 0.105132 0.298445 0.443399 0.561228 -0.114720 0.127953 -0.813299 -0.103888 -0.127901 -0.086923 0.218688 -0.017185 0.369778 -0.134625 0.273620 0.517150 -0.082021 -0.219212 0.190474 -0.492199 0.681638 -0.099688 -0.265616 -0.363869 -0.110146 0.254855 -0.082247 -0.543153 -0.041126 0.300927 -0.108950 0.604519 -0.348041 0.093276 0.358206 -0.971409 1.078906 -0.430810 0.609523 -0.564607 -0.128015 0.300851 -0.455590 -0.056980 -0.683516 0.673712 0.070433 -0.632156 -0.339940 -0.236601 0.000996 0.021871 0.261840 0.012196 0.384283 0.279650 -0.402459 0.062636 0.573168 0.070789 0.625405 -0.205608 -0.448924 -0.124615 0.125116 -0.627733 -0.053005 0.120602 -0.232314 -0.088506 -0.484005 0.026358 -1.005785 -0.838252 -0.315846 -0.088181 -0.785930 -0.228934 0.451107 -0.533166 0.095546 -0.237435 0.230950 0.788750 0.012674 0.039520 -0.078056 -0.428817 -0.217093 -0.713537 -0.104544 -0.424962 0.552138 0.558125 0.055541 -0.966423 -0.161458 -0.343500 -0.583759 -0.023271 -0.140734 0.348255 -0.009263 0.034921 0.000939 0.110732 0.318426 0.263394 0.058323 -0.694672 -0.360986 0.074758 -0.581087 0.018200 -0.206922 -0.088245 -0.471954 -0.840667 0.734976 -0.164003 0.670351 0.463841 0.075051 0.519764 -0.077195 -0.238585 -1.058610 0.191107 0.139777 -0.059223 0.280746 -0.084425 -0.118393 -0.478199 -0.427963 0.209047 0.280827 -0.361987 0.515508 0.455737 -0.167216 0.521155 0.160679 -0.039114 -0.026481 -0.270155 0.740870 -0.475682 0.525012 0.307687 0.406204 0.373488 0.021140 -0.139173 0.170983 -0.360211 0.206304 0.000807 -0.046729 0.238761 -0.329170 0.582818 0.098415 -0.456965 0.876318 0.421801 -0.366330 -0.651998 0.422396 -0.311344 -0.667982 0.507203 -0.197908 0.522457 0.012013 0.454391 0.090918 0.162345 0.246629 0.275351 -0.125157 0.406361 -0.305196 0.029812 -0.175214 -0.269357 0.684967 -0.386999 -0.063603 -0.489836 -0.406455 0.243056 
{ -0.427129 -1.783635 -0.253562 -0.083935 -0.633990 -0.208379 1.083283 0.789877 -0.016271 0.720163 0.084299 0.449024 -0.486082 -0.232109 0.331315 0.152450 -0.428229 0.566539 0.539380 -0.068110 0.409859 0.478980 -0.301100 -0.900600 0.241238 -0.192723 0.221430 0.259927 0.619231 0.464279 -0.244001 0.557375 0.794230 0.346903 0.113005 0.358225 0.565871 -0.511479 0.231835 0.250400 -0.026831 -0.152998 0.910128 -0.013165 -0.046061 -0.653531 0.355695 -0.334560 -0.638087 -0.234091 -0.221405 0.043632 -0.165116 -0.279839 -0.143260 -0.437974 0.328087 0.159500 -0.293441 -0.302592 -0.752787 -0.470348 -0.144927 -0.345226 0.315482 0.334348 -0.244207 0.027468 -0.382573 -0.289318 -0.210695 -0.218850 0.057963 -0.096874 -0.142222 0.033675 -0.115330 0.362925 0.772958 -0.405038 0.373536 -0.274576 0.061079 0.232000 -0.313204 -0.042206 -0.079247 0.540171 -0.137879 -0.019397 -0.498293 -0.261801 0.080582 0.534453 0.198609 -0.825444 0.375438 0.328363 -0.673809 0.217871 -0.053041 0.116124 -0.411459 -0.389908 -0.494828 -0.100059 0.458273 0.501094 -0.298230 -0.549706 -0.639082 -0.462927 0.246302 -0.358165 0.533682 0.290090 0.422040 -0.431554 -0.925572 0.385360 -0.349850 -0.260576 -0.810813 0.260788 -0.272497 0.149953 -0.870734 0.519049 -0.479366 -0.002386 -0.074425 0.280356 0.684123 -0.453234 0.003154 -0.210693 -0.599555 0.511134 0.125377 -0.163152 -0.190165 -0.332876 -0.168594 -0.567415 -0.302660 1.094588 -0.185894 0.403539 -0.032073 -0.542640 0.538610 0.032626 0.165337 0.413547 0.090202 -0.199039 0.219391 -0.650367 -0.492594 -0.312210 0.632355 -0.438779 -0.519696 0.166243 -0.337600 -0.751269 -0.437791 -0.017075 -0.150145 0.503985 0.476006 0.038779 0.311876 -0.403145 -0.469371 -0.171736 -0.509431 -0.024154 -0.012693 0.302181 -0.053051 -0.823061 0.282084 -0.174856 -0.099566 -0.501504 0.148508 -0.294766 0.235245 0.847238 -0.470072 0.316996 0.173613 -0.198764 -0.070645 -0.556135 0.421826 1.066113 -0.134778 -0.028467 0.030035 0.279831 0.362859 -0.152087 -0.274181 -0.623276 0.183767 0.095536 0.291512 0.165818 -0.212040 -0.340213 0.213208 -0.234404 0.162358 0.653561 0.096479 0.286471 0.267066 0.416088 0.430912 -0.050264 -0.299329 -0.456214 0.197399 -0.297984 -0.194795 0.298559 0.444690 -0.360708 -0.153214 1.058915 0.356873 0.570547 -0.428328 0.176297 0.367487 -0.428887 0.071089 -0.534427 0.265406 0.412144 0.187043 -0.317354 0.158423 0.376130 0.042492 0.414145 0.178444 -0.818118 0.079607 -0.414775 0.702768 -0.520567 0.327302 -0.138196 0.048845 0.030390 -0.039616 0.140959 -0.085841 0.411707 -0.630697 -0.844017 0.282466 0.922530 0.227761 -0.918601 -0.020708 -0.500368 0.072494 0.147490 -0.481693 0.869280 -0.414206 -0.631016 0.118150 -0.577527 0.201968 -0.353317 -0.226262 -0.102076 0.398816 0.391753 -0.117796 0.632237 0.243468 -0.519050 -0.304731 0.760653 -0.119539 -0.189037 0.275048 0.124785 0.666559 -0.136350 -0.329616 0.833373 0.280165 -0.355312 
} -0.022328 -0.669379 -0.269604 -0.037557 0.082586 0.438480 -0.285830 -0.370669 -0.104339 0.119961 -0.024751 0.362527 -0.188284 -0.357465 0.111296 -0.114491 -0.457097 0.524110 0.180474 0.365573 -0.004779 0.210752 -0.512022 0.226127 -0.144947 0.130594 0.112987 0.099897 0.867977 0.219251 0.130232 -0.137950 0.307162 0.154020 0.147812 -0.070975 0.054614 0.251964 0.522400 0.119534 -0.212610 0.046640 0.374953 0.209550 -0.038242 -0.165454 -0.058928 -0.395689 -0.916502 0.544538 -0.156414 -0.077082 0.171423 -0.746180 -0.056617 -0.228432 0.107166 -0.310801 -0.256298 -0.516297 -0.249801 0.008949 -0.484687 0.425561 -0.523587 -0.307434 -0.122665 0.142027 -0.499739 0.222721 -0.024337 0.116434 -0.216743 0.002148 -0.512528 -0.485260 0.269355 0.618378 0.354926 -0.105253 0.496643 0.439932 0.352429 -0.199435 -0.403428 -0.040702 -0.346219 0.364502 -0.378439 -0.278301 -0.116313 -0.452558 0.071595 -0.274610 0.909627 -0.006871 0.478467 0.498737 -0.218037 -0.036524 -0.106969 0.606516 0.364706 -0.569482 0.968716 0.398464 -0.294586 -0.307118 -0.671815 0.319464 0.973042 0.695794 0.546267 0.211951 0.246982 0.961188 0.594139 -0.504189 -0.237045 -0.201098 -0.141461 0.665389 0.200328 -0.170256 -0.075674 -0.484731 -0.092914 0.502519 0.343320 -0.489903 0.402142 -0.095175 -0.423712 -0.140147 -0.198456 0.469420 -0.236573 -0.375107 -0.205135 -0.368516 0.350248 -0.099611 -0.446693 -0.150044 -0.421586 -0.125324 -0.169430 0.557912 0.488111 -0.696935 -0.065822 0.234728 -0.287082 0.363459 -0.082145 0.638026 0.677039 -0.185945 -0.084489 0.023600 0.696272 -0.222282 -0.352827 0.541440 0.139844 -0.554798 -0.301913 -0.094919 0.187004 0.855527 -0.210661 -0.427914 -0.183690 -0.187566 -0.034042 -0.320797 0.030624 -0.121100 0.063769 -0.240832 -0.415620 -0.529646 0.385196 -0.461353 -0.130297 -0.160296 0.139222 0.277009 -0.342316 0.207046 -1.024032 -0.349856 -0.356135 0.455470 -0.120149 -0.443501 0.909709 0.423721 -0.025819 0.282593 0.155333 0.228986 0.482280 -0.044332 0.369123 -0.093710 0.225006 0.076109 0.144582 0.070808 -0.244302 0.146649 -0.383143 0.743308 -0.264715 0.838548 -0.106434 0.630569 -0.000221 0.203658 0.276802 -0.364429 0.100586 0.165649 0.165034 -0.167515 0.999429 0.025805 -0.010630 -0.020443 -0.161369 0.601519 -0.208259 -0.179663 -0.214677 0.249816 0.193663 -0.335491 -0.243301 -0.108694 -0.473668 -0.333210 0.278903 -0.309275 0.053426 -0.329682 0.155678 0.083498 0.548582 -0.885459 0.286221 -0.460707 0.020508 0.233522 0.116496 -0.418515 -0.152076 -0.323988 0.462655 -0.094590 0.302791 0.527179 -0.250555 0.183119 0.361826 0.270480 0.199100 -0.677534 -0.447796 -0.658586 0.566031 -0.171226 -0.415158 0.700128 0.140643 -0.849272 -0.295985 -0.153208 0.346470 -0.000287 -0.227800 -0.079123 0.095468 -0.134895 -0.342538 -0.457468 -0.221489 0.069867 0.099449 0.507348 -0.325123 -0.082697 -0.138356 -0.114593 0.650496 0.251841 -0.015093 0.468820 -0.732491 -0.064896 
address 0.801141 0.017393 -0.103488 -0.074058 0.512799 -0.228429 0.345887 0.557213 0.468978 0.165154 0.395656 0.796914 -0.386810 -0.723124 0.516941 0.260773 -0.662790 -0.709966 0.434060 -0.214064 -0.573266 -0.264352 -0.109639 -0.093673 -0.270119 0.045693 0.891220 -0.213575 -0.358642 0.088283 -0.255842 -0.564121 0.421458 0.327805 -0.182286 0.245166 0.312739 -0.063079 0.028512 0.025711 0.067250 0.078447 0.718774 0.601808 -0.712686 0.160123 0.186059 -0.240600 -0.103734 -0.269251 -0.464331 -0.012476 -0.090114 -0.482273 -0.567161 0.689106 -0.160101 -0.191084 -0.369812 0.540788 -0.352781 0.407941 0.084749 -0.322642 -0.209740 0.108511 -0.148620 -0.364238 0.952238 0.078473 0.333799 0.184756 0.134671 -0.322021 -0.019439 -0.164514 0.181263 -0.529116 -0.482075 -0.348454 -0.219471 0.642787 -0.075114 0.747615 0.589667 0.136929 0.291472 -0.141159 0.335386 -0.193699 0.447711 -0.376285 0.489280 0.140765 0.111380 0.176239 -0.180534 0.078129 0.590890 -0.201993 0.351538 0.172983 0.556677 -0.288538 -0.404317 0.190650 0.535487 -0.226226 -0.103632 -0.449682 -0.316349 -1.128237 0.778394 0.244916 -0.750552 -1.082482 0.993184 -0.483709 -0.378138 -0.137403 0.249888 0.568178 -0.192300 -0.455034 0.419353 -0.327749 -0.634571 -0.255738 -0.387180 0.091522 0.317319 -0.600949 0.506350 -0.169982 0.316519 -0.656924 0.068856 -0.575350 0.154491 0.330250 -0.483110 -0.106671 0.450366 0.341618 0.334978 0.900679 0.469297 0.071224 0.111644 -0.090239 -0.152874 0.535613 0.146212 0.085356 -0.828703 -0.447493 0.232515 -0.017321 -0.379241 0.241615 0.724299 0.118620 0.228482 -0.065096 0.075922 -0.060113 0.604324 -0.425416 0.287326 0.792222 0.125050 -0.269069 0.909391 -0.032817 0.109270 -0.259679 0.003068 0.265984 0.248357 -0.424417 -0.031409 -0.250054 -0.554048 -0.426813 0.134302 -0.014973 0.427773 -0.560445 0.339862 -0.062097 -0.214062 -0.209868 0.126563 0.690626 -0.279996 0.149294 -0.498581 0.281732 0.290006 0.005702 0.342750 0.118111 0.267133 0.332206 -0.598642 -0.574578 -0.534636 -0.410735 -0.355812 0.834043 -0.328509 -0.121602 -0.390622 0.855877 -0.213733 1.277859 0.420379 0.253376 -0.032263 0.169178 0.326644 -0.785737 0.213827 0.697289 -0.772007 -0.127452 -0.908133 0.268277 0.482114 -0.143293 -0.206657 -0.026466 0.350217 -0.264577 0.324763 -0.016557 0.272371 -0.283230 0.293982 0.350623 0.741655 -0.225666 0.289996 -0.506135 0.709358 -0.104269 0.231481 0.510295 -0.690792 0.045200 -0.583882 -1.102882 0.062985 0.199735 0.132339 -0.190824 -0.128122 -0.750923 0.660253 0.029822 0.030740 0.272925 -0.166643 -0.499168 0.310567 -0.649499 0.349700 0.769239 -0.203946 0.384995 -0.444298 -1.163127 0.396307 0.332057 -0.575252 -0.285977 -0.203889 -0.466869 -0.191477 -0.273395 0.041266 0.336340 0.697255 -0.128310 -0.463615 0.160756 -0.028332 -0.289695 -0.450002 0.218222 0.110240 -0.632034 0.329330 0.088202 0.419016 0.416282 -0.646910 -0.034783 0.211087 0.407836 
public 0.700726 -0.369981 0.469412 0.763644 -0.668238 0.324555 -0.020135 0.537271 0.527345 0.056289 0.155305 0.313324 0.321765 0.553461 0.464071 0.263534 -0.077830 -1.031786 -0.200853 -0.883717 -0.030007 0.211245 -0.678360 -0.245545 0.901857 -0.127897 0.310740 -0.341039 0.289226 -0.186830 0.155669 0.010556 0.191636 0.571065 -0.139875 -0.086378 -0.434325 0.263618 0.570399 -0.460219 -0.366686 -0.455147 0.383822 0.058350 -0.023261 -0.133416 0.388409 -0.809685 0.330630 0.393629 -0.568404 -0.395514 0.260337 -0.186462 -1.331497 -0.001174 -0.353381 0.157728 0.557456 0.237047 0.228793 0.234251 -0.266848 -0.132286 0.059655 0.520005 -0.266242 0.139514 -0.126958 -0.653594 0.757195 -0.221488 -0.755814 -0.349306 0.712059 0.437176 -0.364461 -0.411651 0.147149 -0.179909 0.125599 -0.502938 -0.947552 -0.206393 -0.116124 0.446851 0.417968 -0.035295 -0.127625 0.386762 -0.495222 0.056211 -0.168567 0.858101 0.529185 -0.181618 0.190943 0.521384 0.451650 0.035187 0.432493 -0.036986 0.502208 0.004380 0.740822 0.114874 -0.839855 0.608239 -0.371647 -0.059174 -0.288063 -0.006679 -0.226931 0.166968 0.299662 -0.047827 -0.552495 -0.303863 -0.820643 0.425413 0.324855 -0.454224 -0.347332 0.219126 0.191715 -0.598847 -0.041158 -0.429023 -0.961033 0.248873 -0.409227 0.548125 -0.257291 -0.097911 0.371094 -0.402006 -0.747681 -0.118423 0.102137 0.042507 0.072103 -0.262532 0.526986 -0.179339 -0.363598 0.414370 -0.717474 -0.332791 -0.189143 -0.057606 -0.413706 -0.155136 0.005480 0.200281 0.720063 -0.053976 0.334403 -0.959131 -0.390453 0.009061 0.216298 0.019362 0.158356 -0.424324 -0.130644 0.463598 -0.256145 0.272762 0.167197 0.002261 0.935888 0.453208 0.337020 -0.174735 -0.705223 0.259292 0.295316 0.104462 0.491407 0.779174 -0.357695 -0.355642 -0.385386 0.240079 -0.319844 -0.175160 0.303181 -0.268297 0.533347 0.261689 -0.203035 -0.331255 -0.008205 0.420201 0.037253 -0.320996 -0.017706 0.103232 -0.459961 -0.004630 -0.062024 -0.405992 0.158753 0.714799 0.359649 -0.176552 -0.572262 0.009884 -0.572515 -0.046572 0.026828 -0.322553 0.625098 0.291263 0.098123 -0.100045 -0.036458 -0.368799 -0.356379 -0.417165 0.225622 0.704233 -0.462410 -0.096124 -0.468737 0.136138 -0.213256 0.908541 0.594022 -0.891864 -0.397965 -0.402019 0.568876 0.007846 0.231224 -0.031959 -0.036129 0.444941 0.343286 -0.289771 0.256124 0.228844 0.270979 0.418932 0.371006 -0.209886 -0.032514 0.027155 -0.479301 -0.418710 0.007322 -0.487425 0.275354 -0.366458 -0.216757 0.110126 0.133329 -0.487302 0.201650 0.317252 0.665958 0.428993 -0.473022 -0.406666 0.599352 -0.008358 0.004445 -0.066489 0.307254 -0.757864 -0.112779 -0.158993 -0.241266 -0.160541 -0.087508 0.267098 0.071179 0.574005 0.698939 0.426832 -0.166577 0.202652 0.537008 0.474347 -1.108569 0.460698 -0.402840 0.065096 -0.023122 0.004038 -0.206358 -0.075333 0.288886 0.280697 -0.074755 0.275851 -0.154336 -0.009772 0.084602 0.327942 
[ -0.323263 -0.701685 0.377617 0.016993 -0.051359 0.276179 -0.591560 0.116670 0.334338 -0.340271 -0.405078 -0.422984 0.999413 0.117443 -0.195064 -0.429718 0.574798 0.094713 -0.006536 -0.025795 0.237962 -0.003445 0.489974 0.214988 -0.831522 0.836298 -0.418689 -0.228322 -0.113124 -0.593553 -0.822810 -0.478471 -0.263330 -0.459718 -0.162511 -0.062555 -0.546054 0.261181 0.141909 0.154698 0.104935 0.414670 0.293581 -0.435571 -0.296945 0.617217 0.807300 0.327070 -0.149789 0.024132 -0.490196 -0.137631 0.839753 0.270135 -0.088020 0.051982 -0.201856 -0.486147 0.199364 0.551763 -0.137188 0.444894 -0.061165 -0.118228 -0.079048 0.003217 0.255676 0.607758 -0.185905 -0.369951 0.001431 -0.011950 -0.555002 0.826502 0.069372 -0.448352 0.588074 0.328118 0.015122 0.565981 0.420290 0.476409 -0.006103 0.260195 0.145187 0.103423 -0.004217 0.243801 -0.309560 -0.640017 -0.248951 0.536120 0.069835 0.147287 -0.487958 0.200057 -0.306375 -0.316692 0.294250 0.014465 -0.162528 0.634453 0.604915 -0.055925 0.440690 0.167970 -0.804620 0.099785 -0.189347 0.278525 -0.518809 0.837301 -0.344260 0.310067 -0.102001 0.219638 0.011216 -0.479467 0.064060 0.059517 -0.267035 0.710344 0.569739 -0.036508 -0.383027 -0.383653 0.460202 -0.402204 0.178602 0.517246 -0.184590 -0.524288 -0.613229 0.843830 -0.433073 1.179838 0.904276 -0.045431 -0.395686 0.164937 0.016475 0.692669 0.263279 -0.579285 -0.000833 0.160080 -0.038293 -0.118885 -0.420245 0.199318 -0.362848 -0.345514 1.083155 0.225496 0.283526 -0.569503 -0.774016 0.441136 -0.287647 0.457072 -0.325314 -0.243379 0.602934 -0.920938 -0.091617 0.274484 0.417598 0.115144 0.046781 -1.134595 -0.024343 -0.321986 -0.062458 0.514544 0.497235 0.552690 -0.276647 0.927014 -0.488253 -0.409802 0.312596 0.079389 -0.169294 0.047823 -0.358418 0.085489 -0.411958 0.573139 0.028523 0.003474 0.270170 -0.276659 -0.643195 -0.010396 -0.252392 -0.690637 0.252517 -0.672784 0.022340 -0.290620 0.042662 0.457330 0.657357 -0.109686 0.301381 0.292261 0.011921 -0.325177 0.142402 0.340780 -0.413563 -0.143569 0.279117 -0.394853 -0.241115 -0.362958 -0.780261 0.161542 -0.108392 0.285852 -0.469000 -0.003826 -0.789736 0.480050 -0.436017 0.169046 0.566936 -0.068878 -0.312092 -0.732857 -0.557412 0.185147 -0.314319 0.918699 0.091177 0.421884 0.866561 -0.313334 -0.037085 0.151810 -0.203840 -0.423944 -0.468447 0.620097 -0.280346 0.497983 -0.211407 0.238209 0.841643 -0.137450 -0.382312 0.391508 0.883061 -0.024464 -0.540139 -0.254774 0.390631 0.114037 0.005563 0.193243 0.614408 -0.188617 0.300070 -0.273426 0.143922 0.156923 -0.711479 -0.094661 -0.432643 -0.090759 0.077363 -0.678368 -0.183872 -1.174100 0.461044 -0.062676 0.450632 -0.155905 0.031293 -0.179277 -0.377352 -0.214713 0.357862 -0.166734 -0.267849 -0.432516 0.118189 0.047144 -0.314440 0.328013 0.342119 0.064117 -0.139383 -0.445757 -0.329492 -0.489651 0.144619 -0.196235 -0.030974 0.724159 
] -0.633596 0.232051 -0.007407 0.193278 0.091051 0.283383 0.025442 0.508006 0.875934 -0.171017 -0.081014 -0.417023 0.336731 0.251630 -0.009163 -0.497372 0.473901 -0.341366 0.277563 0.810585 0.459259 -0.025397 0.579471 -0.107888 -0.185659 0.286628 -0.691128 0.276451 -0.462331 -0.022263 -0.783319 -0.192820 0.512772 -0.770079 0.087588 0.308266 0.266184 -0.807303 -0.230104 0.573393 -0.252809 -0.740110 0.888177 0.320717 -0.361648 0.455028 0.253379 -0.006621 -0.426386 0.600699 0.260812 0.100472 0.164641 -0.256523 -0.363343 0.023867 0.106688 -0.063973 -0.719498 0.557760 0.294478 0.239741 -0.649815 -0.033223 -0.879841 -0.044924 -0.116953 0.635866 -0.503098 -0.031081 -0.160593 -0.161547 0.223260 0.622702 0.251005 0.351968 0.262506 0.759554 0.093419 0.330217 -0.166548 0.072311 -0.122961 0.026215 0.070068 -0.154602 0.167961 0.636988 0.276376 -0.952465 -0.304575 -0.640536 0.340584 0.484915 -0.249139 -0.442681 -0.832751 -0.609308 0.677717 0.080283 -0.209536 0.662266 -0.209435 0.026736 0.310732 -0.274167 -0.472954 -0.101770 -1.223320 0.197083 -0.453169 0.618379 -0.213756 -0.100257 0.403205 0.775524 0.265470 -0.627823 0.379483 0.239446 -0.554328 1.281251 0.257627 0.490144 -0.100702 0.863041 0.169150 0.079705 -0.461187 0.009479 -0.289781 0.292690 0.091002 -0.074040 -0.168696 0.371452 0.041815 0.253316 -0.364571 -0.196131 0.413437 0.247153 -0.041438 0.007820 0.178097 0.334747 0.196928 0.032377 0.130967 0.467400 0.361351 0.089897 0.248223 0.355576 -0.183734 -0.026585 -0.217239 0.359472 0.159778 0.530770 0.392282 -0.463037 0.174150 0.448080 0.240915 -0.013858 0.314960 -0.224978 -0.212499 -0.448802 -0.282397 -0.597143 0.180767 -0.073045 -0.089123 0.038430 0.086009 0.520465 0.430902 0.119884 0.622452 -0.379271 -0.169262 -0.029346 -0.279014 0.274723 -0.315735 -0.115357 -0.708472 0.230388 0.818010 -0.251730 -0.486916 -0.356590 -0.655046 -0.060335 0.651574 -0.274288 0.396852 -0.519877 -0.511556 0.206088 0.676832 0.096328 0.082820 -0.567785 0.268490 0.449082 0.338421 0.257296 -0.299428 -0.554998 0.045051 -0.681897 -0.061400 -0.313837 -0.274381 -0.191970 0.253610 0.826196 -0.547885 -0.245838 -0.282796 0.425585 -0.694044 0.296855 1.122514 0.130285 -0.212225 -0.595483 -0.458460 -0.060918 -0.396423 0.005523 0.162301 0.556629 0.603652 -0.539375 -0.146273 -0.121254 -0.119350 -0.590290 0.046197 0.234499 -0.165499 0.132242 -0.060662 0.141057 0.169228 0.163161 0.439376 0.093005 0.469925 0.751128 -0.430866 -0.931569 -0.094828 0.512037 -0.226490 0.331032 0.848709 0.550140 0.776778 -0.213969 0.741274 -0.421296 0.204116 -0.266522 0.243978 0.532543 -0.291394 0.024671 -0.633916 0.372727 -0.072280 -0.646846 0.556522 0.613587 0.657204 -1.146661 0.472317 -0.606770 -0.853401 -0.845774 0.347512 0.359108 0.178746 -0.485149 0.568549 0.116413 1.017961 -0.460628 0.305566 0.191166 -0.488294 0.177902 -0.755805 1.469781 0.441498 -0.586631 
function 0.504527 -0.014558 -0.134929 -0.645700 0.330315 -0.014000 -0.106916 -0.265832 0.320990 0.567247 -0.750693 0.313096 0.696642 0.310151 0.283369 0.299474 -0.004841 -0.069693 -0.014719 0.096013 -0.073025 0.515445 0.386322 0.123718 1.031208 0.321972 0.128777 -0.737931 0.561197 0.417837 0.025529 0.485525 -0.289479 -0.267316 -0.113458 0.502514 -0.309347 1.193117 0.268475 0.024525 -0.208491 -0.446740 -0.062539 -0.059585 0.223099 0.940966 -0.464127 0.257074 -0.194592 -0.557879 0.201285 -0.009425 1.053371 0.644570 -0.035691 0.454969 0.071836 0.288083 0.530733 -0.350410 0.111813 -0.286317 -0.318923 -0.389293 0.262696 0.280094 -0.253718 0.443794 -0.211543 0.546853 -0.613787 -0.747771 0.117903 0.287674 -0.069024 0.294194 -0.414793 -0.562356 0.055458 0.081356 -0.709492 0.582137 0.377612 0.303127 0.573975 -0.392251 0.088188 0.591253 -0.065384 0.445492 -0.554361 -0.227405 0.435496 0.718093 0.699238 0.102378 0.278477 -0.141310 -0.301681 -0.262895 0.079211 -0.055714 0.078199 -0.017041 0.427274 -0.193196 0.266422 -0.074130 0.218074 -0.288754 0.233063 -0.069533 0.561057 -0.357703 -0.530867 -0.217476 0.819318 0.396909 0.747783 0.312142 0.592268 -0.389240 -0.115956 -0.225125 0.105738 0.048125 0.022998 -0.864541 -0.023045 0.376297 0.275760 0.675126 -0.526579 0.296172 -0.359612 0.110542 0.307435 0.050882 0.104277 -0.492103 -0.600882 0.402037 0.156681 -0.178947 0.709375 0.812004 0.203320 -0.482220 0.019171 -0.276027 0.811728 -0.110231 -0.337810 0.171233 0.644804 -0.369694 0.744403 -0.137306 0.526044 -0.617333 0.386221 -0.064357 -0.319805 -0.101183 -0.345399 0.289255 -0.592099 0.810270 0.027763 0.222425 0.153778 0.081398 0.078895 -0.447727 -0.799828 -0.277813 -0.401892 -0.159336 -0.460363 -0.174456 -1.069844 -0.958187 0.484854 0.590376 -0.167052 -0.408715 -0.063558 -0.202524 0.112633 -1.043329 0.814329 -0.038911 1.212037 -0.090751 0.104907 -0.173608 -0.349517 -0.398238 -0.310816 0.307744 -0.214103 0.515364 -0.109814 0.600603 0.358928 -0.412484 -0.615703 -0.590493 0.064902 0.696053 -0.240841 -0.201098 -0.172871 0.248095 -0.567928 0.431993 -0.322576 -0.570050 -0.154817 -1.399783 -0.449322 0.098528 -0.055127 0.389089 -0.013447 0.197053 0.498406 -0.130458 0.779070 0.010891 -0.527057 1.245376 0.245815 0.696496 0.520220 0.034971 -0.305747 -0.143514 -0.410654 -0.157801 0.582300 0.011167 0.437527 -0.138201 -0.788519 -0.075565 -0.279061 -0.389074 0.100490 0.560731 0.293343 -0.805044 1.044301 0.074524 -0.343911 -0.277294 -0.880306 0.253180 0.705625 -0.633579 0.366455 0.127333 0.650701 0.522685 -0.837718 1.102040 0.308589 0.287947 0.306426 0.989370 0.101179 -0.297743 0.049867 -0.221377 0.547987 -0.126312 -0.327049 -0.204463 -1.237771 0.148321 0.179113 -0.319445 0.381597 -0.714415 0.967382 0.183851 0.244009 -0.213731 0.150023 -0.548882 0.250877 -0.313225 0.536064 -0.022528 0.534299 -0.398284 0.015104 -0.378483 -0.042487 1.265458 
SafeMath -0.900798 1.545214 -0.325979 0.791976 0.536859 0.405500 -0.137904 -0.104738 -0.070907 0.376747 -0.470892 0.330504 0.072485 -0.045733 -0.118019 0.129173 0.632124 -0.140655 -0.268360 0.365004 0.290882 0.254783 0.093803 -0.249088 0.139165 -0.011775 -0.685266 -0.197109 0.140066 0.094047 -1.244193 0.343416 0.634640 -0.567860 0.476032 0.054032 -0.097531 0.060741 0.057769 -0.357021 -0.477740 -0.384821 0.477870 -0.048620 -0.149001 -0.506079 0.222939 0.310021 -0.678310 -0.167887 0.198223 0.247400 -0.128665 0.530912 0.233216 -0.520678 -0.208970 -0.081813 0.437186 0.066408 0.456596 0.703648 0.069887 -0.165049 -0.193533 0.111226 0.048248 0.043790 0.212235 -0.050332 -0.166193 0.502121 -0.340395 -0.547419 -0.852548 -0.385153 0.200116 0.031752 0.110289 -0.406909 0.343539 0.315630 0.254628 -0.313559 0.379784 -1.305512 0.505091 0.237444 0.275851 0.270425 0.094489 -0.526144 0.142094 0.017602 -0.167564 0.181990 -0.437887 -0.078585 -0.300309 0.233817 0.079156 -0.417540 -0.546850 -0.232959 -0.340323 -0.013717 -0.196515 0.189363 -0.104696 0.319659 0.190651 -0.435947 -0.674479 -0.326751 -0.204203 -0.538003 0.183122 0.341077 0.345313 -0.444160 -0.045493 0.655766 -0.266616 -0.314818 -1.467315 1.011395 0.471960 0.000604 -0.394399 0.169227 0.462734 -0.231636 -0.929657 0.266178 0.157251 0.543655 -0.221392 -0.482307 0.770452 0.298239 -0.089293 0.764687 0.322668 -0.232523 0.592840 0.174810 0.043925 -0.088879 -0.849186 -0.036827 0.177509 -0.018486 0.405204 0.675264 0.083526 0.572461 0.986347 0.076495 -0.124903 0.458899 0.480155 -0.191796 0.449864 -0.247800 0.130125 0.311689 -0.031155 0.040046 -0.527684 -0.016646 0.482319 0.263663 -0.309693 -0.467016 0.165554 -0.298518 -0.680515 0.323741 0.422419 0.265783 -0.488095 -0.707843 0.205052 -0.526280 -0.334786 -0.147306 -0.129873 0.690979 -0.229228 -0.336032 -0.652891 -0.357157 0.466798 0.331611 -0.085347 -0.721915 0.539619 0.175300 -0.344578 -0.413893 0.189986 -0.012621 -0.608856 -0.554390 0.116064 0.181901 -0.278460 0.448136 -0.061693 -0.218377 0.096620 0.247880 0.005934 -0.501243 -0.224662 0.217962 -0.796202 0.298631 -0.050265 -0.633040 0.212383 -0.106149 -0.729245 -0.081658 0.187048 0.276584 0.966097 0.508592 0.088138 0.367053 0.415761 0.360974 -0.822655 -0.196124 -0.368945 -0.129917 0.004013 -0.662117 -0.257856 -0.177681 -0.733618 -0.312326 0.026667 0.297466 -0.150369 0.348337 0.389122 -0.178778 -0.240128 0.576498 0.183517 0.448008 -0.021135 -0.373755 -0.074468 -0.135516 0.551591 0.176809 -0.126505 0.084661 0.860249 0.365380 0.267391 0.637573 -0.158096 -0.198506 0.031382 0.163330 0.374010 0.210502 0.407514 -0.453498 -0.329552 -0.478520 -0.254562 -0.044394 0.491600 -0.015772 0.188175 -0.097774 -0.224829 -0.562789 0.179954 -0.766410 -0.137079 0.239671 0.207138 -0.015586 0.536616 0.563483 -0.507904 -0.177424 -0.320519 -0.123776 0.016277 -0.005913 0.364465 -0.372267 -0.304028 -0.047504 
msg -0.236367 0.794081 0.136021 1.213898 0.045229 0.860378 -0.703298 -0.742373 -0.606221 -0.716222 -0.734277 -1.204868 0.803194 0.091657 0.042292 -0.225722 -0.018342 -0.581190 0.371137 0.559874 0.831585 -0.806779 0.332906 -0.104605 -0.098710 -0.698298 -0.895336 0.541501 -0.285412 0.482106 -1.360563 -0.302450 -0.142524 -0.212797 0.281350 -0.171128 0.716253 -0.496105 0.053698 0.153518 -0.314414 -0.015804 0.598519 0.325364 -0.245674 0.291136 0.156910 0.441103 -0.023133 0.394592 -0.195191 0.364808 0.077911 1.114258 0.659739 -0.215425 0.914138 -0.755820 -0.178272 -0.577337 0.174043 -0.527110 -0.364339 0.574404 -0.696455 0.414495 0.169331 0.436643 -0.089148 0.061385 -0.912330 -0.187700 0.678092 0.157513 -0.500430 -0.507577 0.709030 0.456967 0.159568 -0.345947 -0.266865 -0.371472 0.603280 -0.569182 0.055388 -0.079961 -0.363620 -0.216971 -0.405286 -0.452559 0.812790 0.208933 0.615131 0.616960 -0.090421 0.338066 -0.655192 -0.012348 0.901564 0.724423 -0.305631 0.105830 -0.238042 0.311030 0.367466 -0.482664 -1.526040 -0.451814 -1.038056 -0.158632 -0.384499 0.454651 -0.603905 0.048593 0.368490 0.244500 0.748679 0.220011 0.146654 -0.727563 0.412600 0.733964 -0.024322 0.300319 -0.248543 -0.127687 -0.370108 -0.132236 -0.197149 0.056631 -0.265535 0.206335 -0.789861 -0.263532 0.124572 0.507828 0.697770 0.070483 -0.202696 0.599269 0.300846 -0.398110 0.254820 0.691369 -0.252923 0.010482 0.429360 0.739724 -0.690233 0.046717 -0.234073 -0.486852 0.278166 0.057468 0.147614 0.689395 0.209210 -0.311643 -0.093868 0.695557 -0.439529 0.063411 -0.164076 -0.380483 -0.102687 -0.323225 0.203505 0.066384 -0.339814 0.357798 0.469199 -0.170400 0.216704 0.000558 0.102441 0.118185 0.119002 0.432650 0.543503 0.556287 0.194310 0.700381 -0.327218 0.126173 -0.100384 0.087702 -0.386769 0.667309 -0.314666 0.543430 0.347432 0.425406 -0.087720 -0.208325 0.133357 -0.173583 0.286650 0.451472 -0.465735 -0.504328 0.365949 0.673493 0.019236 -0.132241 0.130351 -0.937437 0.519118 -0.168573 0.211042 -0.040968 -0.697303 -0.332323 0.092271 -0.502814 0.284329 0.043804 0.120418 0.475872 0.433245 0.368305 -0.512756 -0.560174 -0.449835 -0.144243 0.151420 -0.139465 -0.017655 -0.759141 -0.746997 -0.718511 -0.151866 -0.363284 0.454713 0.784131 -0.117552 0.998998 0.413928 0.144067 -0.204945 -0.963926 -0.317921 -0.354894 0.215026 0.160299 -0.163528 0.415175 0.610115 -0.796407 0.067892 0.609660 0.465209 0.095393 0.101464 -0.201886 -0.550636 -0.201917 -0.361603 0.401392 0.352500 0.050842 0.259783 -0.159320 0.260067 -0.432540 0.135241 0.126630 0.180762 -0.132731 0.137391 0.144279 0.286100 0.422308 -0.709247 -0.276492 0.067899 -0.664921 -0.067285 -0.171969 0.204012 -0.659238 0.308048 -0.669979 -0.463081 -0.567875 0.747793 0.232680 0.673745 -0.678889 -0.163243 0.135727 0.391369 -0.441087 -0.112447 -0.014972 -0.469516 0.109982 0.381584 0.669772 0.121528 -0.140481 
returns 0.475205 -1.075701 0.466220 -0.596703 -0.764280 0.927652 0.262521 -0.694005 -0.865946 -0.108520 -0.035694 -0.037387 -0.479654 -0.405586 0.623087 0.141614 0.163853 -0.369368 -0.465534 0.278995 0.273214 0.192621 -0.022595 0.393923 -0.204503 0.578734 -0.049027 -0.690077 0.490519 -0.347094 -0.005309 0.670988 -0.860509 -0.040697 0.516697 0.360479 0.553133 0.694838 0.535376 -0.336393 0.918408 -0.344533 -0.143071 0.665614 0.079837 -0.202721 -0.210618 0.435123 -0.566953 0.830794 -0.147412 -1.039582 0.148587 -1.242148 -0.120702 0.212610 0.022201 -0.546129 0.283984 -0.369698 0.057492 -0.425090 -0.320833 -0.250087 0.466090 0.659875 -0.114108 0.555311 0.086027 -0.372863 -0.157318 0.226918 0.414389 0.094846 -0.769691 -0.504131 0.680518 0.143447 -0.628261 -0.366812 -0.232707 0.508916 0.113009 0.612446 0.539480 0.611008 -0.185325 0.744774 -0.439879 1.101657 0.338309 -0.057707 0.384613 -0.489433 0.801723 0.452536 0.258963 -0.029966 0.490354 -0.210957 -0.030722 -0.397531 0.101382 0.056911 0.291462 -0.649527 -0.514524 -0.661272 -0.194961 0.115865 0.712180 0.143220 0.947081 -0.764815 0.282736 -0.304770 0.223247 0.790164 1.041288 -0.338937 -0.259075 -0.735392 -0.681085 -0.295971 0.264603 0.224640 -0.714917 -0.084495 -0.023012 0.485117 0.188671 -0.009511 -0.321201 0.042661 0.014333 -0.514183 0.222677 -0.709746 -0.587823 0.324062 -0.670974 0.582014 0.366152 -0.069661 -0.118659 0.819313 0.324722 0.959470 -0.201500 0.318869 -0.098987 0.909426 -0.501443 0.092748 0.760533 -0.517873 0.416860 0.300518 -0.119101 -1.391818 -0.438889 -0.300588 0.379220 1.249834 -0.801602 0.235481 0.462990 0.186725 0.090901 -0.275860 -0.695482 -0.498208 0.054551 -0.090551 -0.366367 0.267845 0.150768 0.944476 0.278936 -0.588188 -0.238270 -0.111411 0.315297 -0.090287 0.949510 -0.872291 0.180247 -0.013039 -0.414650 -0.433537 -0.034670 0.415589 0.228574 -0.215738 0.096196 -0.268975 -0.445045 -0.101034 0.244339 0.047099 0.228183 0.574224 0.460608 0.630035 -0.485119 -0.084289 -0.584104 -0.072453 0.028128 0.981372 -0.224800 0.677114 -0.422998 0.055005 0.501163 -0.244722 -0.046570 0.435881 -0.564539 -0.582416 0.182081 -0.894074 0.271639 -0.137715 0.366797 0.356378 -0.631646 -1.027873 -0.737465 0.073396 -0.573977 1.090800 0.387631 0.637079 1.452316 0.700176 0.089620 -0.485635 -0.008295 0.239976 -0.045527 -0.347875 0.122051 -0.191790 -0.390901 0.859256 -0.544214 0.343684 -0.189048 -0.776085 0.704321 -0.884829 0.277932 -0.061798 0.411312 0.152703 -0.439077 0.092484 1.080840 -0.033148 0.048544 0.604120 -0.606751 0.484288 0.505077 0.386762 0.917844 -0.257703 -0.771826 0.093189 -0.406577 -1.348008 0.700776 0.455795 0.476099 -1.672649 0.251090 0.482333 0.738668 0.461361 0.734745 -0.170977 0.425233 -0.121695 -0.296440 0.493592 0.251510 -1.156710 -0.581800 -0.282754 0.254940 -0.427192 0.276953 -0.878311 0.167964 -0.477172 -0.434615 0.481739 0.277977 -0.248795 
return 0.250720 -0.730559 -0.072884 0.012579 -0.214010 -0.379106 -0.734158 0.154969 0.971639 0.751719 -0.544479 -0.166697 -0.667007 0.088896 0.135688 -0.919251 0.426118 0.186874 0.650166 0.331717 -0.381268 0.068089 0.429842 -0.055182 -0.279531 1.159812 -0.439184 -0.188837 0.243630 0.304095 0.033762 -0.503577 -0.147045 0.594893 0.013215 0.183518 0.123944 0.752895 0.500571 1.092746 0.000518 -0.015116 0.018980 1.049232 0.205484 0.351087 -0.536715 0.177860 -0.110232 0.203908 0.217870 -0.289043 0.367980 -0.226026 -0.676733 0.244083 0.075167 -0.701230 -0.027908 -0.125316 0.796414 0.043277 -0.650539 0.484034 -0.392453 -0.148170 -0.146337 0.510289 0.314433 0.939698 0.324113 0.991483 -0.186816 0.355587 0.086162 -0.306856 -0.536463 -0.579800 0.020617 0.206059 0.769266 0.282323 -0.159117 0.186131 0.417150 -0.062782 0.271172 -0.094608 -0.238482 -0.512171 0.539859 -0.008929 0.300589 -0.990155 0.160317 0.275720 -0.348474 0.060539 0.388475 -0.465704 0.526741 -0.164011 0.689776 -0.138916 0.690886 0.649211 -0.538424 -0.329382 -0.436643 0.921921 1.205622 0.535434 0.518334 0.089101 -0.556332 0.895590 0.116038 -0.282916 0.300330 -0.289961 0.531828 0.725539 0.458010 -0.267482 0.447322 -0.743854 0.317054 -0.520614 1.068623 -0.572089 0.738196 0.046373 -0.487759 0.840509 -0.906591 0.064985 0.737609 -0.406522 -0.931864 0.606126 0.295529 0.855325 -0.190894 0.346995 0.812024 0.513803 0.896891 0.364847 -0.033702 -0.730468 -0.442364 -0.516448 -0.120454 1.032393 0.519798 -0.401407 0.543238 0.175865 0.763155 -0.101029 1.161452 0.313712 0.889404 0.058737 0.404327 -0.247567 -0.221532 -0.216077 0.409920 0.654380 -1.327043 -0.607021 -0.396467 -0.160804 0.853810 -1.068399 0.325463 0.308751 0.544706 -0.441297 -0.311865 -0.292258 -0.028181 -0.171148 0.089763 0.588352 -0.166945 0.383311 0.133064 -0.110091 0.121068 0.181458 -0.227561 0.302339 0.726879 -0.756058 -0.249690 0.099243 -0.854164 -0.267821 -0.271909 -0.165926 0.032758 0.130351 0.966637 -0.248431 -0.014967 0.275025 -0.469846 0.144292 0.460201 0.420036 0.092718 1.018684 -0.693335 -0.034729 -0.640266 -0.840837 -0.300477 -0.024748 0.386756 -0.330795 0.393018 0.507958 -0.611788 -0.109132 1.012753 0.155558 0.753134 0.635258 -0.349862 -0.101497 -0.499324 -0.892444 0.195314 -0.458545 -1.021552 -0.163074 0.258681 -0.168546 -0.239376 -0.605407 0.629904 -0.667199 0.223627 -0.485018 -0.359772 0.239246 0.629353 -0.197330 0.146087 -0.676209 0.259340 0.619139 0.272574 -0.656586 -0.496050 -0.218223 0.697081 -0.176989 -0.073290 0.374049 0.363684 0.111435 1.051927 -0.216357 0.129155 0.288102 0.657555 0.808988 0.390036 -0.679824 0.628668 -0.579505 0.641814 0.375185 -0.687533 -0.264359 -0.267739 0.784090 0.208427 -0.204795 -0.932246 0.098588 0.359514 0.316323 -0.049032 0.129358 0.615385 -0.166301 1.050829 -0.552699 -0.218326 0.422280 0.987017 0.398581 0.046706 1.015728 -1.143600 -0.486493 
sender -0.484892 0.329650 0.449632 0.664444 -0.080239 -0.291396 -0.010574 -0.561558 0.634457 -0.585512 -0.457980 0.387024 0.403539 -0.164578 -0.568188 -0.528631 -0.183240 -0.205898 0.125044 0.705695 -0.112165 0.502975 0.157109 0.412072 -0.179457 0.034989 0.061042 0.896026 -0.400034 0.552412 -0.750227 -0.121472 -0.201413 -1.212600 0.079591 0.095739 -0.018527 -0.609973 -0.094726 1.193398 -0.200871 -0.050717 0.001937 -0.100732 -0.037648 0.081396 0.741424 0.335093 0.443005 -0.293699 -0.435993 0.479826 0.383773 -0.156358 -0.303929 0.009306 0.014741 -0.501062 -0.158209 0.489817 -0.793928 -0.401126 -0.480977 -0.603175 -0.026887 -0.796082 -0.092771 0.352028 -0.270738 -0.081329 0.233777 0.180659 0.273275 1.190554 -0.986092 -0.924483 0.235637 0.403529 0.107678 0.378571 -0.579604 0.369487 -0.174032 0.346996 0.514914 -0.344367 0.481701 -0.654549 0.196174 -0.467094 0.488800 -0.232828 -0.042707 0.264635 0.341466 -0.315581 -0.624025 0.750349 0.219366 -0.041743 0.562154 0.823340 0.130553 0.252832 0.155230 -0.492372 -0.500369 -0.096371 -0.742605 0.277751 0.120130 0.854649 0.353263 -0.119735 0.713593 0.244068 -0.308658 -0.933488 0.777827 0.103185 0.528546 0.777845 -0.158214 0.852995 -0.497641 0.563969 -0.357452 -0.716480 0.041173 0.596283 -0.286766 -0.483949 0.249765 0.004362 -0.320527 -0.168351 0.568010 -0.381861 -0.108135 0.270603 1.134426 -0.338309 -0.886302 -0.110794 0.260948 -0.151215 -0.193483 -0.849066 0.369207 0.536571 0.667838 0.335734 -0.223597 -0.230453 0.266817 1.125035 0.087150 0.523866 -0.207591 -0.607483 0.625687 0.242898 -0.331284 0.160555 0.135206 -0.616384 -0.516966 0.324265 0.368765 0.241042 -0.114303 0.235177 -0.315446 0.588201 0.352597 0.672764 0.849350 0.032740 -0.736356 -0.552510 1.192788 0.745892 0.160696 -0.102346 0.144031 0.711125 -0.738989 0.074365 -0.067283 0.254305 0.126940 -0.415396 -0.538021 -1.216552 0.426723 -0.745514 0.245609 -0.500649 0.434584 -0.440363 0.401203 0.281352 0.923492 -0.103525 0.517441 0.222436 0.837670 -0.139455 -0.270331 -0.394436 0.263172 0.326184 -0.153496 -0.464582 0.049393 -0.564662 -0.241273 0.441914 0.381348 -0.303873 0.598072 -0.635996 0.408822 0.305643 -0.144432 0.259351 0.207843 0.791368 -0.962376 -0.469196 0.462785 -0.705581 0.731587 -0.399302 0.352219 -0.306910 0.205013 -0.017284 0.235905 0.007345 -0.733594 -0.628649 0.665910 -0.299302 0.672798 0.346984 -0.474115 -0.633173 0.395086 0.032294 -0.182698 -0.086466 -1.076206 0.471267 -1.052633 -0.277462 0.255418 -0.584526 -0.758004 0.571999 0.368250 0.425849 0.693063 -0.451198 0.511471 0.123975 -0.278708 -0.140807 -0.228490 -0.227175 -0.220806 -0.060751 -0.118704 -0.334533 -0.062226 -0.196539 -0.018154 0.291952 0.081598 -0.368123 0.030387 -0.234039 -0.919048 -0.686505 0.363490 0.189171 -0.023828 -0.715430 0.493532 -0.545402 0.222378 -0.042318 -0.118628 -0.477636 -0.611489 -0.408474 -0.502416 0.471336 -0.311327 0.473255 
* 0.193046 0.130684 0.508536 -0.683150 -0.368261 0.294907 0.680301 0.244615 -0.415489 0.839599 0.200694 -0.473407 0.107413 0.160037 -0.012759 0.269886 -0.323027 0.244854 0.329658 -0.145034 -0.216037 -0.250063 0.060588 -0.403434 0.217617 -0.205235 0.080033 -0.619644 0.476362 -0.022319 -0.029549 0.561232 0.202814 0.204199 -0.286236 0.087100 -0.473864 0.021224 -0.293455 -0.448355 0.248650 0.185388 -0.192616 -0.666716 0.201594 0.326820 -0.264624 0.220978 -0.166665 -0.052250 0.562772 -0.419366 0.855617 0.249828 0.114322 -0.322545 0.140687 0.242529 0.130796 -0.485387 0.197678 0.561669 0.072226 0.006488 0.359684 0.089107 0.418493 -0.422888 -0.132619 0.254515 -0.369058 -0.574042 -0.256579 -0.281979 0.235389 -0.319057 0.298486 -0.680477 -0.669698 -0.071976 0.595698 0.388776 0.325590 0.093642 -0.473841 -0.155235 -0.143659 0.013674 -0.433239 0.939806 -0.706879 -0.094693 0.320677 -0.787545 -0.095246 -0.166691 0.344561 -0.382915 -0.818716 0.123146 0.181245 -0.614067 -0.283994 -0.656216 -0.181282 0.208774 0.296533 -0.321576 0.639629 -0.339559 -0.456580 -0.329746 -0.537193 0.372004 -0.464164 -0.567163 -0.009614 0.736555 -0.184266 0.183165 -0.200255 -0.551300 0.432512 -0.137127 0.108756 -0.328836 0.051317 0.104076 -0.648208 -0.974414 0.189792 0.243072 0.628060 -0.047690 0.218686 0.399691 -0.661558 0.102312 0.526450 -0.004983 -1.046823 0.269219 0.700642 0.228232 0.467106 -0.242397 0.202446 0.275296 -0.022958 -0.526483 -0.323159 0.028486 -0.049901 0.148131 0.042500 0.154073 0.049370 -0.410123 0.427300 -0.646773 -0.033126 -0.167342 0.526581 0.102712 0.160762 -0.198273 0.027678 0.109534 -0.357061 -0.021157 -0.089533 -0.039914 0.210147 0.241820 -0.603309 0.316214 -0.227029 0.342219 -0.353062 -0.535549 -0.856530 -0.864299 0.153467 0.148082 -0.111813 -0.390341 -0.241851 0.286133 0.288383 -0.644571 -0.209173 -0.101500 0.828996 0.336256 -0.386313 0.400264 -0.230607 -0.240972 -0.476764 0.269696 0.377919 -0.316465 0.414789 0.334295 -0.071985 -0.063871 -0.476638 -0.217344 -0.008068 0.118714 0.038916 -0.528243 -0.538885 0.282663 -0.046219 0.370582 0.185956 0.411759 0.286191 -0.177474 0.795368 0.417891 -0.103878 -0.370293 -0.346984 0.466969 -0.315895 -1.034718 0.131462 0.137587 -0.325331 1.085009 -0.338415 0.990855 0.004540 0.161741 -0.129035 0.247713 -0.929279 0.025626 0.868943 0.218335 -0.329742 0.809051 -0.668911 0.122520 0.250365 -0.302989 -0.121563 0.431098 0.008959 -0.166276 0.378590 -0.344790 0.259582 -0.215578 0.388711 0.201083 -0.124462 -0.217722 0.039564 -0.260887 -0.282979 0.326680 -0.697542 0.096812 0.103772 0.185576 -0.549901 -0.526583 0.171416 -0.077804 0.033570 1.195496 0.052907 -0.871381 -0.229622 0.727797 -0.095384 -0.892005 0.519986 0.056293 -0.798235 -0.266317 0.973149 0.872853 -0.391736 -0.398737 0.637565 0.130455 0.993117 -0.788339 -0.886328 1.132217 -0.337681 0.884769 -0.446910 0.923107 0.269901 -0.503545 
_customerAddress -0.164162 -0.175435 0.489008 0.383429 0.390255 -0.121349 0.483295 0.160779 -0.517211 0.090877 0.139867 0.059898 -0.386894 -0.262102 0.137014 -0.678403 0.267745 -0.216894 -0.102912 -0.247420 -0.029968 0.575501 0.569670 -0.107577 -0.304254 0.091348 0.167409 0.727549 0.585294 0.287245 -0.235167 0.211624 -0.104264 -0.729844 -0.189242 -0.126853 -0.301020 -0.445769 0.417511 0.170598 -0.893580 -0.087556 -0.096923 -0.368826 -0.509540 0.580959 0.435290 0.225977 -0.068057 -0.509365 0.099863 0.373433 -0.356155 -0.162647 -0.628118 -0.180134 0.207636 -0.405051 0.068255 0.006693 0.181182 -0.379199 -0.252044 0.162844 -0.562630 0.299767 0.259455 0.097314 0.674440 0.073447 -0.328075 -0.221528 -0.027653 0.337751 -0.463635 -0.494901 -0.434463 0.209319 -0.174301 -0.063894 0.213014 0.276228 0.300613 -0.170089 0.212182 -0.421161 0.038381 -0.225679 -0.477206 -0.286581 -0.212745 -0.132656 0.163689 -0.061677 -0.139859 -0.218451 -0.253432 -0.325648 0.272401 -0.361184 0.147942 0.074076 0.881756 0.562645 0.109441 -1.066427 -0.385725 -0.142179 0.021943 0.636068 -0.401277 0.173762 -0.012518 0.177075 0.441705 0.929730 0.233807 -0.240001 0.502445 0.025017 0.384022 0.499864 0.023803 1.047277 -0.127522 -0.219960 0.541557 -0.113156 0.539736 -0.012645 -0.185556 0.156625 -0.404644 0.107115 0.443988 -0.020425 0.538356 0.286618 0.092857 0.595256 -0.127191 0.349061 0.226263 0.371297 -0.425902 0.263101 -0.399723 -0.062990 -0.339989 0.976471 -0.208690 -0.018871 -0.738146 0.081972 0.296891 -0.093998 -0.250787 0.609605 0.025928 -0.395824 -0.920113 0.041166 0.246628 0.390104 -0.543925 -0.838219 0.693936 -0.109794 -0.445496 -0.382575 -0.636705 0.007410 -0.664330 0.239429 0.181501 0.064670 -0.905420 -0.099179 0.211431 0.291752 1.117018 0.364417 -0.322800 -0.206736 0.020723 0.691590 0.458547 0.017611 -0.140603 0.403452 0.110427 -0.041285 -0.422763 -0.328702 0.428760 0.249122 -0.074588 0.165911 -0.368856 0.095559 -0.438947 0.261199 0.475364 0.023516 0.429171 -0.228622 0.378538 -0.015297 0.248593 -0.155809 1.091090 -0.035447 0.642346 -0.693900 0.390938 -0.651676 0.006375 -0.135275 0.510070 0.665037 0.781202 -0.138334 0.183111 -0.575607 -0.331077 0.396464 -0.323268 0.092422 -0.817658 -0.435859 -0.038911 -0.378048 -0.276687 -0.354621 0.852894 -0.301399 -0.392705 0.043724 0.944336 0.139974 0.209504 -0.411084 -0.172542 0.530331 0.036872 0.704307 -0.559682 -0.927698 0.328712 0.319507 0.257907 0.062299 0.569612 0.414355 0.047749 0.185816 -0.540388 -0.385917 0.039399 -0.425554 -0.542624 -0.443434 -0.842069 -0.080865 0.088576 -0.107270 -0.095592 0.328632 -0.523806 -0.076463 0.311880 0.355171 0.043095 -0.317056 0.502870 -0.430706 0.169087 -0.012178 -0.176101 -0.056406 0.006221 0.029847 -0.067013 0.161357 -0.388234 0.332876 0.004258 -0.302702 0.053875 0.521489 0.015736 0.419187 -1.037989 -0.450082 0.140369 -0.956263 0.146040 0.000468 -0.042653 -0.534557 
require -0.091247 0.132421 -0.064552 0.846610 0.444035 0.134653 -1.099882 -0.592617 0.011129 0.256467 -0.723115 0.325904 0.259892 0.916583 -0.194385 -0.205897 -0.352718 -0.032549 -0.385817 0.083986 0.206666 0.804027 -0.388022 0.711606 0.373489 0.109258 0.221898 0.253405 0.485709 0.307334 -0.019615 -0.487518 -0.109768 -0.454036 0.100222 -0.258536 -0.196350 0.021907 0.155629 -0.005068 -0.209325 0.837535 -0.321028 0.226380 0.361504 0.772733 0.355007 -0.133806 0.188335 -0.553694 0.048474 0.242305 -0.427247 1.293612 0.473190 -0.310367 0.625047 -0.367607 0.828602 0.013920 0.045150 0.314797 0.219855 0.208973 0.331698 -0.649347 0.742210 -0.046385 0.119619 0.372648 0.044469 0.729099 -0.614923 0.361646 -0.768322 -0.405424 -0.659347 -0.285467 0.579759 -0.745269 0.043092 0.053025 -0.163057 -0.478596 -0.097133 -0.329958 -0.010336 -0.172224 -0.690425 -0.897808 0.794490 0.921341 -0.191202 -0.488445 0.872863 1.073526 1.136681 -0.556430 0.603250 -0.033521 0.583997 0.605139 0.478905 0.574579 0.519908 -0.530883 -0.272441 -0.241189 0.175463 0.446740 1.350153 0.003089 0.755919 -0.714573 -0.316561 -0.249186 0.322582 -0.602029 0.248726 -0.453294 0.218787 0.268478 -0.018993 -0.077261 0.227608 -0.643238 -0.388628 0.558171 1.005431 -0.452108 0.265769 -0.124823 -0.716270 0.010425 -0.564785 -0.186233 0.126161 -0.619530 -0.690625 0.673544 -0.321435 0.135371 0.131229 0.789972 -0.391677 0.187110 0.565838 0.062628 -1.120087 -0.581474 -0.274896 -0.727922 1.131647 0.960840 0.314247 -0.337586 0.535564 -0.430243 0.341349 -0.360937 -0.542637 -0.058451 -0.946888 -1.357918 0.065520 0.014107 -0.236267 -0.078646 -0.082736 0.661442 0.236925 -0.023668 -0.493839 0.060074 0.439524 0.148522 0.090343 -0.485293 -0.024291 -0.073533 -0.152908 0.286028 -0.308003 -0.688017 -0.302380 -0.042851 -0.092265 0.822279 -0.343205 0.029423 0.215362 -0.308318 -0.225996 0.392143 0.707383 -0.649793 -0.538520 0.219529 -0.265493 0.042281 -0.445555 -0.168211 -0.841737 -0.789880 -0.464702 0.270072 0.401812 -0.754284 -0.198541 -0.312113 0.357866 -0.075430 -0.779423 0.761028 0.115112 0.042661 -0.388412 0.230117 -1.295448 -0.741800 -0.215521 -0.545511 0.435723 -0.326586 0.541702 -0.228023 0.327784 -0.179224 0.026141 0.613455 -0.453834 -0.396612 0.502289 -0.354300 -0.430755 -0.708735 -0.861554 -0.088399 0.380788 -0.689246 0.139338 0.240207 0.187632 -0.629681 0.444246 0.113889 -1.117695 0.301133 0.452925 -0.756164 -0.159595 -0.150572 -0.771891 -0.514748 -0.440472 0.451045 -0.227510 -0.653949 0.601568 -0.845641 0.080307 0.164755 -0.135581 -0.011225 -0.181888 -0.007464 -0.466287 0.038224 -0.353287 0.150831 0.691185 -0.152383 0.013400 0.094514 -0.186589 -0.101937 -0.227215 -0.032179 -0.289601 -0.120117 0.529947 -0.378513 -0.366261 0.348082 0.743195 0.296334 0.672585 -0.704649 1.170924 0.150749 1.415821 -0.367336 -0.174754 -0.078628 -0.155127 -0.038194 -0.348852 2.176349 0.087046 0.726195 
true -0.228551 -0.992126 -0.373843 -0.673957 0.543338 -0.276670 0.107457 0.255600 -1.112705 -0.883623 0.092685 0.708851 -0.719763 -0.102237 -0.499561 0.622492 0.408625 -0.709458 0.078447 -0.578389 0.636818 0.278256 0.810251 -0.551010 -0.422993 0.000695 -0.153413 0.581573 -0.353544 -0.192490 0.829275 -0.346644 0.341602 -0.097814 0.654208 -0.697884 -0.242540 -0.364617 0.922520 -0.337959 -0.085653 0.350994 0.061127 0.207273 -1.110304 0.640652 0.313914 -0.387404 -0.111451 -0.138121 -0.690529 0.822616 -0.540430 -0.378841 -0.352610 0.305604 0.162143 0.773532 -0.920778 0.559109 0.455381 0.202256 -0.268676 -0.935453 -0.586535 0.051324 -0.491726 -0.177964 -0.379827 0.267885 0.800324 -0.303082 0.340181 -0.035368 0.692156 0.281763 0.154968 0.886338 0.139336 0.571877 0.326847 -0.857932 0.368200 0.285686 0.340486 -0.066880 -0.556740 0.263368 0.671711 -0.635677 -1.110186 0.112427 0.089308 0.303680 -0.322425 0.098700 -0.862541 -0.377366 0.054378 -0.125830 -0.550280 0.604149 0.009622 0.312216 0.041287 0.726503 0.059313 0.378340 -0.256700 -0.712736 -0.526843 0.207204 -0.557186 0.677207 0.068048 0.647813 0.305321 0.629855 0.155260 -0.149010 -0.503428 0.528044 0.251230 0.506547 -0.018144 0.329892 0.973866 0.390769 0.699363 -0.058279 -0.294016 0.250094 0.324256 0.540924 0.384868 0.222414 0.348548 0.676427 -0.006193 -0.235602 -0.131538 -0.513958 -0.014434 -1.114964 0.135035 -0.588115 -0.139236 -0.324137 0.746683 1.387770 0.069529 0.233384 -0.262095 0.184045 -0.831451 -0.880435 -0.923240 0.929273 -0.712617 0.428457 -0.495989 -0.231824 0.007637 0.008390 -0.117135 -0.458376 0.697706 0.122446 0.465116 -0.294883 -0.627805 -0.972564 -0.151615 -0.228792 0.302096 0.309181 -0.045790 -0.026351 -0.453946 0.624681 0.951022 0.100688 0.015452 0.035256 0.053779 -0.522273 0.361000 -0.209020 -0.312134 -0.284365 -0.343297 -0.330505 -0.849305 -1.104362 -0.431027 0.622539 -0.545351 0.403215 0.358435 0.573941 0.197647 -0.123267 0.563386 0.475467 0.142944 0.419778 1.199098 -0.014743 0.247491 0.332891 -0.474153 -0.571891 1.114146 0.038815 0.122834 -0.238188 0.339628 0.173494 -0.694682 1.337116 -1.019787 0.213399 -0.637373 0.624392 0.485271 -0.080303 0.389416 0.206518 -1.154762 -0.402789 0.528327 -0.723549 0.288767 0.298815 0.106134 0.455939 0.355095 -0.207436 0.672499 0.168087 0.613743 0.273814 -0.956875 -0.321524 -0.421498 -0.208125 -0.072378 0.079930 0.437679 0.456935 -0.209301 0.314738 0.266014 0.253630 -0.146762 -0.235991 -0.111394 0.199833 0.225992 0.523137 -0.513406 -0.398624 0.247898 -0.604987 0.184741 0.316260 -0.085842 -0.544047 -0.217674 0.625680 0.151832 0.154722 -1.090578 0.381263 -0.320368 -0.447681 -0.062140 0.153133 0.178460 -0.860792 -0.402943 -0.119092 -0.144941 0.101628 -0.365218 -0.098125 0.280579 0.076810 -0.778436 0.834062 0.628751 0.624984 -0.025878 -1.168304 -0.186032 -0.610111 0.345439 -0.111846 0.697866 0.024935 
0 -0.594002 0.598882 0.343929 0.424215 -0.455035 -0.931623 0.035047 -0.661667 -0.338391 -0.138430 -0.452403 0.223834 -0.031015 -0.298464 -0.289752 0.517539 -0.654159 -0.094419 -0.744749 -0.383168 0.434357 0.011464 -0.302761 0.369249 0.441479 -0.770715 0.046728 -0.160691 -0.055477 0.831926 -0.130826 0.735872 0.409903 0.703570 0.092603 -0.277375 0.073132 -0.161361 0.060098 0.519213 -0.016380 0.096833 0.173223 0.114698 -0.178088 -0.227306 0.172649 0.141814 0.222045 0.346402 -0.286651 -0.019142 0.235220 0.389920 0.902526 0.684592 0.356207 0.345558 0.116161 0.568818 0.053203 -0.781629 -0.015951 0.379444 -0.121704 0.053790 0.597966 0.115714 -0.946521 -0.575541 0.155107 -0.897194 0.020843 0.080396 -0.503229 0.061934 -0.270981 -0.478018 0.502530 0.147903 0.849590 -1.094761 -0.150889 0.264518 0.179340 0.523000 0.037955 0.184313 -0.123027 0.395324 -0.270929 0.296001 -0.415847 -0.196158 0.165575 0.472832 0.058797 -0.265505 0.055909 -0.226591 0.099465 0.420701 -0.960251 -0.079195 -0.554209 -0.183776 0.373667 0.350009 0.170336 -0.173347 -0.139015 -0.527693 0.209946 -0.516518 0.204806 -0.373186 0.491171 -0.203090 0.395553 -0.117021 0.580757 -0.017960 -1.039073 -0.254129 -0.090565 0.218625 -0.752706 -0.564871 0.431919 -0.314446 -0.469818 -0.018268 0.108251 0.100681 -0.368381 -0.203930 1.061970 0.483809 0.423706 0.128176 -0.063864 0.564248 -0.264350 0.408659 0.181071 -0.583852 0.268640 -0.199166 0.464915 0.853235 0.685278 -0.082325 0.399131 -0.999811 -0.050680 0.388965 0.080204 0.249789 0.043883 -0.290090 0.199120 0.053559 -0.323244 0.016183 -0.006558 -0.671533 -0.953781 -0.093612 0.005766 0.332541 0.110186 -0.080761 0.073783 0.487042 -0.569321 -0.008795 -0.491822 0.058677 -0.624677 -0.426579 0.195911 -0.199681 -0.438076 -0.174235 -0.341824 -0.489871 -0.875225 -0.762578 0.395544 -0.290366 0.081166 -0.482028 -0.252959 -0.464541 0.057056 0.334408 0.258972 -0.050593 -0.283587 0.541784 0.375460 0.186737 0.283244 0.279702 0.000151 0.436397 0.458390 -0.413405 0.015681 0.048784 -0.215954 0.214510 -0.080307 -0.743879 -0.301326 0.128231 0.805886 0.916693 -0.444563 0.377775 -1.121774 -0.254289 -0.508379 -0.088108 -0.134670 -0.352494 0.369075 0.318048 -0.849602 -1.030307 0.347593 -0.323555 0.222612 -0.919087 0.751979 0.522068 0.188205 0.794719 0.076523 0.519026 0.305590 0.403765 -0.102392 -0.521422 -0.040737 0.013046 -0.335867 -0.240880 -0.675480 0.599816 0.031552 -0.017695 0.201429 0.124821 -0.734151 0.031276 -0.052892 -0.369122 -0.703784 0.377424 -0.489142 -0.350204 0.021936 0.032105 0.146917 0.087252 0.043189 0.018613 -0.181937 -0.346597 0.296025 0.589840 -0.286979 0.168240 0.196124 0.356827 0.344544 0.224731 0.375637 -0.398401 0.239677 0.316769 0.055620 -0.212455 0.961633 0.494724 0.559704 -0.987633 0.254429 0.039662 -0.174827 -0.565973 0.100627 -0.681510 0.210614 -0.013542 -0.092539 0.294662 0.517206 0.422928 
_value 0.416523 -0.796449 0.531060 -0.235410 0.595787 -0.118254 -0.091974 -0.054397 -0.272294 -0.586376 0.151422 0.324310 -0.080906 -0.224402 0.613919 -0.410055 0.424474 -0.425131 0.013075 0.236279 -0.504679 -0.233802 0.750129 -0.438398 -0.201950 0.474875 -0.416137 0.623000 0.337225 -0.084039 0.057627 0.139839 -0.700206 -0.464557 0.084874 0.444341 0.402835 -0.555515 0.749180 -0.126594 0.233140 -0.645702 -0.540598 0.169800 -0.410703 0.180074 0.289768 -0.129759 -0.268336 -0.124856 -0.168350 0.019735 -0.307333 -0.050243 -0.121567 0.332197 0.091873 -1.149069 -0.290728 -0.037450 0.089336 -0.539893 0.309528 -0.191910 -0.019750 0.164024 -0.034406 0.090103 0.537079 0.039992 -0.414951 -0.175474 0.218057 0.242255 -0.432803 -0.599428 0.085615 1.066840 -0.005797 0.087619 -0.193103 0.249656 0.487837 -0.428992 0.485302 0.049891 -0.292433 0.299968 -0.001107 0.172986 0.704322 0.082308 0.105823 0.410340 -0.258836 -0.493322 -0.331714 0.112137 1.107075 -0.574809 -0.900759 0.283391 0.974257 0.634490 0.622620 -0.486865 -0.590219 -0.338056 -0.869496 0.239114 -0.087165 0.042790 1.008672 0.004055 0.338116 0.161513 0.418128 -0.196665 0.449677 0.127022 -0.622984 0.253794 -0.489648 0.380751 -0.265195 0.067199 -0.020282 0.600182 0.171458 0.671773 0.282144 -0.502432 0.318755 0.037763 -0.208491 -0.048147 0.883583 -0.055698 -0.560628 0.096007 -0.025013 0.099081 -1.084012 -0.085329 -0.525970 1.100058 0.445947 -0.134693 -1.002268 -0.053431 0.197051 0.431160 0.019940 0.141083 -0.161909 -0.147219 -0.055769 1.376401 -0.470031 0.627418 -0.775355 0.032879 0.061976 -0.063589 -0.386478 -0.309287 0.348444 0.083636 -0.792343 -0.694902 -0.475939 -0.548341 0.109629 -0.039993 0.648615 -0.540495 -0.018247 0.250352 0.296195 0.347829 1.379595 0.672007 -0.089308 -0.028090 0.854188 0.285259 -0.158525 -0.042284 0.146022 0.613444 0.867178 -0.082798 -0.656236 0.095017 0.187077 0.133505 0.065645 0.413698 0.239499 -0.052628 -0.402557 0.573953 -0.268882 -0.040636 -0.765734 -0.169102 -0.057120 0.253751 0.518286 0.043839 -0.488890 0.274803 -0.060854 -0.052324 -0.119588 -0.567677 -0.024128 -0.666083 0.485572 0.176310 -0.353556 -0.840098 0.337900 -0.031137 -0.222265 -0.134556 -0.230426 -0.290268 -0.410636 0.346970 -0.612627 0.099650 0.174701 0.254093 0.077647 -0.176953 0.078447 0.294419 0.328759 0.214407 0.005369 0.075923 -0.221626 -0.406183 -0.285935 0.610249 -1.084024 0.487843 0.828327 -0.678881 0.003308 -0.171100 0.683203 0.156328 -0.009108 0.184749 -0.976311 0.511740 0.675858 0.176799 0.316089 0.188843 0.360586 -0.301662 0.326146 0.364353 -0.370001 -1.147628 -0.012117 0.667418 -0.620653 0.063934 -0.783933 -0.493468 0.345353 -0.883466 -0.492662 0.308992 0.697261 -0.138134 -0.264974 0.051803 0.205460 0.292954 -0.148309 -0.113934 0.663628 -0.214304 -0.291100 0.030319 -0.019039 -0.222699 -0.294363 -0.312414 -0.172571 -1.047133 -0.171594 0.617234 -0.025088 -0.263724 
internal 0.311828 -0.460218 0.881948 1.134796 -0.135937 -0.172563 0.167503 0.830811 0.080018 0.053797 -1.101387 0.494480 0.487160 0.692453 -0.218144 -0.356278 0.050811 -0.793046 -0.363751 -0.246018 0.758949 0.486108 -0.463945 -0.438746 0.080147 0.160349 0.277744 0.123474 -0.141461 -0.393659 -0.391563 0.003497 -0.322930 0.432652 -0.199577 -0.454114 0.223932 -0.200080 0.989597 -0.679414 -0.797298 -1.202272 -0.275572 0.537675 0.226945 -0.094111 -0.317190 0.124355 0.663132 0.651100 -0.885149 -0.539038 -0.171607 0.070486 -0.461054 0.073262 -0.366956 0.355552 0.594047 1.054743 -0.172728 1.277702 -1.203893 0.165893 -0.061441 0.719666 0.349618 0.383783 -0.339676 -0.471770 0.762925 -0.521982 -0.723337 -0.582388 -0.242897 0.515353 -0.567940 -0.158780 0.608870 -1.362466 -0.111033 -0.233826 -0.831523 -0.405201 0.738013 0.080414 0.251095 0.574861 0.388736 0.004967 -0.337704 -0.425872 0.123374 0.673644 0.354268 1.108764 -0.227301 -0.355710 0.371927 0.372652 -0.033670 0.341699 -0.000535 0.132201 0.254719 -0.718537 -0.519548 0.386906 -0.241225 0.781735 -0.087942 0.496056 -0.533268 -0.693535 -0.050658 0.065568 -0.474451 -0.255852 -0.173066 0.104378 1.117759 -0.098176 -0.330267 0.073803 -0.000276 0.023216 -0.124444 -0.584819 -0.388252 0.381470 -0.491487 0.428288 -0.644388 -0.588992 0.450407 -0.078488 0.087072 0.245320 -0.096915 0.503308 -0.573571 0.869944 0.938685 -0.345735 -0.012317 -0.087604 -0.101832 -0.010276 -0.062818 0.368149 -0.900289 -0.234285 0.177877 0.341458 0.793528 -0.259912 0.373971 -0.872067 0.049604 0.162469 0.734368 -0.485471 0.922718 0.392290 -0.426972 0.717006 -0.518743 0.127287 0.217091 -0.400373 0.404954 0.011080 0.319102 -0.514847 -0.159453 0.435735 -0.111015 0.306056 0.439239 0.698269 -0.653671 -0.449523 -0.210369 -0.038505 -0.338355 -0.200948 -0.003526 -0.476182 0.059265 0.103214 0.311758 -0.278603 0.029529 0.024795 -0.277469 -0.238655 0.640750 -0.759806 0.239976 0.189661 0.081476 -0.408214 -0.130134 -0.131181 0.324264 -0.128597 -0.310548 -0.171393 0.294443 0.214170 0.937308 -0.252950 -0.074058 -0.402761 0.313706 -0.611567 0.075946 0.139019 -1.151201 -0.178498 -0.474862 0.482657 -0.931695 -0.861488 -0.748041 -0.092866 0.051933 0.650418 0.028127 -1.085518 -0.569889 -0.649490 -0.587975 0.154907 -0.197192 0.708801 -0.402389 0.438318 0.039659 -0.526132 0.106502 -0.560780 0.148759 0.347443 -0.267118 -0.182237 0.528237 -0.227989 -0.903020 0.003763 0.451945 0.050296 0.172107 -0.497296 0.044904 -0.175283 0.632501 -0.144830 -0.373643 -0.140749 0.666041 0.363354 -0.248124 -0.281668 0.501025 0.236854 -0.193660 0.183999 0.333635 -0.499479 -0.830561 -0.245850 -0.119510 -0.403324 0.052691 0.089937 0.355558 -0.079091 -0.551489 1.078899 0.183089 -0.220808 0.712099 0.468037 -1.269732 0.176643 -0.472905 -0.112016 -0.017184 -0.187178 -0.872150 -0.458605 0.027369 0.217161 0.040245 0.133253 0.601336 -0.928679 -0.562276 0.209202 
bool 0.472185 0.246003 -0.118281 -0.128622 0.407731 -0.028764 0.460773 0.353909 0.130915 0.060587 0.175950 0.184776 0.646886 0.561601 0.077441 0.620843 -0.272050 -0.781403 -0.033616 -0.437028 0.008696 -0.175852 0.193142 0.738349 -0.797296 -0.186140 -0.238728 0.113656 -0.120869 -0.073213 0.664198 -0.548029 0.403772 0.724942 -0.091360 -0.163336 -0.273537 -0.522134 -0.380525 0.114937 -0.497064 0.390553 0.520076 -0.092646 0.214504 0.376246 0.038365 -0.473473 0.139575 0.005330 0.208991 -0.603626 -0.484915 -0.257474 -0.679066 0.215834 -0.335389 0.709132 0.301657 -0.084677 0.345461 0.371009 0.606636 -0.315902 -0.415906 -0.152552 -0.444245 -0.358773 0.609498 0.299657 -0.329046 0.387276 0.780329 -0.361265 0.342779 -0.201353 -0.430036 0.247156 0.004801 0.482796 -0.950265 -0.320866 -0.146159 0.203558 0.259904 -0.128200 0.031354 0.703334 0.036704 -0.862728 0.282385 -0.537119 -0.535988 0.029387 0.199130 0.691695 0.444726 -0.166796 0.244395 -0.804764 -0.013974 0.299674 0.200753 0.453169 -0.559618 -0.357398 0.601106 -0.454921 0.604946 0.193299 0.052554 -0.200046 0.068834 0.305456 -0.512326 0.023014 0.119245 0.105912 0.450931 -0.123537 0.246159 -0.187730 -0.075956 -0.084550 0.446001 0.110536 0.280629 -0.240346 -0.320783 0.380984 -0.420319 -0.133016 -0.270728 -0.038838 0.447188 -0.944336 -0.615298 0.695652 -0.327120 0.173358 -0.694409 -0.350196 0.552482 0.162941 0.573723 -0.221797 0.659077 -0.281023 -0.576383 0.437354 -0.430758 0.107005 0.272934 0.516827 -0.892579 -0.663447 0.437836 -0.621295 -0.021004 0.301014 -0.323533 -0.193390 0.084137 -0.252739 0.313041 0.306727 1.537357 0.085732 0.164966 0.025753 -0.022472 0.496592 -0.054089 0.289282 -0.530864 -0.089198 -0.140777 -0.133386 -0.435258 0.087365 -0.549893 -0.571218 -0.080419 0.019401 -0.746171 -0.443713 0.263004 -0.366814 -0.261401 -0.461204 -0.059996 -0.157326 0.555853 -0.112885 -0.488306 0.055211 0.209624 0.193379 0.075994 -0.184201 -0.069675 0.326294 0.426016 -0.373232 -0.346260 0.011828 0.050090 -0.475747 -0.155206 0.025876 0.324322 -0.484425 -0.885718 -0.291483 0.081158 0.212477 0.978703 0.042033 -0.142823 -0.141396 -0.173535 -0.702730 0.085018 0.506715 -0.937388 -0.221603 0.347208 -0.130909 0.548027 -0.426825 -0.194180 0.115792 -0.550791 0.409475 -0.007513 -0.076407 0.113078 -0.076400 -0.055181 0.705378 0.742178 -0.089857 -0.297031 0.115628 0.068024 -0.062375 0.215045 -0.233421 -0.201778 0.773949 -0.389926 -0.276961 -0.015534 0.096905 -0.380221 -0.089952 0.743725 -0.340582 0.231804 -0.161393 -0.219847 0.348520 -0.032851 -0.270403 -0.566204 -0.396933 0.191514 0.870038 -0.393908 0.510563 0.233358 0.346663 0.867085 0.184346 -0.494677 -0.086688 -0.140193 -0.748296 -1.065862 -0.264707 0.428887 0.405601 -0.059497 -0.376693 -0.025624 -0.106654 0.024025 -0.057474 -0.065326 0.446958 -0.546194 -0.028461 -0.554276 -0.302172 0.226006 0.238466 -0.062967 -0.679545 -0.074983 1.041415 
uint 0.158780 -0.197249 -0.637813 -0.974624 -0.233840 0.448477 -0.823393 0.288332 0.027349 0.293966 0.689557 -0.288466 -0.637134 0.026781 -0.620115 -0.003517 0.281003 0.128938 0.232513 0.512013 0.400897 0.251861 0.449693 0.370563 -0.685526 0.744582 -0.306705 0.351893 -0.777718 -0.294821 0.251097 -0.575725 -0.442530 -0.177211 0.721933 0.126756 0.189548 0.139388 -0.384749 0.030065 0.010431 0.943844 -0.050145 -0.085887 0.653472 -0.214517 -0.445051 -0.369230 0.093555 0.095078 0.524220 0.665083 0.067021 0.143297 -0.380731 0.116502 0.025718 0.706343 0.431175 0.256176 -0.076562 0.329929 -0.424259 -0.707346 0.806080 -0.246001 -0.237726 0.325637 0.222099 0.103589 0.536587 1.421670 0.027921 0.163181 0.594376 0.384996 0.396921 0.890745 0.126088 0.092750 -0.342555 0.088158 -0.329458 0.499861 0.072737 0.546549 -0.134984 0.492038 -0.226120 -1.111773 0.222106 0.563676 0.832127 -0.560876 -0.187449 0.088129 0.253320 0.041279 0.074438 0.386207 -0.123184 -0.623905 -0.161917 -0.520892 -0.869733 0.038275 0.027618 -0.494463 0.509207 0.807476 0.012529 -0.108534 -0.804255 0.017461 -0.191517 -0.368243 -0.734208 0.841184 0.266642 -0.092370 -0.249181 -0.150905 0.671282 0.002901 0.296963 -0.189832 -0.002179 0.083680 0.323032 -0.578720 0.177301 0.170905 0.311136 0.648663 -0.558130 -0.348268 -0.447968 0.544705 0.004785 0.766821 0.076742 -0.636475 -0.232952 -0.199950 0.048345 0.177063 0.744492 0.187788 0.379461 0.114168 -0.672009 0.079158 -0.001017 0.075258 -0.200324 -1.318101 -0.728803 0.231208 0.069012 -0.890260 -0.816416 0.070405 0.176976 0.381428 0.406019 0.641396 1.129086 -0.367627 0.860529 -0.735948 -0.339619 -0.366416 0.061182 -0.378477 0.332692 0.579502 0.118791 0.349748 0.118246 -0.254460 0.056188 0.166001 0.049097 0.446173 -0.234166 0.075988 0.156553 0.852977 -0.219521 -0.002283 -0.029816 0.667668 0.072735 -0.417953 -0.631652 -0.170912 -0.918508 -0.210404 0.392081 -0.647992 -0.203622 -0.240554 0.478613 -0.362029 -0.255778 -0.457889 0.579254 0.120668 -0.320083 -0.083858 -0.231817 -0.111644 0.300909 -0.023149 0.614796 -0.294521 -0.035547 -0.174031 0.107901 0.272000 -0.329154 -0.141385 0.347793 0.749210 0.247492 -0.598069 -0.017391 -0.300981 0.225431 0.031893 -0.741601 0.009202 0.187017 0.811126 -0.301589 0.001906 0.762764 -0.153990 0.024458 0.278630 0.356280 0.453476 0.017166 0.389047 0.138257 -0.155442 -0.137293 0.481592 0.196646 -0.135185 -0.605561 -0.257324 0.076684 0.236230 0.048299 -0.278475 0.938325 0.291822 -0.254887 0.559236 -0.033528 0.394180 -0.332831 -0.415229 0.012694 0.208061 -0.150600 0.571401 -0.241884 0.578094 0.124868 -0.046002 0.473206 0.115725 -0.096479 -0.148705 0.201543 0.369428 -0.713059 -0.590429 -0.051060 0.000233 -0.766110 -0.052757 0.206287 -0.623735 0.123779 0.299140 0.489756 0.242210 1.320312 0.827492 0.576041 0.425135 -0.220112 -0.065980 -0.603581 0.251324 -0.045946 0.302756 
sub -0.340068 0.982269 1.012454 0.175175 -0.667810 0.883483 -0.325363 -0.487211 -0.536200 0.500759 0.271308 0.216412 -0.568514 0.571722 0.017698 -0.056863 0.212026 0.373019 0.083845 0.725525 0.395659 -0.332954 0.309355 -0.452638 -0.197304 0.298730 -1.295951 -0.147749 0.455557 0.119941 -0.179551 0.256588 -0.354769 -0.170352 0.124866 0.483185 0.022741 -1.001946 -0.146847 1.043124 0.282485 -0.318167 -0.496108 -0.845674 -0.418652 0.003842 1.278580 0.135492 -0.275593 1.314647 0.340967 0.392827 0.746324 -0.730219 -0.448387 0.746392 -0.655196 -0.187670 -0.334878 0.284547 0.116391 -0.117294 -0.290964 0.107267 -0.141575 -0.229666 0.380938 0.042954 -0.344908 0.106959 0.428231 -0.810452 0.715942 -0.254350 0.355720 -0.595953 1.140624 -0.503913 -0.689207 0.550456 0.657970 -0.132819 -0.805573 -0.307621 -0.383195 0.555070 -0.408404 0.611685 -0.213322 0.695049 -0.196513 -0.210084 -0.236140 -0.819644 -0.354244 -0.364611 -0.594567 0.330485 0.372953 0.543568 -0.343765 0.091233 -0.429820 -0.347294 -0.540204 -0.468997 -0.191458 -0.334166 -0.975214 -0.154066 -0.736796 -0.304164 -0.814265 0.081718 1.130000 -0.306554 -0.306515 -0.133715 0.203106 0.183470 -0.415054 -1.050377 -0.418081 0.038116 -0.557293 -0.268312 -0.026019 -0.473127 -0.020053 -0.278879 -0.213528 -0.082749 0.065369 0.409750 -0.495493 -0.151574 0.229463 -0.932733 0.367718 -0.029773 -0.530113 0.734761 -0.063272 0.145716 0.834584 -0.707796 1.033891 0.136005 -0.551016 0.335052 -0.204348 -0.449602 0.334463 0.095634 0.056443 0.529624 -0.130084 0.566299 0.291859 -0.136235 0.331715 0.268298 0.740568 0.600432 0.173060 -0.422996 -0.663792 -0.623277 -0.898463 -0.201099 -0.324646 0.249711 -0.801397 0.556616 -0.234851 0.442474 0.679571 1.895239 0.222857 -0.383543 -0.535748 0.018486 -0.118084 0.742432 0.418511 0.260055 -0.862719 -0.086215 -0.892256 0.887130 -0.313832 0.265463 -0.517831 0.029644 -0.338158 -0.858872 0.405459 -0.541945 0.061729 0.002845 0.573244 0.138960 1.193966 0.537653 0.489934 -0.032147 0.027170 1.387393 0.447826 0.040028 -0.401550 1.324321 0.072158 0.213276 0.426075 -0.100013 -0.355721 -0.035670 -0.067759 0.791121 -0.294976 -0.402828 -0.563850 -0.270171 -0.148175 -0.646401 0.847936 -0.485675 -0.337549 0.008526 -0.212547 -0.264810 -0.467604 0.235347 0.924455 0.889456 0.439584 0.254833 0.021270 0.360274 -0.503689 0.182183 -0.356929 0.451915 -0.238972 -0.281848 0.163421 -0.465951 0.481575 0.314189 -0.105079 0.248467 0.135644 0.158555 0.900917 0.278900 0.609581 0.246064 0.103573 1.164726 0.866686 0.078621 0.328803 -0.214440 -0.770179 -0.201118 -0.203182 -0.481154 -0.315185 -0.316097 0.086744 -0.740382 -0.553751 0.489973 -0.379494 -0.642447 0.275101 0.843874 1.287556 0.099765 -0.044693 0.222499 -0.695526 -0.320108 0.153359 1.423953 0.294611 0.318367 -0.095440 -0.404623 -0.574375 0.140094 -0.262255 0.566057 -0.360286 -0.106821 -0.130748 0.229990 -0.113739 -0.315731 
_dividends 0.010724 -0.033591 -0.195897 -0.407806 -0.057954 0.575294 1.156925 -0.025263 0.035608 -0.733202 0.456257 0.533565 0.011153 0.231465 -0.154738 -0.374453 0.189825 -0.091410 0.127802 0.130303 -0.808549 -0.100854 0.188534 -0.071857 -0.465419 -0.410146 -0.159664 0.588878 0.209463 -0.446473 -0.251075 0.116904 -0.239459 -0.793789 -0.750420 -0.082481 -0.322850 -0.730208 -0.297414 -0.196515 -0.152320 -0.725979 -0.741636 -0.244711 -0.157240 -0.264320 0.617128 0.075370 -0.383949 -0.057153 -0.016426 -0.449641 -0.339959 -0.195888 -0.154947 0.113476 0.168659 -0.975330 -0.218272 -0.095573 0.079559 0.116012 -0.110871 0.284760 -1.112353 0.269097 0.942395 -0.571288 0.148146 0.109145 -0.233572 -0.319004 -0.528611 -0.695262 0.279847 -0.564625 -0.190279 -0.050525 -0.312243 -0.562062 -0.299099 0.666594 0.603959 -0.419628 0.893868 -0.718012 0.636423 -0.348279 0.522700 0.206575 0.576701 -0.006554 -0.074184 -0.368815 -0.687990 -0.025568 0.644174 -0.363698 0.488467 -0.657252 0.238952 -0.207956 0.118201 -0.851715 0.447666 -0.373763 -0.223225 -0.679527 0.413727 0.105455 0.312906 0.948506 -0.124971 -0.634610 -0.138931 -0.389684 0.691956 0.611825 0.516991 -0.308949 0.698584 1.101962 0.978721 0.942142 -0.594431 -0.080288 0.289002 0.831311 -0.070234 -0.021043 -0.023252 -0.667495 -1.059264 -0.059938 0.408780 0.006465 0.310694 -0.259863 0.256925 -0.751037 -0.294731 0.409924 0.396445 0.823014 -0.510072 -0.877201 0.132618 0.200099 -0.468623 -0.447001 -0.026861 0.401422 0.182301 0.483829 0.226647 0.354088 0.070610 0.085418 0.219132 0.251076 -0.464582 -0.414689 0.351521 -0.240590 -0.409401 -0.267350 -0.259251 -0.022721 -0.222548 -0.333357 -0.075371 0.278528 0.221077 0.336210 0.015753 -0.017170 0.068551 -0.514696 -0.319375 0.354074 0.064645 0.076924 0.331001 -0.584838 0.132261 0.079307 0.302132 -0.317196 -0.405394 -0.343956 -0.015131 -0.293058 0.089545 0.313385 -0.085703 0.723329 -0.048502 -0.468310 -0.082845 -0.246653 -0.103982 0.408850 0.112358 -0.323764 0.304623 0.304617 0.194157 -0.263103 0.478065 0.258962 0.265330 -0.578125 -0.507522 -0.301265 -0.363555 -0.685175 -0.603644 -0.094272 0.253809 -0.715301 0.217856 -0.257053 0.307515 -0.295706 -0.603846 0.214817 -0.013200 -0.530479 -0.336763 -0.038385 0.068708 -0.620263 0.021817 -0.426731 0.065960 0.139650 -0.359731 0.116081 -0.174037 -0.334302 0.013797 -0.102082 0.106261 0.236524 -0.211783 -0.180612 -0.261135 -0.135923 -0.207905 -0.054546 -0.117547 0.949109 -0.163424 0.261470 -0.175537 0.208690 -0.419438 0.676204 -0.585448 -0.746390 0.541198 -1.057335 -0.207941 0.535889 -0.387091 -0.339984 -0.428778 -0.035834 -0.358360 -0.034035 -0.127033 0.885891 0.274417 0.095385 -0.297054 -0.138780 0.142039 -0.049578 -0.820199 0.188751 0.119546 0.192317 0.314483 -0.104208 -1.018449 -0.346244 -0.293137 0.345921 0.031859 0.536716 -0.532974 -0.130829 0.096177 0.032357 0.308796 -0.847795 0.232330 -0.119268 0.264443 0.124851 
_to -0.359583 0.317703 0.463708 -0.488059 0.569034 -0.449849 0.142665 0.259906 -0.654181 -0.436301 -0.236609 0.752455 -0.527700 -0.550906 0.393121 0.539903 -0.090255 -0.555534 -0.056060 -0.268910 -0.596018 0.664953 -0.348507 0.048651 0.383498 -0.680158 0.044873 0.997240 0.271024 0.422463 0.242677 -0.232384 -0.668814 -0.139161 0.284725 -0.550009 -0.547352 -0.302927 -0.236964 0.146955 -0.764428 0.097998 -0.493700 0.251660 0.253090 0.979279 0.250826 -0.715147 0.842929 -0.069415 -0.229196 0.074482 -0.331275 -0.155752 -0.015467 0.666951 -0.173591 -0.214524 -0.474866 -0.173444 0.595077 -0.524926 0.380794 0.608573 -0.500690 -0.354733 -0.429190 -0.095591 -0.223936 -0.069712 0.266724 -0.053754 0.790644 0.692486 -0.807059 -0.334411 -0.204406 1.100993 0.229533 0.171738 0.010837 -1.277257 -0.465602 -0.644828 0.023797 -0.106427 0.009589 1.024796 0.389777 0.330621 0.298452 -0.001677 -0.456818 0.779301 0.562626 0.515512 -1.211264 0.717501 0.218614 0.273021 -0.368589 -0.007775 0.430113 1.600392 0.510332 -0.559792 -0.948729 -0.137579 0.460228 1.025681 -0.424674 0.000713 0.318574 1.096823 -0.173723 1.202047 -0.046068 0.441037 0.306628 0.270347 -0.355732 0.389652 -0.192435 0.389385 -0.070455 -0.506953 0.164244 -0.868954 1.000324 0.238718 -0.502744 -0.744086 -0.680767 0.639749 -0.316900 0.129275 0.898721 1.016763 0.189290 -0.148940 -0.120429 0.370014 -1.252981 -0.515949 0.583683 0.390360 0.657340 -0.489951 -0.908764 0.166111 0.044921 0.864312 -1.055738 0.438487 -0.717764 0.301475 0.272976 0.156475 0.078544 0.775678 -1.144127 0.513403 -0.625163 0.265607 -0.082731 -0.921776 0.043078 0.373015 -0.312723 0.058488 -0.375442 -0.125110 -1.060742 -0.328781 -0.681785 -0.352047 -0.691074 -0.578670 0.597132 0.810358 1.047987 0.532771 0.117956 0.617725 0.183586 0.492033 -0.241864 -0.543929 0.095648 0.911073 -0.257773 -0.405176 -0.154065 0.155232 0.078354 -0.149077 0.818378 -0.317468 -0.121966 -0.308416 -0.260863 0.050510 -0.154455 -0.642245 -0.517501 0.194032 -0.147143 0.473688 0.105059 -0.423762 0.039389 0.945151 -0.664809 -0.636929 0.505358 -0.375992 -0.113551 -0.604914 0.289348 0.677080 -0.533027 -0.393116 0.338204 0.518530 0.065612 -0.178053 0.329948 -0.151511 -1.021897 0.418160 0.015977 0.547069 -0.305869 -0.811528 0.613317 -0.355981 -0.182885 0.753625 0.879949 0.617405 -0.345312 0.337713 -0.919094 0.571387 0.451112 0.273768 0.116980 -0.105560 1.185830 0.559811 0.812658 -0.107686 0.447128 0.101018 0.040166 0.650521 -0.587808 -0.597209 -0.214569 0.694057 -0.294440 0.834841 0.298954 -0.210749 -0.104417 -0.398917 -0.820766 0.454275 0.146327 0.311773 -0.288076 0.090889 -0.973411 -0.106018 0.482183 -1.053604 -0.143161 -0.004475 -0.133114 -0.684545 -0.242459 0.455139 -0.452610 0.492559 0.323039 -0.200617 0.175306 -0.224958 0.212337 0.047985 -0.223602 0.430860 -1.005294 -1.105318 -0.006660 -0.320996 0.156213 0.430671 0.245538 0.625559 
add -0.099925 0.723047 0.596675 0.524455 -1.297370 0.676928 -0.249516 -0.457045 -0.826222 0.499965 -0.145731 -0.646546 -0.512132 0.589600 -0.508075 -0.302033 -0.209348 0.157888 0.038906 0.285599 1.440814 -0.140379 0.763439 0.176525 -0.743839 0.571123 -1.481340 -0.243063 -0.395334 0.406177 -0.436169 0.204403 -0.031489 0.177364 0.245106 -0.005303 -0.341637 -0.730268 -0.444519 1.214493 0.149734 0.499891 -0.105501 -0.677110 0.051009 -0.434543 1.111030 0.484890 -0.014921 0.976743 0.424676 0.289023 0.481233 -0.066931 -0.104589 0.277713 -0.060578 0.225194 -0.484542 0.564127 0.371162 0.171230 -0.442384 -0.088693 0.110384 -0.190061 0.681569 0.213334 -0.542450 0.021856 0.592003 0.046416 0.260342 0.259981 0.745504 -0.351329 0.934041 -0.448339 0.431624 0.106700 0.524517 -0.934745 -0.891698 -0.020274 -0.002856 0.796835 -0.452499 0.763473 -0.702613 -0.381061 0.027352 0.602176 0.271656 -1.124579 -0.153069 0.041735 0.180561 -0.213103 -0.580530 0.295139 0.250356 -0.022276 -0.549748 -0.307826 -1.323944 -0.454299 0.155491 -0.319678 -0.451392 -0.385473 -0.491675 0.180098 -1.048375 0.200211 0.753992 -0.075370 0.082710 -0.064274 -0.287658 -0.722855 0.632099 -0.073288 0.219137 0.499306 -0.294520 0.082691 0.464834 -0.376131 0.362517 -0.666217 -0.046228 0.391365 0.097011 0.006448 -0.459977 0.411318 0.337611 -0.273983 -0.547295 0.209272 -0.160961 0.721933 -0.028127 0.283825 0.773315 -0.903726 1.169250 0.875249 -0.483979 0.351195 -0.665252 -1.222629 1.005281 0.447037 0.293144 0.136536 -0.879626 -0.265311 -0.179255 -0.493801 -0.094381 0.209809 1.064379 -0.063926 0.660228 -0.262799 -0.450115 -0.268751 0.110180 -0.477643 -0.738231 -0.095779 -0.670322 0.717385 0.943356 0.074254 0.927947 1.872468 -0.457492 -0.090583 -0.786889 0.256372 0.432307 0.544961 0.331827 -0.301492 -1.001518 0.628007 -0.610041 0.060673 -0.808337 0.312976 -0.382433 -0.177914 0.151098 -0.475409 -0.096172 -0.365573 0.067713 -0.211204 0.193724 -0.163467 1.180569 0.336165 0.463767 0.475207 1.115306 0.478520 0.376282 -0.206104 -0.453046 0.480288 0.816236 0.448227 0.420623 -0.363844 -0.518483 0.644895 -0.706948 0.318941 -0.963764 -0.512478 -0.561163 -0.226821 -0.438157 -0.856610 1.233178 0.029569 -0.248342 -0.805440 0.074031 -0.457405 0.084901 0.149564 0.652631 0.549794 0.299634 0.464733 0.577791 0.047810 -0.110052 0.439781 0.083378 -0.039073 -0.049966 -0.157506 -0.038068 -0.164497 0.444075 0.786564 -0.029251 0.509311 -0.763573 0.311713 0.584063 0.203561 0.955411 0.065748 -0.754519 1.020635 0.368780 0.418658 0.169243 -0.815055 0.408610 -0.289351 -0.978647 -0.313788 -0.370761 0.168869 0.604616 -0.037856 -0.643984 0.715830 -0.312384 -0.606157 0.312490 0.945120 1.050200 -0.670373 0.302851 0.250592 -1.671885 -0.044527 1.208181 1.305511 0.270186 0.225393 0.845424 0.387995 0.535327 -0.584258 0.378016 -0.067422 -0.337754 -0.151499 -0.181483 1.420330 -0.165597 -0.394226 
> 0.448044 -1.214868 0.117542 -0.390241 -0.477653 -0.026647 0.912553 0.109768 -0.633792 0.297440 0.478803 -0.558906 -0.401063 0.636753 0.945933 -0.372729 -0.704997 0.128515 -0.306911 0.378839 0.955179 0.052739 0.091520 0.201507 -0.530286 0.724551 -0.200486 0.252002 0.551549 -0.781120 -0.045608 -0.042447 -0.916498 0.146159 0.165026 0.158158 0.012305 0.139098 -0.291427 -0.121437 -0.410637 -0.741624 -0.864586 0.287301 0.548823 -0.253651 0.484097 0.379550 0.226350 0.715578 -0.214982 -0.626966 -0.574589 -0.217205 -0.930437 -0.266714 -0.313258 -0.407114 0.281256 0.176771 0.297298 -0.292697 -0.062402 -0.274269 -0.016982 -0.074397 -0.099711 0.051622 0.387277 -0.217621 0.128305 0.163726 -0.155994 0.386152 -0.235229 0.539063 0.152806 0.119532 0.506331 0.152281 -0.141839 -0.135986 -0.713541 -0.575671 -0.238646 0.828121 -0.153303 0.672274 -0.084193 0.765230 -0.253083 0.086563 -0.159734 0.082152 0.577685 0.199125 0.237017 1.073951 0.279052 -0.383802 0.770417 -0.020482 0.424255 -0.215432 -0.043376 -0.296614 -0.841094 -0.532258 -0.024199 0.241121 -0.375911 0.571539 -0.579720 0.791680 0.942853 0.177758 -0.143229 -0.043938 -0.603316 0.176448 -0.401281 -0.245869 0.576221 0.193239 -0.224696 0.215130 0.446263 -0.243183 0.117709 0.461479 0.401960 -0.349470 -0.556611 0.313995 0.926130 -0.008263 -0.409973 0.040122 -0.582787 -0.322788 -0.482205 0.083839 -0.648708 0.336126 -0.374444 0.133309 -0.618084 0.952176 0.822036 -0.049466 -0.791082 0.113290 -0.360795 0.227359 0.769521 -0.271864 -0.611836 -0.183179 0.211903 0.643588 -0.346532 0.324699 0.003854 0.986346 -0.615035 0.594013 -0.117210 0.714064 -0.064604 -0.361871 -0.596785 0.338489 0.206349 0.296659 0.024512 -0.111224 -0.522845 0.415666 0.070169 -0.018045 -0.316357 0.307461 0.886551 0.900856 0.459971 -0.484083 0.390013 -0.135560 -0.244565 0.221560 -0.618629 1.039739 0.529574 0.190980 -0.038048 -0.287496 0.432653 -0.014344 0.573615 -0.364518 0.492811 -0.501037 0.689610 -0.541448 0.316506 0.458423 -0.734337 0.770970 -0.180205 -0.106146 0.367178 0.610181 0.380270 -0.269397 0.660961 -0.630494 -0.130526 0.055728 -0.085691 -0.124135 -0.083654 -0.741770 -0.715921 -0.840390 -0.135141 -0.001054 0.084240 0.050740 -0.057103 -0.151839 -0.525706 1.705476 -0.046977 0.865553 0.337205 0.831465 0.301651 -0.458983 -0.227360 0.707095 -1.112041 -0.648265 -0.015617 0.427678 0.136023 -0.449813 -0.438472 0.620800 0.500021 -0.787467 1.001051 0.565484 0.225655 -1.147572 0.767303 0.767864 0.146857 0.254979 -0.484368 0.528469 0.147338 0.443801 0.106633 -0.469593 0.330353 1.195478 -0.524833 -0.087221 -1.316850 -0.419839 -0.018466 -0.608356 0.607406 0.879809 -0.261234 -1.137969 -0.136067 0.325237 0.829381 -0.102202 0.089555 -0.399545 -0.234107 0.961652 -0.240444 -0.290900 -0.377895 0.267228 -0.662844 0.630179 -0.253344 0.175349 -0.332992 -0.536601 -0.317412 -0.310224 -0.626741 0.555748 -0.268243 -0.463276 
_amountOfTokens 0.476814 -0.111926 0.327882 0.164733 0.170248 0.024017 0.294407 0.420561 -0.721122 -0.325974 0.660850 0.773953 -0.022724 -0.291298 0.468576 -0.513023 -0.159265 0.048020 0.559978 -0.059683 -0.318262 0.475658 0.331122 -0.204857 0.082654 -0.286913 -0.724076 0.874088 0.237995 0.847322 -0.157413 0.215546 0.054680 -0.371493 0.110659 0.245764 -0.581829 -0.727493 0.614922 -0.165242 -0.310080 -0.154229 -0.850425 -1.006296 -0.700672 -0.748645 0.543004 -0.677615 -0.618948 0.012246 0.501984 0.403946 -0.076188 0.092509 0.088782 0.188623 -0.313272 -0.654921 0.221573 0.052612 0.188099 -0.120762 0.068158 0.013098 -0.344901 -0.078642 0.486020 -0.080328 0.455914 0.645797 -0.126874 0.062284 -0.184757 -0.581474 -0.592127 -0.740115 -0.325970 0.221325 0.028344 -0.613522 0.544494 0.128663 0.201788 -0.440277 0.566132 -0.373889 0.146281 0.076018 -0.100043 -0.405606 0.297373 -0.018168 0.561251 -0.291842 -0.257212 -0.055898 -0.034191 -0.122542 0.467558 -0.298117 -0.261462 0.197555 0.697044 -0.236593 0.126331 -0.892953 0.128654 -0.394261 -0.242765 -0.070029 -0.210559 0.269890 -0.191609 -0.394462 0.009391 0.173613 0.609077 -0.576104 -0.027650 -0.020885 0.361438 0.382110 -0.234937 0.889999 -0.491957 -0.067197 0.598532 0.245042 0.444342 0.033038 0.394321 -0.594431 -0.520978 -0.060746 -0.274170 -0.138184 0.734963 0.195822 0.761075 -0.059219 -0.438992 0.681736 -0.068341 0.469826 -0.210300 -0.123009 0.475058 0.070649 -0.832718 -0.084079 -0.165703 -0.143686 0.078886 0.450071 -0.131588 -0.073473 -0.074730 0.338569 -0.268959 -0.375091 -1.066981 0.008770 0.180459 -0.492822 -0.520011 -0.788618 0.127525 0.241249 -0.729670 -0.302745 -0.136773 -0.308693 0.063372 0.222684 0.587579 -0.815432 -0.199468 0.340672 -0.237994 -0.258725 0.539233 0.585384 0.310684 -0.108555 0.058300 -0.194916 0.222915 -0.429449 -0.026316 -0.148101 -0.509659 -0.217747 -0.397660 0.203047 0.091811 0.288776 -0.003520 -0.351878 0.035504 -0.498327 -0.332371 0.789293 0.275117 -0.190557 -0.240064 0.520050 0.202003 -0.156552 0.351593 -0.141078 -0.610473 0.078642 0.411903 -0.058897 -0.272115 -0.117734 -0.861206 0.078050 0.107403 -0.581941 -0.198505 -0.242296 0.468240 0.321176 -0.345459 -0.039779 0.110852 0.416693 -0.588427 -0.261989 0.704678 -0.215260 0.022228 -0.364416 0.051871 -0.099734 -0.344601 0.406392 0.802164 0.449350 0.070775 0.116442 0.273940 0.029989 0.154766 -0.063725 -0.461148 -0.063493 0.392141 0.182290 0.082294 -0.113340 -0.305194 0.462439 0.039901 0.202257 -0.654716 0.148716 -0.646122 0.004231 0.470464 0.156237 0.001698 0.375995 0.194249 -0.004049 -0.999672 -0.006087 -0.475477 0.127437 0.488503 0.193679 -0.957483 -0.390292 -0.214775 -0.196449 0.181190 -0.282008 0.323556 -0.010652 -0.591148 -0.194232 0.184714 0.091570 -0.180068 -0.111938 0.084739 0.096138 0.050223 0.317195 -0.808929 0.029788 0.126233 -0.826649 0.267024 -0.854923 0.644044 -0.093732 -0.432221 0.879158 
